svm_type c_svc
kernel_type rbf
gamma 0.142857
nr_class 2
total_sv 989
rho -0.119534
label 1 -1
probA -2.49496
probB 0.175915
nr_sv 496 493
SV
1 1:0.479073 2:0.183795 3:0.401016 4:0.00890821 5:0.120398 6:0.466509 7:0.40431 
1 1:0.437159 2:0.224963 3:0.401016 4:0.0136274 5:0.173822 6:0.457937 7:0.306888 
1 1:0.463356 2:0.194086 3:0.406586 4:0.01286 5:0.165547 6:0.457937 7:0.407763 
1 1:0.421442 2:0.2404 3:0.401016 4:0.0199798 5:0.236912 6:0.440792 7:0.347172 
1 1:0.745102 2:0.126573 3:0.180148 4:0.0141249 5:0.179105 6:0.570692 7:0.375225 
1 1:0.596522 2:0.149059 3:0.313759 4:0.00410561 5:0.0590711 6:0.449007 7:0.30988 
1 1:0.619227 2:0.0319867 3:0.416333 4:0.00975282 5:0.130422 6:0.435076 7:0.424046 
1 1:0.45738 2:0.233643 3:0.370125 4:0.0166729 5:0.205219 6:0.475548 7:0.340646 
1 1:0.63582 2:0.370432 3:0.0323856 4:0.00899239 5:0.121407 6:0.57168 7:0.340646 
1 1:0.813155 2:0.110034 3:0.125705 4:0.0608676 5:0.496728 6:0.385547 7:0.391569 
1 1:0.855725 2:0.0682228 3:0.125705 4:0.0417276 5:0.39872 6:0.393285 7:0.366938 
1 1:0.627664 2:0.179343 3:0.247875 4:0.0273145 5:0.299543 6:0.529451 7:0.480253 
1 1:0.6338 2:0.14921 3:0.273967 4:0.0297844 5:0.318567 6:0.484272 7:0.480253 
1 1:0.652209 2:0.378231 3:0.00652376 4:0.00759988 5:0.104441 6:0.499332 7:0.32122 
1 1:0.652209 2:0.354123 3:0.0326159 4:0.00952305 5:0.127716 6:0.494311 7:0.286941 
1 1:0.656455 2:0.29869 3:0.088099 4:0.0151686 5:0.18999 6:0.452167 7:0.553895 
1 1:0.677173 2:0.283428 3:0.0825918 4:0.0121667 5:0.157939 6:0.583526 7:0.680151 
1 1:0.661634 2:0.247816 3:0.137653 4:0.0202799 5:0.239674 6:0.460642 7:0.358881 
1 1:0.604659 2:0.334301 3:0.104616 4:0.0101915 5:0.135546 6:0.464879 7:0.358881 
1 1:0.681355 2:0.111541 3:0.264182 4:0.029775 5:0.318496 6:0.396424 7:0.495056 
1 1:0.405227 2:0.0889412 3:0.582181 4:0.0460109 5:0.423455 6:0.351244 7:0.373314 
1 1:0.262562 2:0.518356 3:0.269076 4:0.0238341 5:0.271041 6:0.396424 7:0.622943 
1 1:0.405227 2:0.0889412 3:0.582181 4:0.0284852 5:0.308679 6:0.351244 7:0.519066 
1 1:0.285218 2:0.393066 3:0.380595 4:0.0119462 5:0.155493 6:0.459365 7:0.427579 
1 1:0.708192 2:0.201487 3:0.138304 4:0.014723 5:0.185376 6:0.534415 7:0.370361 
1 1:0.764194 2:0.242625 3:0.0342465 4:0.0244183 5:0.275972 6:0.535727 7:0.403949 
1 1:0.770482 2:0.204378 3:0.0689578 4:0.01296 5:0.166634 6:0.384866 7:0.282697 
1 1:0.83535 2:0.150467 3:0.0583489 4:0.00738091 5:0.101718 6:0.429769 7:0.384213 
1 1:0.63707 2:0.0786549 3:0.346854 4:0.0205997 5:0.242596 6:0.472669 7:0.459766 
1 1:0.571814 2:0.270938 3:0.208113 4:0.0184435 5:0.222483 6:0.57944 7:0.508697 
1 1:0.677856 2:0.0385963 3:0.346854 4:0.0170134 5:0.208594 6:0.465996 7:0.634523 
1 1:0.620756 2:0.222867 3:0.208113 4:0.018159 5:0.219755 6:0.572767 7:0.508697 
1 1:0.536441 2:0.0971897 3:0.433767 4:0.00822512 5:0.112132 6:0.465719 7:0.406371 
1 1:0.530164 2:0.103355 3:0.433767 4:0.00769306 5:0.105595 6:0.455448 7:0.406371 
1 1:0.542718 2:0.115687 3:0.407074 4:0.00631756 5:0.0882719 6:0.573567 7:0.406371 
0.1959311780554386 1:0.536441 2:0.0971897 3:0.433767 4:0.0088252 5:0.119401 6:0.563295 7:0.406371 
1 1:0.876151 2:0.0577399 3:0.115337 4:0.0105019 5:0.139137 6:0.686891 7:0.388666 
1 1:0.663499 2:0.168824 3:0.221166 4:0.012226 5:0.158595 6:0.507346 7:0.226801 
1 1:0.663499 2:0.178554 3:0.210636 4:0.0158497 5:0.196951 6:0.495188 7:0.267665 
1 1:0.767524 2:0.066652 3:0.221166 4:0.0101995 5:0.135639 6:0.539766 7:0.313834 
1 1:0.363808 2:0.405279 3:0.28383 4:0.0120662 5:0.156825 6:0.322148 7:0.381661 
1 1:0.320217 2:0.458797 3:0.272246 4:0.00778352 5:0.106713 6:0.371183 7:0.478252 
1 1:0.374706 2:0.37852 3:0.301208 4:0.0188951 5:0.226775 6:0.348894 7:0.365117 
1 1:0.314768 2:0.43739 3:0.301208 4:0.0148391 5:0.186583 6:0.397929 7:0.528114 
1 1:0.21837 2:0.779253 3:0.0336774 4:0.0035883 5:0.0519898 6:0.253737 7:0.451009 
1 1:0.178049 2:0.816026 3:0.0367387 4:0.0035251 5:0.051117 6:0.223108 7:0.432533 
1 1:0.252929 2:0.0239951 3:0.814373 4:0.00274013 5:0.0401618 6:0.246669 7:0.492784 
1 1:0.18093 2:0.0777411 3:0.832743 4:0.00253762 5:0.0372973 6:0.216039 7:0.336843 
1 1:0.783829 2:0.249406 3:0.00603429 4:0.0250722 5:0.281418 6:0.421146 7:0.217032 
1 1:0.607875 2:0.388778 3:0.0422372 4:0.0110453 5:0.145359 6:0.555807 7:0.367959 
1 1:0.411439 2:0.597346 3:0.0253174 4:0.00665526 5:0.0925827 6:0.392474 7:0.323562 
1 1:0.802008 2:0.195022 3:0.0455707 4:0.0144431 5:0.182452 6:0.372991 7:0.314724 
1 1:0.639937 2:0.317962 3:0.0848002 4:0.0101275 5:0.134801 6:0.444112 7:0.334771 
1 1:0.689026 2:0.269747 3:0.0848002 4:0.0105726 5:0.139951 6:0.504351 7:0.251761 
1 1:0.771108 2:0.13973 3:0.138262 4:0.0266018 5:0.293873 6:0.584973 7:0.391569 
1 1:0.654737 2:0.267475 3:0.123708 4:0.0196723 5:0.234063 6:0.46177 7:0.391569 
1 1:0.791644 2:0.146454 3:0.109155 4:0.0201421 5:0.238408 6:0.640974 7:0.391569 
1 1:0.49105 2:0.204378 3:0.366007 4:0.0201507 5:0.238486 6:0.380784 7:0.44045 
1 1:0.476081 2:0.123513 3:0.469444 4:0.0237076 5:0.269965 6:0.386908 7:0.44045 
1 1:0.996586 2:0.0330651 3:0.0140134 4:0.0141892 5:0.179784 6:0.707092 7:0.467723 
1 1:0.812026 2:0.210023 3:0.018685 4:0.0175351 5:0.213712 6:0.699903 7:0.484627 
1 1:0.987798 2:0.0416977 3:0.0140134 4:0.0135583 5:0.173083 6:0.714282 7:0.502962 
1 1:0.803238 2:0.218654 3:0.018685 4:0.0170464 5:0.208918 6:0.707092 7:0.484627 
1 1:0.549567 2:0.0631546 3:0.45665 4:0.0167119 5:0.205607 6:0.328911 7:0.373344 
1 1:0.476037 2:0.135375 3:0.45665 4:0.00683215 5:0.0948252 6:0.39223 7:0.28616 
1 1:0.545697 2:0.0669558 3:0.45665 4:0.0215625 5:0.251273 6:0.430222 7:0.480664 
1 1:0.405509 2:0.0726528 3:0.599511 4:0.0148449 5:0.186643 6:0.423272 7:0.481995 
1 1:0.473025 2:0.00633928 3:0.599511 4:0.00746772 5:0.102799 6:0.364788 7:0.750831 
1 1:0.473025 2:0.00633928 3:0.599511 4:0.0233848 5:0.267207 6:0.329049 7:0.494245 
1 1:0.473025 2:0.00633928 3:0.599511 4:0.012868 5:0.165633 6:0.277064 7:0.494245 
1 1:0.805702 2:0.0866479 3:0.158939 4:0.00992272 5:0.132413 6:0.705076 7:0.513882 
1 1:0.440001 2:0.556401 3:0.0392714 4:0.0125743 5:0.162428 6:0.503705 7:0.41726 
1 1:0.463089 2:0.533723 3:0.0392714 4:0.0109952 5:0.144789 6:0.518817 7:0.41726 
1 1:0.757937 2:0.265379 3:0.016271 4:0.0148725 5:0.186929 6:0.349721 7:0.248269 
1 1:0.796202 2:0.205245 3:0.0406775 4:0.0135286 5:0.172765 6:0.346591 7:0.307708 
1 1:0.666157 2:0.226971 3:0.155407 4:0.0087481 5:0.118473 6:0.631687 7:0.411055 
1 1:0.837004 2:0.0478309 3:0.167676 4:0.0373062 5:0.371122 6:0.497641 7:0.495967 
1 1:0.786816 2:0.0337475 3:0.236272 4:0.0273208 5:0.299592 6:0.497641 7:0.4164 
1 1:0.357708 2:0.533723 3:0.151296 4:0.00904992 5:0.122095 6:0.441176 7:0.325073 
1 1:0.329244 2:0.597626 3:0.112391 4:0.0143378 5:0.181348 6:0.407909 7:0.36949 
1 1:0.412849 2:0.512316 3:0.115849 4:0.0176268 5:0.214606 6:0.469252 7:0.391329 
1 1:0.4074 2:0.282186 3:0.370717 4:0.00965016 5:0.129215 6:0.469252 7:0.391329 
1 1:0.423746 2:0.501612 3:0.115849 4:0.0119254 5:0.15526 6:0.47371 7:0.342518 
1 1:0.385604 2:0.539075 3:0.115849 4:0.0130575 5:0.167691 6:0.47371 7:0.342518 
1 1:0.200106 2:0.753655 3:0.0807961 4:0.00751478 5:0.103385 6:0.339577 7:0.377827 
1 1:0.205953 2:0.747913 3:0.0807961 4:0.00836676 5:0.113858 6:0.351535 7:0.377827 
1 1:0.570017 2:0.385197 3:0.0863554 4:0.00592675 5:0.0832365 6:0.519596 7:0.278564 
1 1:0.648814 2:0.00802645 3:0.410813 4:0.00910218 5:0.122719 6:0.501468 7:0.408473 
1 1:0.557033 2:0.0981731 3:0.410813 4:0.0129286 5:0.166293 6:0.323634 7:0.587644 
1 1:0.489405 2:0.212042 3:0.359461 4:0.0166368 5:0.20486 6:0.446141 7:0.287061 
1 1:0.257306 2:0.611569 3:0.173774 4:0.0194831 5:0.232301 6:0.414138 7:0.364586 
1 1:0.644267 2:0.242519 3:0.161849 4:0.0104828 5:0.138917 6:0.48315 7:0.387115 
1 1:0.684333 2:0.179556 3:0.187403 4:0.0092974 5:0.125043 6:0.489705 7:0.435266 
1 1:0.668306 2:0.211038 3:0.170366 4:0.00883413 5:0.119509 6:0.581482 7:0.445154 
1 1:0.692346 2:0.242519 3:0.110739 4:0.0133004 5:0.170314 6:0.614259 7:0.57149 
1 1:0.712838 2:0.198234 3:0.136886 4:0.0360103 5:0.362597 6:0.567588 7:0.358791 
1 1:0.402814 2:0.169467 3:0.49759 4:0.0108846 5:0.143527 6:0.457823 7:0.502342 
1 1:0.522835 2:0.499537 3:0.0127593 4:0.0185077 5:0.223095 6:0.25163 7:0.385994 
1 1:0.43282 2:0.493643 3:0.114828 4:0.00967144 5:0.129465 6:0.526555 7:0.47659 
1 1:0.552841 2:0.470067 3:0.0127593 4:0.0103656 5:0.137563 6:0.320361 7:0.365497 
1 1:0.918902 2:0.092844 3:0.0318962 4:0.00716387 5:0.0990033 6:0.55601 7:0.363285 
1 1:0.954909 2:0.057479 3:0.0318962 4:0.00634878 5:0.088672 6:0.570739 7:0.362835 
1 1:0.684863 2:0.346291 3:0.00637895 4:0.0112857 5:0.148085 6:0.526555 7:0.289733 
1 1:0.696864 2:0.287349 3:0.0574149 4:0.00983971 5:0.131442 6:0.541282 7:0.351986 
1 1:0.906029 2:0.0877357 3:0.0511098 4:0.0125242 5:0.161878 6:0.515927 7:0.279525 
1 1:0.954108 2:0.0457597 3:0.0454317 4:0.00873202 5:0.11828 6:0.69511 7:0.48801 
1 1:0.906029 2:0.0615009 3:0.0795044 4:0.0129369 5:0.166383 6:0.467854 7:0.346661 
1 1:0.738422 2:0.125644 3:0.188255 4:0.0296527 5:0.317577 6:0.514944 7:0.256065 
1 1:0.706852 2:0.110849 3:0.23783 4:0.00818156 5:0.111601 6:0.631389 7:0.474158 
1 1:0.686965 2:0.0620173 3:0.31182 4:0.00964333 5:0.129134 6:0.54191 7:0.351055 
1 1:0.677022 2:0.203627 3:0.169122 4:0.00725643 5:0.100163 6:0.562246 7:0.474158 
1 1:0.569861 2:0.380813 3:0.0912674 4:0.0162515 5:0.201007 6:0.429769 7:0.312923 
1 1:0.564137 2:0.431408 3:0.042592 4:0.0091928 5:0.123799 6:0.434452 7:0.346531 
1 1:0.482149 2:0.39631 3:0.167735 4:0.00581322 5:0.0817631 6:0.4771 7:0.279545 
1 1:0.280162 2:0.406969 3:0.37092 4:0.0136318 5:0.173868 6:0.315814 7:0.334781 
1 1:0.280162 2:0.162849 3:0.635137 4:0.0169563 5:0.20803 6:0.296262 7:0.334781 
1 1:0.6413 2:0.112512 3:0.305713 4:0.0139477 5:0.17723 6:0.546519 7:0.520477 
1 1:0.88994 2:0.0385963 3:0.121398 4:0.0142912 5:0.180857 6:0.572767 7:0.400406 
1 1:0.849153 2:0.110702 3:0.0867131 4:0.00719944 5:0.0994499 6:0.606133 7:0.400406 
1 1:0.553562 2:0.457605 3:0.0254796 4:0.0057254 5:0.080622 6:0.488129 7:0.377347 
1 1:0.857167 2:0.159408 3:0.0254796 4:0.00429407 5:0.0616265 6:0.511006 7:0.479603 
1 1:0.787205 2:0.14921 3:0.110892 4:0.00853495 5:0.1159 6:0.62985 7:0.315045 
1 1:0.787205 2:0.191397 3:0.0652303 4:0.0118015 5:0.153879 6:0.594711 7:0.315045 
1 1:0.676754 2:0.263719 3:0.104369 4:0.0257427 5:0.286927 6:0.499332 7:0.270127 
1 1:0.811749 2:0.100995 3:0.136984 4:0.0242048 5:0.274177 6:0.444112 7:0.287461 
1 1:0.654971 2:0.177274 3:0.221087 4:0.00759087 5:0.104329 6:0.581681 7:0.341287 
1 1:0.498992 2:0.386649 3:0.160287 4:0.00652931 5:0.0909785 6:0.522132 7:0.341287 
1 1:0.654971 2:0.172167 3:0.226614 4:0.00736072 5:0.101466 6:0.386019 7:0.4049 
1 1:0.665371 2:0.223234 3:0.160287 4:0.00918838 5:0.123746 6:0.598696 7:0.4049 
1 1:0.754901 2:0.26613 3:0.018685 4:0.0244263 5:0.276039 6:0.372764 7:0.358161 
1 1:0.798843 2:0.20139 3:0.0420417 4:0.0172768 5:0.211186 6:0.322436 7:0.358161 
1 1:0.993519 2:0.0288318 3:0.0218578 4:0.0172441 5:0.210864 6:0.465215 7:0.404069 
1 1:0.90099 2:0.119712 3:0.0218578 4:0.0189681 5:0.227466 6:0.498858 7:0.394932 
1 1:0.447637 2:0.101458 3:0.523549 4:0.0136554 5:0.174119 6:0.432219 7:0.290724 
1 1:0.43192 2:0.194086 3:0.440004 4:0.00647558 5:0.0902936 6:0.445078 7:0.38072 
1 1:0.602321 2:0.30284 3:0.141152 4:0.00848478 5:0.115291 6:0.559661 7:0.311392 
1 1:0.682591 2:0.0738195 3:0.303697 4:0.0199673 5:0.236796 6:0.316984 7:0.385184 
1 1:0.626848 2:0.131992 3:0.299993 4:0.0531685 5:0.460959 6:0.487995 7:0.328036 
1 1:0.735802 2:0.199232 3:0.111393 4:0.0216157 5:0.251747 6:0.552235 7:0.32195 
1 1:0.688649 2:0.235254 3:0.122532 4:0.0262135 5:0.290749 6:0.419361 7:0.407082 
1 1:0.414163 2:0.133895 3:0.524026 4:0.0178196 5:0.216478 6:0.446496 7:0.348723 
1 1:0.470489 2:0.0522716 3:0.552493 4:0.00865096 5:0.117302 6:0.359439 7:0.30927 
1 1:0.459547 2:0.0576449 3:0.558309 4:0.0262784 5:0.291272 6:0.243073 7:0.30927 
1 1:0.486901 2:0.191978 3:0.383837 4:0.00907974 5:0.122451 6:0.480281 7:0.320049 
1 1:0.391918 2:0.249141 3:0.422941 4:0.0225469 5:0.259959 6:0.41208 7:0.267985 
1 1:0.396243 2:0.130211 3:0.547066 4:0.0094419 5:0.126757 6:0.390854 7:0.275772 
1 1:0.318401 2:0.321348 3:0.422941 4:0.00743068 5:0.102338 6:0.415618 7:0.352706 
1 1:0.318401 2:0.355329 3:0.386164 4:0.00607467 5:0.0851488 6:0.394391 7:0.337884 
1 1:0.627115 2:0.28494 3:0.134171 4:0.00798347 5:0.109175 6:0.560999 7:0.359052 
1 1:0.614058 2:0.173798 3:0.268341 4:0.0076731 5:0.105348 6:0.511152 7:0.26139 
1 1:0.281401 2:0.114164 3:0.686514 4:0.023813 5:0.270861 6:0.331889 7:0.783228 
0.08633505850544158 1:0.207404 2:0.206666 3:0.66506 4:0.0487473 5:0.438326 6:0.287863 7:0.231885 
1 1:0.227585 2:0.216576 3:0.63288 4:0.00979032 5:0.130862 6:0.323634 7:0.574713 
1 1:0.643181 2:0.370446 3:0.0245441 4:0.00958758 5:0.128478 6:0.549038 7:0.27419 
1 1:0.695882 2:0.212802 3:0.139142 4:0.00625202 5:0.0874311 6:0.606537 7:0.339855 
1 1:0.686187 2:0.20328 3:0.159756 4:0.00778904 5:0.106781 6:0.602571 7:0.339855 
1 1:0.536707 2:0.13748 3:0.389877 4:0.0238351 5:0.271049 6:0.5008 7:0.550332 
1 1:0.400484 2:0.271276 3:0.389877 4:0.00668112 5:0.0929111 6:0.419361 7:0.460417 
1 1:0.547185 2:0.482263 3:0.00556945 4:0.0157938 5:0.196384 6:0.479368 7:0.494936 
1 1:0.410962 2:0.255839 3:0.395447 4:0.00356019 5:0.0516023 6:0.397929 7:0.460417 
1 1:0.452461 2:0.508238 3:0.0781519 4:0.00542683 5:0.0767191 6:0.496989 7:0.319158 
1 1:0.871942 2:0.0962304 3:0.0781519 4:0.0155671 5:0.194077 6:0.673882 7:0.358161 
1 1:0.625209 2:0.121486 3:0.313106 4:0.0314307 5:0.330734 6:0.458168 7:0.336913 
1 1:0.691481 2:0.0491635 3:0.320934 4:0.0139667 5:0.177431 6:0.572623 7:0.32101 
1 1:0.514758 2:0.309523 3:0.227002 4:0.0245197 5:0.276821 6:0.524432 7:0.533308 
1 1:0.498177 2:0.435424 3:0.108362 4:0.00396304 5:0.0571298 6:0.335005 7:0.734647 
1 1:0.484277 2:0.47183 3:0.0837343 4:0.00545696 5:0.0771133 6:0.479047 7:0.736258 
1 1:0.484277 2:0.194227 3:0.384194 4:0.00846506 5:0.115053 6:0.399446 7:0.401707 
1 1:0.442577 2:0.239735 3:0.379268 4:0.00642441 5:0.0896397 6:0.391864 7:0.401707 
1 1:0.415881 2:0.563183 3:0.0575698 4:0.00574101 5:0.0808245 6:0.364531 7:0.395362 
1 1:0.353394 2:0.244035 3:0.469419 4:0.00279184 5:0.0408913 6:0.292961 7:0.350705 
1 1:0.269782 2:0.0886361 3:0.726496 4:0.0130589 5:0.167705 6:0.372413 7:0.604808 
1 1:0.260608 2:0.133685 3:0.687488 4:0.0177573 5:0.215874 6:0.387422 7:0.569248 
1 1:0.878642 2:0.149294 3:0.0135978 4:0.0220054 5:0.255203 6:0.54338 7:0.27414 
1 1:0.897829 2:0.0801976 3:0.0679861 4:0.0156529 5:0.194951 6:0.511987 7:0.27414 
1 1:0.329233 2:0.0630583 3:0.690978 4:0.0363056 5:0.364558 6:0.294407 7:0.184235 
1 1:0.277372 2:0.113996 3:0.690978 4:0.0344133 5:0.351803 6:0.218037 7:0.184235 
1 1:0.696684 2:0.310394 3:0.0326637 4:0.0188519 5:0.226367 6:0.53032 7:0.444193 
1 1:0.870803 2:0.139376 3:0.0326637 4:0.0262613 5:0.291135 6:0.681144 7:0.444193 
1 1:0.922015 2:0.0890763 3:0.0326637 4:0.0178307 5:0.216586 6:0.756557 7:0.661936 
1 1:0.932258 2:0.0790162 3:0.0326637 4:0.0200107 5:0.237198 6:0.62249 7:0.661936 
1 1:0.673407 2:0.103475 3:0.281363 4:0.00750274 5:0.103235 6:0.454743 7:0.207935 
1 1:0.56473 2:0.202087 3:0.29016 4:0.0102445 5:0.136161 6:0.446311 7:0.134243 
1 1:0.501547 2:0.256698 3:0.29822 4:0.0072621 5:0.100234 6:0.458716 7:0.183434 
1 1:0.36689 2:0.21245 3:0.489257 4:0.0248851 5:0.279868 6:0.387508 7:0.252902 
1 1:0.373054 2:0.077242 3:0.629045 4:0.00701261 5:0.0971027 6:0.365657 7:0.252902 
1 1:0.402697 2:0.10767 3:0.5646 4:0.013976 5:0.17753 6:0.29394 7:0.303395 
1 1:0.402697 2:0.10767 3:0.5646 4:0.014041 5:0.178219 6:0.315756 7:0.280335 
1 1:0.577798 2:0.142074 3:0.341222 4:0.01638 5:0.202296 6:0.4133 7:0.136014 
1 1:0.559531 2:0.429147 3:0.0499353 4:0.010663 5:0.14099 6:0.42184 7:0.160585 
1 1:0.781346 2:0.138866 3:0.128315 4:0.0129322 5:0.166332 6:0.580912 7:0.227551 
1 1:0.778883 2:0.153383 3:0.115221 4:0.0247246 5:0.278533 6:0.39148 7:0.148585 
1 1:0.778883 2:0.153383 3:0.115221 4:0.00855863 5:0.116186 6:0.548669 7:0.237389 
1 1:0.543049 2:0.187013 3:0.329524 4:0.00929056 5:0.124963 6:0.438642 7:0.198146 
1 1:0.528288 2:0.226365 3:0.302624 4:0.0168241 5:0.206721 6:0.395514 7:0.347872 
1 1:0.555702 2:0.280214 3:0.2152 4:0.00565109 5:0.0796523 6:0.462793 7:0.194443 
1 1:0.319101 2:0.15007 3:0.607574 4:0.00830883 5:0.113153 6:0.396781 7:0.275742 
1 1:0.615356 2:0.0498512 3:0.401112 4:0.0109347 5:0.1441 6:0.417559 7:0.173796 
1 1:0.582461 2:0.0821604 3:0.401112 4:0.0180794 5:0.218989 6:0.400146 7:0.181342 
1 1:0.369383 2:0.372992 3:0.312849 4:0.0230202 5:0.26407 6:0.316946 7:0.135144 
1 1:0.360464 2:0.51095 3:0.173015 4:0.0129725 5:0.16677 6:0.368017 7:0.160645 
1 1:0.620676 2:0.35012 3:0.0704682 4:0.0151093 5:0.189379 6:0.494459 7:0.187357 
1 1:0.746625 2:0.171073 3:0.130365 4:0.0173629 5:0.21203 6:0.451075 7:0.187357 
1 1:0.22428 2:0.663914 3:0.152227 4:0.0215849 5:0.251473 6:0.276574 7:0.170553 
1 1:0.85989 2:0.145807 3:0.0373049 4:0.0175367 5:0.213728 6:0.518507 7:0.188518 
1 1:0.85351 2:0.161475 3:0.0271304 4:0.0133505 5:0.170854 6:0.528946 7:0.478802 
1 1:0.882222 2:0.123874 3:0.0373049 4:0.0155563 5:0.193965 6:0.481968 7:0.188518 
1 1:0.901364 2:0.105073 3:0.0373049 4:0.010873 5:0.143395 6:0.492408 7:0.478802 
1 1:0.261806 2:0.726769 3:0.0443065 4:0.0234461 5:0.267733 6:0.320045 7:0.240812 
1 1:0.327614 2:0.0308561 3:0.727555 4:0.0262931 5:0.291392 6:0.289538 7:0.314604 
1 1:0.27058 2:0.0933364 3:0.72056 4:0.00671366 5:0.0933237 6:0.293126 7:0.34491 
1 1:0.535099 2:0.0965662 3:0.435868 4:0.0290857 5:0.313281 6:0.285383 7:0.147354 
1 1:0.445715 2:0.119209 3:0.506383 4:0.0102697 5:0.136453 6:0.459998 7:0.289713 
1 1:0.458647 2:0.536264 3:0.0412438 4:0.00960101 5:0.128636 6:0.417679 7:0.289713 
1 1:0.579129 2:0.372592 3:0.0903131 4:0.0252537 5:0.282917 6:0.424292 7:0.322901 
1 1:0.728535 2:0.237358 3:0.077855 4:0.0232869 5:0.266367 6:0.453051 7:0.237079 
1 1:0.799446 2:0.113996 3:0.135991 4:0.0202706 5:0.239589 6:0.520685 7:0.334401 
1 1:0.83402 2:0.188705 3:0.0183766 4:0.0100643 5:0.134067 6:0.554627 7:0.372293 
1 1:0.87609 2:0.107574 3:0.0614652 4:0.00784285 5:0.107445 6:0.345708 7:0.235648 
1 1:0.87609 2:0.143919 3:0.0221272 4:0.0111716 5:0.146793 6:0.362737 7:0.337834 
1 1:0.403739 2:0.1218 3:0.548197 4:0.0148298 5:0.186486 6:0.407636 7:0.23789 
1 1:0.415148 2:0.117318 3:0.54092 4:0.0129909 5:0.166969 6:0.392703 7:0.23789 
1 1:0.582738 2:0.404705 3:0.051718 4:0.00763319 5:0.104854 6:0.516834 7:0.244605 
1 1:0.551322 2:0.239588 3:0.263826 4:0.0156186 5:0.194602 6:0.448462 7:0.173476 
1 1:0.658866 2:0.161043 3:0.234512 4:0.00919777 5:0.123858 6:0.507116 7:0.226991 
1 1:0.636806 2:0.147501 3:0.272621 4:0.00974365 5:0.130314 6:0.509372 7:0.229863 
1 1:0.720914 2:0.11146 3:0.222218 4:0.0196087 5:0.233472 6:0.425291 7:0.252332 
1 1:0.748787 2:0.11146 3:0.192588 4:0.0238369 5:0.271065 6:0.482295 7:0.252332 
1 1:0.339709 2:0.633883 3:0.0620242 4:0.0182149 5:0.220293 6:0.309107 7:0.1906 
1 1:0.382833 2:0.0732843 3:0.622933 4:0.00795171 5:0.108784 6:0.350613 7:0.1906 
1 1:0.568545 2:0.440145 3:0.0284497 4:0.00988925 5:0.132022 6:0.486382 7:0.185876 
1 1:0.356823 2:0.532008 3:0.154094 4:0.00623541 5:0.087217 6:0.352209 7:0.176128 
1 1:0.246797 2:0.701827 3:0.0872576 4:0.017848 5:0.216754 6:0.32792 7:0.176128 
1 1:0.954108 2:0.0465665 3:0.044557 4:0.0143795 5:0.181785 6:0.446507 7:0.23856 
1 1:0.636546 2:0.0844884 3:0.341098 4:0.034199 5:0.350329 6:0.465224 7:0.220245 
1 1:0.606744 2:0.367429 3:0.0665438 4:0.0204537 5:0.241264 6:0.44475 7:0.211017 
1 1:0.7379 2:0.232755 3:0.0728807 4:0.0172618 5:0.211039 6:0.608133 7:0.35702 
1 1:0.756084 2:0.102048 3:0.195018 4:0.025247 5:0.282862 6:0.431138 7:0.221866 
1 1:0.442751 2:0.517855 3:0.078065 4:0.00373662 5:0.0540299 6:0.423763 7:0.191141 
1 1:0.428065 2:0.103122 3:0.542555 4:0.00545176 5:0.0770455 6:0.369693 7:0.243645 
1 1:0.415213 2:0.517855 3:0.10734 4:0.00275007 5:0.0403023 6:0.42226 7:0.179921 
1 1:0.453767 2:0.479988 3:0.10734 4:0.00641672 5:0.0895409 6:0.368191 7:0.228822 
1 1:0.561753 2:0.203672 3:0.291611 4:0.00789876 5:0.108132 6:0.446893 7:0.236819 
1 1:0.522736 2:0.161005 3:0.379268 4:0.022977 5:0.263696 6:0.440383 7:0.279645 
1 1:0.490301 2:0.110034 3:0.468914 4:0.00589188 5:0.0827851 6:0.395276 7:0.286471 
1 1:0.538952 2:0.457268 3:0.0413741 4:0.0140723 5:0.178549 6:0.443037 7:0.164999 
1 1:0.47084 2:0.189675 3:0.403403 4:0.00598662 5:0.0840105 6:0.419157 7:0.207604 
1 1:0.464751 2:0.160248 3:0.441727 4:0.0202292 5:0.239209 6:0.401136 7:0.217553 
1 1:0.484968 2:0.230108 3:0.344624 4:0.013151 5:0.168703 6:0.404894 7:0.191181 
1 1:0.795234 2:0.10098 3:0.154556 4:0.00955597 5:0.128105 6:0.616678 7:0.280416 
1 1:0.464334 2:0.349149 3:0.237718 4:0.0118064 5:0.153934 6:0.464056 7:0.266554 
1 1:0.476643 2:0.522439 3:0.0370746 4:0.0186035 5:0.224008 6:0.276081 7:0.266554 
1 1:0.45818 2:0.544605 3:0.0327129 4:0.0073382 5:0.101185 6:0.464056 7:0.266554 
1 1:0.470489 2:0.528484 3:0.0370746 4:0.0081477 5:0.111187 6:0.276081 7:0.266554 
1 1:0.249488 2:0.692996 3:0.0939537 4:0.00940331 5:0.126301 6:0.326254 7:0.187738 
1 1:0.261017 2:0.0966679 3:0.727122 4:0.00609385 5:0.0853958 6:0.294817 7:0.187738 
1 1:0.209141 2:0.772254 3:0.051062 4:0.0105762 5:0.139993 6:0.290102 7:0.157032 
1 1:0.207218 2:0.164603 3:0.710781 4:0.00741895 5:0.102192 6:0.258665 7:0.161446 
1 1:0.718235 2:0.240702 3:0.0851839 4:0.0235822 5:0.268896 6:0.499286 7:0.172695 
1 1:0.699743 2:0.17108 3:0.180195 4:0.0148655 5:0.186857 6:0.463988 7:0.247488 
1 1:0.363808 2:0.470078 3:0.213697 4:0.00639801 5:0.0893026 6:0.397156 7:0.308839 
1 1:0.368538 2:0.258697 3:0.437451 4:0.0556242 5:0.472843 6:0.350721 7:0.263481 
1 1:0.375634 2:0.444525 3:0.228782 4:0.00642355 5:0.0896291 6:0.39909 7:0.308839 
1 1:0.478695 2:0.108691 3:0.482704 4:0.00768087 5:0.105444 6:0.401957 7:0.189079 
1 1:0.459547 2:0.138245 3:0.471073 4:0.0098255 5:0.131275 6:0.390768 7:0.222016 
1 1:0.478695 2:0.108691 3:0.482704 4:0.0108051 5:0.142619 6:0.453426 7:0.28586 
1 1:0.434929 2:0.162425 3:0.471073 4:0.0149427 5:0.187656 6:0.401957 7:0.222297 
1 1:0.745933 2:0.176168 3:0.125586 4:0.00867433 5:0.117584 6:0.331589 7:0.232375 
1 1:0.417517 2:0.576404 3:0.0415232 4:0.00530741 5:0.0751488 6:0.393535 7:0.174156 
1 1:0.410192 2:0.5812 3:0.0441183 4:0.00809413 5:0.110532 6:0.39753 7:0.206904 
0.3158239350746856 1:0.770419 2:0.170417 3:0.105782 4:0.0409198 5:0.393842 6:0.47709 7:0.122053 
1 1:0.734063 2:0.224427 3:0.0859731 4:0.0236138 5:0.269166 6:0.479391 7:0.14291 
1 1:0.883449 2:0.0812118 3:0.0821762 4:0.00409326 5:0.0589035 6:0.317545 7:0.17819 
1 1:0.862834 2:0.152074 3:0.0273925 4:0.0108687 5:0.143346 6:0.259925 7:0.224489 
1 1:0.528522 2:0.118779 3:0.418818 4:0.0100894 5:0.134359 6:0.452922 7:0.180722 
1 1:0.872969 2:0.0818861 3:0.0925838 4:0.014485 5:0.182891 6:0.170781 7:0.135664 
1 1:0.885624 2:0.075306 3:0.0862541 4:0.0120235 5:0.156351 6:0.181743 7:0.144451 
1 1:0.203863 2:0.537783 3:0.310447 4:0.00447173 5:0.0640241 6:0.307217 7:0.0911666 
1 1:0.344678 2:0.674075 3:0.0132416 4:0.0178443 5:0.216717 6:0.33795 7:0.105399 
1 1:0.361584 2:0.180312 3:0.529683 4:0.00880424 5:0.119149 6:0.338677 7:0.117248 
1 1:0.823983 2:0.127081 3:0.0957436 4:0.00906188 5:0.122238 6:0.55312 7:0.135694 
1 1:0.759249 2:0.128463 3:0.163062 4:0.00868023 5:0.117655 6:0.450657 7:0.139827 
1 1:0.494385 2:0.10807 3:0.466698 4:0.00967625 5:0.129523 6:0.401394 7:0.183034 
1 1:0.529676 2:0.457466 3:0.0510214 4:0.00574536 5:0.0808806 6:0.432574 7:0.154029 
1 1:0.501779 2:0.116269 3:0.449964 4:0.00428343 5:0.0614832 6:0.429187 7:0.117919 
1 1:0.526751 2:0.0843827 3:0.457929 4:0.00307628 5:0.0448823 6:0.392413 7:0.122083 
1 1:0.524508 2:0.45576 3:0.0583619 4:0.0100905 5:0.134371 6:0.401298 7:0.106209 
1 1:0.573981 2:0.37508 3:0.0930935 4:0.0118691 5:0.154633 6:0.472755 7:0.210807 
1 1:0.659607 2:0.346408 3:0.0330996 4:0.00709973 5:0.0981983 6:0.496635 7:0.210807 
1 1:0.83195 2:0.186997 3:0.022427 4:0.0133526 5:0.170876 6:0.300622 7:0.162567 
1 1:0.694524 2:0.0952109 3:0.267859 4:0.0211277 5:0.247377 6:0.457837 7:0.121562 
1 1:0.0348527 2:0.956429 3:0.0370008 4:0.00421836 5:0.0606016 6:0.164324 7:0.135434 
1 1:0.935045 2:0.0662399 3:0.0435303 4:0.00406616 5:0.0585344 6:0.161533 7:0.0932683 
1 1:0.524892 2:0.108166 3:0.434165 4:0.00456592 5:0.0652902 6:0.40042 7:0.111263 
1 1:0.670805 2:0.156326 3:0.226925 4:0.0116136 5:0.151777 6:0.449059 7:0.108972 
1 1:0.505776 2:0.489017 3:0.0422806 4:0.0171257 5:0.209701 6:0.35346 7:0.165699 
1 1:0.901114 2:0.0886254 3:0.055373 4:0.0419351 5:0.399962 6:0.315297 7:0.11961 
1 1:0.303227 2:0.63471 3:0.0999112 4:0.00935804 5:0.125763 6:0.262493 7:0.126506 
1 1:0.566948 2:0.415837 3:0.0564562 4:0.00801213 5:0.109526 6:0.418133 7:0.0991533 
1 1:0.605186 2:0.0360943 3:0.426813 4:0.00576632 5:0.0811538 6:0.404772 7:0.127497 
1 1:0.611161 2:0.0243576 3:0.433164 4:0.00355189 5:0.051487 6:0.432144 7:0.165159 
1 1:0.434022 2:0.00961194 3:0.637433 4:0.0142986 5:0.180935 6:0.327827 7:0.171324 
1 1:0.404296 2:0.0971991 3:0.574234 4:0.00227656 5:0.0335804 6:0.316087 7:0.171324 
1 1:0.788184 2:0.126104 3:0.134857 4:0.0148706 5:0.186909 6:0.342579 7:0.123524 
1 1:0.824429 2:0.0608372 3:0.166966 4:0.0177706 5:0.216003 6:0.337637 7:0.116198 
1 1:0.425332 2:0.294794 3:0.338009 4:0.00367644 5:0.0532036 6:0.385101 7:0.13067 
1 1:0.408998 2:0.208163 3:0.449136 4:0.0124008 5:0.160521 6:0.369957 7:0.13067 
1 1:0.404642 2:0.50014 3:0.13775 4:0.00674464 5:0.093717 6:0.395792 7:0.175157 
1 1:0.368993 2:0.609649 3:0.0571223 4:0.0155069 5:0.193461 6:0.357825 7:0.13045 
1 1:0.616961 2:0.190332 3:0.24736 4:0.00737174 5:0.101603 6:0.353926 7:0.0945995 
1 1:0.636839 2:0.17655 3:0.241146 4:0.0103538 5:0.137427 6:0.343404 7:0.0958705 
1 1:0.417919 2:0.097159 3:0.559795 4:0.00768467 5:0.105492 6:0.308118 7:0.165249 
1 1:0.441348 2:0.560679 3:0.0332082 4:0.0194173 5:0.231687 6:0.29534 7:0.165249 
1 1:0.615152 2:0.330587 3:0.0974798 4:0.0181606 5:0.219771 6:0.399556 7:0.105979 
1 1:0.673708 2:0.294778 3:0.0739914 4:0.00994873 5:0.132717 6:0.38871 7:0.126186 
1 1:0.57964 2:0.0843894 3:0.401698 4:0.024568 5:0.277225 6:0.380107 7:0.0974919 
1 1:0.700496 2:0.142978 3:0.209812 4:0.0100239 5:0.133595 6:0.491959 7:0.168091 
1 1:0.662834 2:0.32487 3:0.0529793 4:0.0060082 5:0.0842895 6:0.245205 7:0.112725 
1 1:0.831705 2:0.0513404 3:0.169512 4:0.0285281 5:0.309009 6:0.360657 7:0.136585 
1 1:0.791613 2:0.0969837 3:0.162732 4:0.0145868 5:0.183955 6:0.354694 7:0.0937087 
1 1:0.588576 2:0.120292 3:0.35334 4:0.0103981 5:0.13794 6:0.420218 7:0.122583 
1 1:0.809602 2:0.211004 3:0.0201983 4:0.0107416 5:0.141892 6:0.44241 7:0.146573 
1 1:0.831527 2:0.196649 3:0.0124306 4:0.00892025 5:0.120543 6:0.435236 7:0.175738 
1 1:0.60796 2:0.408668 3:0.0206183 4:0.00992147 5:0.132399 6:0.431904 7:0.0990632 
1 1:0.829743 2:0.18091 3:0.0313604 4:0.0163794 5:0.202289 6:0.521439 7:0.16631 
1 1:0.536765 2:0.384894 3:0.122033 4:0.00933723 5:0.125516 6:0.42172 7:0.126006 
1 1:0.334516 2:0.597083 3:0.107373 4:0.00668725 5:0.0929886 6:0.323451 7:0.0673065 
0.07845124879557022 1:0.537536 2:0.03468 3:0.500258 4:0.00572369 5:0.0805987 6:0.438454 7:0.113986 
1 1:0.533292 2:0.0381547 3:0.50101 4:0.0105945 5:0.140204 6:0.401981 7:0.0983426 
1 1:0.471352 2:0.0785372 3:0.523146 4:0.0143659 5:0.181642 6:0.332811 7:0.0770447 
1 1:0.424043 2:0.151831 3:0.494111 4:0.006857 5:0.0951401 6:0.332412 7:0.0796669 
1 1:0.70918 2:0.0433046 3:0.308459 4:0.00788416 5:0.107954 6:0.4453 7:0.0972817 
1 1:0.695058 2:0.0716774 3:0.292762 4:0.0034865 5:0.0505842 6:0.419567 7:0.0972817 
1 1:0.281088 2:0.124296 3:0.67588 4:0.00266869 5:0.0391534 6:0.264601 7:0.0689079 
1 1:0.182529 2:0.732776 3:0.122079 4:0.00587301 5:0.0825391 6:0.235085 7:0.051173 
1 1:0.362048 2:0.224989 3:0.480833 4:0.00838586 5:0.114091 6:0.337553 7:0.0718203 
1 1:0.413088 2:0.155267 3:0.502038 4:0.0116428 5:0.152105 6:0.315955 7:0.0665659 
1 1:0.840799 2:0.188692 3:0.0111852 4:0.011575 5:0.151344 6:0.407226 7:0.0722807 
1 1:0.84571 2:0.057099 3:0.148391 4:0.0205472 5:0.242118 6:0.401488 7:0.0722807 
1 1:0.861851 2:0.0793386 3:0.107162 4:0.00884322 5:0.119618 6:0.239375 7:0.0686777 
1 1:0.855672 2:0.085409 3:0.107162 4:0.0102737 5:0.136499 6:0.215994 7:0.0686777 
1 1:0.664918 2:0.230201 3:0.153228 4:0.00279309 5:0.0409077 6:0.415349 7:0.057188 
1 1:0.874244 2:0.0278738 3:0.149687 4:0.0284543 5:0.308441 6:0.378032 7:0.0740922 
1 1:0.809173 2:0.106455 3:0.133812 4:0.0225887 5:0.260324 6:0.316507 7:0.0680572 
1 1:0.667597 2:0.222524 3:0.15869 4:0.00470259 5:0.067122 6:0.273463 7:0.0581989 
1 1:0.294678 2:0.237131 3:0.53931 4:0.0092866 5:0.124915 6:0.307261 7:0.0616318 
1 1:0.30253 2:0.701609 3:0.0282469 4:0.00570063 5:0.0802984 6:0.32881 7:0.0662156 
1 1:0.290057 2:0.0757689 3:0.718869 4:0.00840294 5:0.114298 6:0.296867 7:0.0508527 
1 1:0.754145 2:0.208863 3:0.0814709 4:0.0100776 5:0.13422 6:0.480174 7:0.0760239 
1 1:0.0577777 2:0.08455 3:0.95629 4:0.00932551 5:0.125376 6:0.189167 7:0.0471396 
1 1:0.0725293 2:0.911067 3:0.0460457 4:0.00553989 5:0.0782002 6:0.193019 7:0.0481705 
1 1:0.0433394 2:0.101197 3:0.95362 4:0.00220061 5:0.0324945 6:0.232305 7:0.0736218 
1 1:0.10172 2:0.0296747 3:0.968968 4:0.00938336 5:0.126063 6:0.236158 7:0.0874635 
1 1:0.444539 2:0.543578 3:0.0483265 4:0.00510101 5:0.0724248 6:0.300123 7:0.0708795 
1 1:0.514035 2:0.0678228 3:0.48937 4:0.00404675 5:0.0582709 6:0.365099 7:0.070259 
1 1:0.529189 2:0.131462 3:0.404383 4:0.00860817 5:0.116786 6:0.39887 7:0.0922075 
1 1:0.64192 2:0.0661945 3:0.355185 4:0.011747 5:0.153271 6:0.336626 7:0.0746927 
1 1:0.648358 2:0.0567096 3:0.358607 4:0.049929 5:0.444538 6:0.346632 7:0.0746927 
1 1:0.182083 2:0.835234 3:0.0116617 4:0.00410786 5:0.0591021 6:0.262762 7:0.0739121 
1 1:0.144402 2:0.101602 3:0.845748 4:0.0142584 5:0.180513 6:0.22062 7:0.0739121 
1 1:0.160618 2:0.855846 3:0.0121685 4:0.00439082 5:0.0629343 6:0.219059 7:0.0761239 
1 1:0.534755 2:0.45327 3:0.0501641 4:0.0123004 5:0.159417 6:0.372436 7:0.0629128 
1 1:0.789475 2:0.0754104 3:0.188352 4:0.0327563 5:0.340248 6:0.293911 7:0.0884043 
1 1:0.642293 2:0.137681 3:0.277417 4:0.0209328 5:0.245619 6:0.42611 7:0.0808079 
1 1:0.872018 2:0.118061 3:0.0544433 4:0.00584715 5:0.0822039 6:0.322799 7:0.10708 
1 1:0.260065 2:0.713953 3:0.0600273 4:0.00573751 5:0.0807789 6:0.321008 7:0.0825193 
1 1:0.278805 2:0.0525914 3:0.755916 4:0.0161273 5:0.199756 6:0.257957 7:0.0799972 
1 1:0.261368 2:0.734418 3:0.0364925 4:0.00573029 5:0.080685 6:0.246367 7:0.0984627 
1 1:0.725188 2:0.17642 3:0.147366 4:0.00439711 5:0.0630176 6:0.326226 7:0.0750931 
1 1:0.731895 2:0.151166 3:0.16757 4:0.00670069 5:0.0931591 6:0.361437 7:0.0668962 
1 1:0.270179 2:0.639245 3:0.130135 4:0.00606077 5:0.0849686 6:0.261289 7:0.0750931 
1 1:0.282476 2:0.651324 3:0.103989 4:0.00695033 5:0.096318 6:0.296501 7:0.0668962 
1 1:0.906326 2:0.0887097 3:0.0497398 4:0.00415647 5:0.0597627 6:0.200969 7:0.0590196 
1 1:0.86627 2:0.106466 3:0.0731023 4:0.0129793 5:0.166843 6:0.446009 7:0.0683274 
1 1:0.267418 2:0.728544 3:0.0364186 4:0.0100709 5:0.134142 6:0.310808 7:0.0838905 
1 1:0.25929 2:0.734817 3:0.0382708 4:0.00393928 5:0.0568052 6:0.305583 7:0.0912767 
1 1:0.86882 2:0.107567 3:0.0692011 4:0.017489 5:0.213262 6:0.501524 7:0.0598803 
1 1:0.472475 2:0.0913964 3:0.508035 4:0.00800793 5:0.109475 6:0.400665 7:0.104938 
1 1:0.897285 2:0.0837485 3:0.0647206 4:0.0170422 5:0.208877 6:0.314503 7:0.0820489 
1 1:0.351623 2:0.245729 3:0.469469 4:0.00478614 5:0.068238 6:0.272084 7:0.0334481 
1 1:0.411068 2:0.100098 3:0.563896 4:0.00726288 5:0.100243 6:0.327423 7:0.034519 
1 1:0.409066 2:0.570267 3:0.0571484 4:0.00688379 5:0.0954772 6:0.315657 7:0.0364606 
1 1:0.594036 2:0.404109 3:0.0403532 4:0.00740653 5:0.102036 6:0.421257 7:0.0353597 
1 1:0.857389 2:0.113659 3:0.0747589 4:0.0400535 5:0.388531 6:0.403896 7:0.0304055 
1 1:0.844076 2:0.0912037 3:0.113215 4:0.0405399 5:0.391522 6:0.315584 7:0.0294948 
1 1:0.509461 2:0.208025 3:0.342488 4:0.0142574 5:0.180502 6:0.374833 7:0.0461388 
1 1:0.82525 2:0.180958 3:0.0360841 4:0.0291826 5:0.314019 6:0.431566 7:0.0490112 
1 1:0.313626 2:0.70212 3:0.015896 4:0.00651107 5:0.090746 6:0.279641 7:0.0263621 
1 1:0.460806 2:0.162754 3:0.443209 4:0.00718166 5:0.0992261 6:0.358764 7:0.039313 
1 1:0.407815 2:0.295265 3:0.35612 4:0.00666971 5:0.0927667 6:0.323634 7:0.0328276 
1 1:0.0472544 2:0.109399 3:0.94058 4:0.00627881 5:0.087775 6:0.192768 7:0.0387125 
1 1:0.0446035 2:0.112376 3:0.940177 4:0.00686966 5:0.0952989 6:0.201445 7:0.0303655 
1 1:0.690753 2:0.0891499 3:0.278429 4:0.00917354 5:0.12357 6:0.451386 7:0.0450278 
1 1:0.896814 2:0.0872928 3:0.0613841 4:0.0111577 5:0.146635 6:0.499402 7:0.0510929 
1 1:0.350648 2:0.145493 3:0.578994 4:0.0264298 5:0.292493 6:0.278048 7:0.0478902 
1 1:0.885649 2:0.151356 3:0.00391715 4:0.012248 5:0.158837 6:0.526622 7:0.0670363 
1 1:0.927087 2:0.0896503 3:0.0266526 4:0.0161398 5:0.199883 6:0.411603 7:0.0698086 
1 1:0.283578 2:0.643169 3:0.111644 4:0.0112531 5:0.147717 6:0.248884 7:0.0402638 
1 1:0.196327 2:0.185127 3:0.700145 4:0.00240988 5:0.035482 6:0.275725 7:0.03574 
1 1:0.229163 2:0.153506 3:0.699466 4:0.00329005 5:0.0478611 6:0.278166 7:0.0371812 
1 1:0.351122 2:0.652755 3:0.0294648 4:0.00939625 5:0.126216 6:0.330495 7:0.0501721 
1 1:0.495851 2:0.0809709 3:0.49447 4:0.00445581 5:0.063809 6:0.379971 7:0.0414448 
1 1:0.479276 2:0.0951172 3:0.496779 4:0.0271967 5:0.298611 6:0.303807 7:0.0543457 
1 1:0.508103 2:0.429845 3:0.10385 4:0.0123707 5:0.160191 6:0.334203 7:0.0342187 
1 1:0.845695 2:0.108608 3:0.0926576 4:0.00492242 5:0.0700543 6:0.198991 7:0.0354598 
1 1:0.871747 2:0.122155 3:0.0503003 4:0.00282609 5:0.0413737 6:0.163572 7:0.0427159 
1 1:0.906371 2:0.0812265 3:0.0577928 4:0.0135484 5:0.172976 6:0.346592 7:0.0340086 
1 1:0.899847 2:0.0961769 3:0.0485452 4:0.0045827 5:0.0655159 6:0.373785 7:0.0378018 
1 1:0.163059 2:0.131792 3:0.793238 4:0.00547381 5:0.0773352 6:0.216766 7:0.0283738 
1 1:0.882815 2:0.109883 3:0.0518164 4:0.0115373 5:0.15092 6:0.425238 7:0.0363906 
1 1:0.569306 2:0.376098 3:0.09696 4:0.0175287 5:0.21365 6:0.364518 7:0.0365107 
1 1:0.52341 2:0.0738008 3:0.472933 4:0.00459364 5:0.0656631 6:0.347258 7:0.042856 
1 1:0.525362 2:0.0718835 3:0.472933 4:0.00239474 5:0.0352659 6:0.349056 7:0.042856 
0.4065460040625358 1:0.466525 2:0.418665 3:0.16015 4:0.00708863 5:0.0980588 6:0.380263 7:0.032107 
1 1:0.553123 2:0.147767 3:0.361293 4:0.00572866 5:0.0806636 6:0.408575 7:0.0448277 
1 1:0.51132 2:0.103414 3:0.453735 4:0.0256323 5:0.286026 6:0.346564 7:0.039253 
1 1:0.279498 2:0.181148 3:0.616037 4:0.00417666 5:0.0600369 6:0.224592 7:0.0340886 
1 1:0.342278 2:0.116919 3:0.618817 4:0.0147159 5:0.185302 6:0.164838 7:0.036871 
1 1:0.533935 2:0.420182 3:0.0868478 4:0.00573798 5:0.0807847 6:0.413999 7:0.0420854 
1 1:0.269927 2:0.736203 3:0.0254622 4:0.00562375 5:0.0792958 6:0.244092 7:0.0409444 
1 1:0.265462 2:0.744576 3:0.0211468 4:0.00731405 5:0.100884 6:0.282949 7:0.0311261 
1 1:0.277236 2:0.731218 3:0.0230887 4:0.00369942 5:0.0535194 6:0.252726 7:0.0627827 
1 1:0.265259 2:0.741785 3:0.0243834 4:0.0051667 5:0.0732927 6:0.277304 7:0.0517735 
1 1:0.243571 2:0.0571512 3:0.788436 4:0.00303326 5:0.0442798 6:0.222509 7:0.0310161 
1 1:0.263555 2:0.034854 3:0.791325 4:0.00242021 5:0.0356282 6:0.285786 7:0.0288743 
1 1:0.726555 2:0.0616133 3:0.270173 4:0.0197948 5:0.2352 6:0.443081 7:0.0290844 
1 1:0.613079 2:0.112987 3:0.335199 4:0.00565179 5:0.079662 6:0.40035 7:0.0363005 
1 1:0.549497 2:0.422696 3:0.0675835 4:0.0257229 5:0.286766 6:0.35873 7:0.0266224 
1 1:0.886841 2:0.102555 3:0.05547 4:0.0116492 5:0.152176 6:0.533621 7:0.0281937 
1 1:0.717393 2:0.306627 3:0.0147273 4:0.00818622 5:0.111659 6:0.412951 7:0.0362805 
1 1:0.655154 2:0.134609 3:0.26707 4:0.00653677 5:0.0910744 6:0.349008 7:0.0320669 
1 1:0.699548 2:0.181599 3:0.169018 4:0.00996418 5:0.132899 6:0.370379 7:0.025021 
1 1:0.398225 2:0.0824976 3:0.5966 4:0.0130231 5:0.167319 6:0.233548 7:0.0311462 
1 1:0.414468 2:0.0442063 3:0.620775 4:0.0250085 5:0.280891 6:0.307799 7:0.0346491 
1 1:0.432743 2:0.563718 3:0.0390687 4:0.00342516 5:0.0497366 6:0.34102 7:0.041665 
1 1:0.604224 2:0.386058 3:0.0490621 4:0.00501839 5:0.0713282 6:0.444016 7:0.0323872 
1 1:0.588422 2:0.422518 3:0.0263977 4:0.00691213 5:0.0958356 6:0.404003 7:0.0329377 
1 1:0.80087 2:0.213854 3:0.0263977 4:0.00853984 5:0.115959 6:0.406054 7:0.029785 
1 1:0.515892 2:0.19593 3:0.348741 4:0.00818855 5:0.111687 6:0.290858 7:0.0314965 
1 1:0.661697 2:0.171015 3:0.220713 4:0.0148617 5:0.186817 6:0.396035 7:0.0270527 
1 1:0.446413 2:0.360442 3:0.244546 4:0.0133252 5:0.170581 6:0.328958 7:0.0317767 
1 1:0.435148 2:0.170885 3:0.461684 4:0.00721209 5:0.0996078 6:0.322815 7:0.0313964 
1 1:0.869991 2:0.106629 3:0.0689723 4:0.0103906 5:0.137853 6:0.426058 7:0.0374715 
1 1:0.52966 2:0.228439 3:0.298921 4:0.00805973 5:0.110111 6:0.379485 7:0.0319468 
1 1:0.551526 2:0.0938261 3:0.421371 4:0.0121 5:0.157201 6:0.348746 7:0.032167 
1 1:0.468726 2:0.238227 3:0.353103 4:0.00625008 5:0.0874068 6:0.358 7:0.0395632 
1 1:0.578282 2:0.160038 3:0.321266 4:0.0105762 5:0.139993 6:0.405692 7:0.0326274 
1 1:0.553143 2:0.451417 3:0.0326217 4:0.00516686 5:0.0732956 6:0.347558 7:0.0255214 
1 1:0.575033 2:0.144873 3:0.341132 4:0.00384238 5:0.05548 6:0.402421 7:0.0270027 
1 1:0.61088 2:0.0656539 3:0.388767 4:0.00539639 5:0.076319 6:0.428886 7:0.0351996 
1 1:0.587063 2:0.422007 3:0.0283946 4:0.0116181 5:0.151828 6:0.327276 7:0.0381821 
1 1:0.405258 2:0.0865275 3:0.58476 4:0.00779439 5:0.106848 6:0.330635 7:0.0342288 
1 1:0.444034 2:0.562983 3:0.0278588 4:0.00498003 5:0.0708196 6:0.340698 7:0.0312262 
1 1:0.198933 2:0.188179 3:0.694073 4:0.00815438 5:0.111269 6:0.261889 7:0.0435466 
1 1:0.203974 2:0.189322 3:0.687478 4:0.00350623 5:0.0508564 6:0.26855 7:0.0349193 
1 1:0.745639 2:0.2318 3:0.0656879 4:0.00709857 5:0.0981828 6:0.492138 7:0.0289343 
1 1:0.188347 2:0.690685 3:0.16145 4:0.00372023 5:0.0538051 6:0.251961 7:0.0291645 
1 1:0.57401 2:0.365706 3:0.103207 4:0.01061 5:0.140381 6:0.413616 7:0.0410645 
1 1:0.215057 2:0.109974 3:0.761577 4:0.00836023 5:0.113779 6:0.244824 7:0.0275932 
1 1:0.607552 2:0.220721 3:0.224471 4:0.00542466 5:0.076689 6:0.434585 7:0.0286741 
1 1:0.846599 2:0.0460701 3:0.159382 4:0.0586498 5:0.486863 6:0.270271 7:0.0134713 
1 1:0.843436 2:0.134923 3:0.0665771 4:0.0161268 5:0.199751 6:0.311156 7:0.0141719 
1 1:0.38656 2:0.194163 3:0.488141 4:0.00426208 5:0.0611935 6:0.315055 7:0.0138316 
1 1:0.398521 2:0.17935 3:0.491458 4:0.00624698 5:0.0873662 6:0.334093 7:0.0179451 
1 1:0.278304 2:0.713334 3:0.0413075 4:0.0167376 5:0.205863 6:0.232955 7:0.0184155 
1 1:0.283983 2:0.0923195 3:0.707413 4:0.0263778 5:0.292074 6:0.217758 7:0.0160135 
1 1:0.846426 2:0.167683 3:0.0279414 4:0.0130068 5:0.167141 6:0.431277 7:0.0171844 
1 1:0.823207 2:0.126981 3:0.0966776 4:0.0120636 5:0.156797 6:0.416239 7:0.0192962 
1 1:0.449995 2:0.19475 3:0.420072 4:0.00458875 5:0.0655963 6:0.35971 7:0.0153929 
1 1:0.522169 2:0.124938 3:0.418906 4:0.00372085 5:0.0538139 6:0.395444 7:0.0153929 
1 1:0.947526 2:0.0720119 3:0.0240155 4:0.0191519 5:0.229197 6:0.490217 7:0.0157532 
1 1:0.693275 2:0.149111 3:0.21085 4:0.0137375 5:0.174997 6:0.40066 7:0.0176448 
1 1:0.701958 2:0.146046 3:0.204937 4:0.0139161 5:0.176895 6:0.441725 7:0.0176448 
1 1:0.859933 2:0.156261 3:0.0259459 4:0.0304856 5:0.323798 6:0.285721 7:0.0255014 
1 1:0.144749 2:0.788921 3:0.101474 4:0.0038767 5:0.0559499 6:0.18906 7:0.0161936 
1 1:0.149952 2:0.796433 3:0.0878137 4:0.00274921 5:0.0402897 6:0.200448 7:0.0187558 
1 1:0.895999 2:0.101129 3:0.0472766 4:0.0134476 5:0.171896 6:0.511626 7:0.0135013 
1 1:0.911379 2:0.0712961 3:0.063216 4:0.00976959 5:0.130619 6:0.402794 7:0.0174447 
1 1:0.387732 2:0.165764 3:0.517632 4:0.00946 5:0.12697 6:0.313344 7:0.0176849 
1 1:0.421996 2:0.127516 3:0.522604 4:0.0095413 5:0.127931 6:0.315196 7:0.0165239 
1 1:0.77237 2:0.141522 3:0.134982 4:0.0101661 5:0.135252 6:0.377264 7:0.0164338 
1 1:0.580122 2:0.220518 3:0.253849 4:0.0140453 5:0.178263 6:0.370398 7:0.0181653 
1 1:0.785401 2:0.237717 3:0.0170139 4:0.00544174 5:0.0769138 6:0.433074 7:0.0287942 
1 1:0.786149 2:0.224935 3:0.0300527 4:0.00800102 5:0.109391 6:0.445555 7:0.0160735 
1 1:0.826336 2:0.0561731 3:0.16999 4:0.0230407 5:0.264246 6:0.452809 7:0.0232295 
1 1:0.860453 2:0.0769958 3:0.111183 4:0.0112426 5:0.147598 6:0.514394 7:0.0141919 
1 1:0.846508 2:0.0874172 3:0.114728 4:0.0132969 5:0.170277 6:0.501001 7:0.0141919 
1 1:0.478172 2:0.206329 3:0.377586 4:0.00691516 5:0.0958744 6:0.35352 7:0.0220886 
1 1:0.250734 2:0.55132 3:0.24597 4:0.00864995 5:0.11729 6:0.276205 7:0.0157132 
1 1:0.268838 2:0.164125 3:0.645794 4:0.0039347 5:0.0567423 6:0.270897 7:0.0171744 
1 1:0.262036 2:0.166285 3:0.650689 4:0.00257605 5:0.0378417 6:0.267643 7:0.0149125 
1 1:0.323454 2:0.122183 3:0.633132 4:0.00281452 5:0.04121 6:0.311629 7:0.0180952 
1 1:0.684911 2:0.118116 3:0.253288 4:0.0113895 5:0.149256 6:0.421847 7:0.0186056 
1 1:0.533575 2:0.209015 3:0.315783 4:0.0208458 5:0.244832 6:0.349997 7:0.0187357 
1 1:0.540287 2:0.33004 3:0.177658 4:0.0131672 5:0.168877 6:0.36232 7:0.0169142 
1 1:0.755142 2:0.12033 3:0.176233 4:0.0414351 5:0.396962 6:0.357813 7:0.0114696 
-1 1:0.534087 2:0.137909 3:0.392197 4:0.00997451 5:0.133018 6:0.449007 7:0.743925 
-1 1:0.578575 2:0.209478 3:0.267445 4:0.0153971 5:0.192338 6:0.353753 7:0.400897 
-1 1:0.520525 2:0.483994 3:0.0320381 4:0.0163742 5:0.202237 6:0.400888 7:0.683864 
-1 1:0.381051 2:0.0578148 3:0.64157 4:0.0197075 5:0.23439 6:0.301298 7:0.5354 
-1 1:0.25605 2:0.665522 3:0.116714 4:0.0163799 5:0.202294 6:0.557609 7:0.992644 
-1 1:0.527487 2:0.496385 3:0.0112258 4:0.0312833 5:0.32966 6:0.509372 7:0.986869 
-1 1:0.345063 2:0.448617 3:0.256852 4:0.0151016 5:0.189299 6:0.528116 7:0.54736 
-1 1:0.224587 2:0.739046 3:0.070584 4:0.020706 5:0.243563 6:0.547921 7:0.998048 
-1 1:0.356257 2:0.666036 3:0.00963286 4:0.0254336 5:0.284397 6:0.599563 7:0.998629 
-1 1:0.684116 2:0.0708599 3:0.305279 4:0.0809231 5:0.572803 6:0.479252 7:0.500671 
-1 1:0.812914 2:0.0278364 3:0.214926 4:0.00879166 5:0.118998 6:0.589361 7:0.529795 
-1 1:0.305059 2:0.631456 3:0.101485 4:0.00846133 5:0.115007 6:0.252543 7:0.258137 
-1 1:0.606724 2:0.178648 3:0.270889 4:0.00695406 5:0.0963655 6:0.485992 7:0.460807 
-1 1:0.784195 2:0.0877357 3:0.180625 4:0.00938413 5:0.126073 6:0.484207 7:0.520707 
-1 1:0.773175 2:0.0977731 3:0.181478 4:0.00969489 5:0.129741 6:0.422441 7:0.451549 
-1 1:0.666847 2:0.131767 3:0.257715 4:0.0318408 5:0.333704 6:0.424373 7:0.637766 
-1 1:0.598626 2:0.0730288 3:0.393813 4:0.0389091 5:0.381385 6:0.228976 7:0.329447 
-1 1:0.687226 2:0.314731 3:0.0380246 4:0.0148261 5:0.186448 6:0.569117 7:0.733796 
-1 1:0.456042 2:0.172751 3:0.437451 4:0.0310926 5:0.328268 6:0.389416 7:0.521448 
-1 1:0.741558 2:0.116003 3:0.195356 4:0.00547148 5:0.0773042 6:0.566644 7:0.7027 
-1 1:0.51079 2:0.498623 3:0.0265526 4:0.033379 5:0.344635 6:0.481864 7:0.841617 
-1 1:0.644049 2:0.282901 3:0.118375 4:0.0200259 5:0.237337 6:0.325659 7:0.310301 
-1 1:0.770444 2:0.104376 3:0.177232 4:0.0238548 5:0.271217 6:0.441176 7:0.303545 
-1 1:0.914656 3:0.136899 4:0.00514294 5:0.0729789 6:0.783411 7:0.842728 
-1 1:0.374931 2:0.640865 3:0.0170255 4:0.0361144 5:0.36329 6:0.747033 7:0.529144 
-1 1:0.571403 2:0.135592 3:0.355037 4:0.0033215 5:0.048299 6:0.360127 7:0.376086 
-1 1:0.295496 2:0.157397 3:0.62474 4:0.0973329 5:0.621507 6:0.623608 7:0.696005 
-1 1:0.280427 2:0.679361 3:0.0758233 4:0.0319174 5:0.334256 6:0.60635 7:0.461037 
-1 1:0.425489 2:0.42519 3:0.196709 4:0.00587658 5:0.0825856 6:0.275321 7:0.417801 
-1 1:0.781143 2:0.193788 3:0.0690867 4:0.0119632 5:0.155682 6:0.520318 7:0.324893 
-1 1:0.610462 2:0.353934 3:0.0771976 4:0.0147964 5:0.18614 6:0.476594 7:0.650436 
-1 1:0.941187 2:0.0561851 3:0.0478834 4:0.0103421 5:0.137292 6:0.839903 7:0.57126 
-1 1:0.408303 2:0.583477 3:0.0436621 4:0.00799209 5:0.109281 6:0.263899 7:0.20197 
-1 1:0.599323 2:0.268509 3:0.181497 4:0.00507205 5:0.0720402 6:0.381089 7:0.362284 
-1 1:0.668605 2:0.167135 3:0.217568 4:0.00781171 5:0.10706 6:0.387847 7:0.420743 
-1 1:0.811317 2:0.0787044 3:0.161566 4:0.00760943 5:0.10456 6:0.388489 7:0.361434 
-1 1:0.63086 2:0.158828 3:0.266682 4:0.00726365 5:0.100253 6:0.408963 7:0.403759 
-1 1:0.970188 2:0.0330156 3:0.0421315 4:0.0129734 5:0.16678 6:0.667318 7:0.59475 
-1 1:0.915835 2:0.0307906 3:0.102319 4:0.0250941 5:0.2816 6:0.72568 7:0.686917 
-1 1:0.504811 2:0.210969 3:0.344244 4:0.0166833 5:0.205322 6:0.360782 7:0.344629 
-1 1:0.480833 2:0.125102 3:0.46267 4:0.00893384 5:0.120705 6:0.336184 7:0.553985 
-1 1:0.935161 2:0.0726555 3:0.0364635 4:0.0134058 5:0.171447 6:0.556675 7:0.227181 
-1 1:0.340746 2:0.656949 3:0.0359581 4:0.00358093 5:0.0518881 6:0.168503 7:0.230964 
-1 1:0.490208 2:0.253928 3:0.313272 4:0.0395193 5:0.385214 6:0.284241 7:0.484097 
-1 1:0.391981 2:0.408716 3:0.25016 4:0.0200122 5:0.237211 6:0.479998 7:0.48787 
-1 1:0.525279 2:0.454137 3:0.0592974 4:0.0201567 5:0.238542 6:0.225962 7:0.275732 
-1 1:0.671471 2:0.276013 3:0.0966776 4:0.00549361 5:0.0775938 6:0.346323 7:0.299952 
-0.4044287793240811 1:0.327468 2:0.550245 3:0.165562 4:0.0136103 5:0.173639 6:0.460106 7:0.993695 
-1 1:0.742408 2:0.146206 3:0.161763 4:0.0338412 5:0.347855 6:0.614851 7:0.668892 
-1 1:0.803756 2:0.15071 3:0.0916729 4:0.00885091 5:0.11971 6:0.401755 7:0.294938 
-1 1:0.505234 2:0.303492 3:0.243657 4:0.0124865 5:0.161464 6:0.470806 7:0.334481 
-1 1:0.885274 2:0.111028 3:0.047963 4:0.00442056 5:0.0633344 6:0.47601 7:0.466242 
-1 1:0.472266 2:0.487704 3:0.0793234 4:0.0155044 5:0.193435 6:0.413546 7:0.456543 
-1 1:0.751244 2:0.13125 3:0.168556 4:0.00372582 5:0.0538826 6:0.539827 7:0.540694 
-1 1:0.458742 2:0.552076 3:0.0240286 4:0.0361399 5:0.36346 6:0.612924 7:0.229533 
-1 1:0.62189 2:0.094871 3:0.345441 4:0.0113387 5:0.148685 6:0.236642 7:0.206704 
-1 1:0.769346 2:0.0785077 3:0.206398 4:0.00795963 5:0.108881 6:0.435717 7:0.322881 
-1 1:0.529116 2:0.448606 3:0.061206 4:0.0197909 5:0.235164 6:0.494076 7:0.544457 
-1 1:0.508058 2:0.482704 3:0.0466872 4:0.0223196 5:0.25797 6:0.510301 7:0.234197 
-1 1:0.564086 2:0.444525 3:0.0284482 4:0.0269976 5:0.297032 6:0.500897 7:0.374114 
-1 1:0.505528 2:0.417812 3:0.119611 4:0.0179247 5:0.217496 6:0.450348 7:0.424747 
-1 1:0.686536 2:0.227953 3:0.132681 4:0.0314088 5:0.330575 6:0.348918 7:0.363736 
-1 1:0.679708 2:0.310916 3:0.0501439 4:0.017074 5:0.20919 6:0.363783 7:0.374264 
-1 1:0.537001 2:0.251246 3:0.266431 4:0.0132156 5:0.1694 6:0.314551 7:0.311041 
-1 1:0.712131 2:0.249569 3:0.0820762 4:0.0181301 5:0.219477 6:0.434229 7:0.150346 
-1 1:0.814746 2:0.110548 3:0.123456 4:0.0105999 5:0.140266 6:0.528202 7:0.454232 
-1 1:0.399161 2:0.591792 3:0.0443818 4:0.00191711 5:0.0284191 6:0.234759 7:0.219414 
-1 1:0.956459 2:0.0641594 3:0.0230178 4:0.00656496 5:0.0914338 6:0.550366 7:0.556197 
-1 1:0.384223 2:0.0866412 3:0.606998 4:0.00354063 5:0.051333 6:0.296811 7:0.340816 
-1 1:0.66296 2:0.137883 3:0.255229 4:0.0128175 5:0.165085 6:0.447926 7:0.156501 
-1 1:0.408577 2:0.0890964 3:0.578452 4:0.00312147 5:0.045513 6:0.223353 7:0.266634 
-1 1:0.270542 2:0.688982 3:0.0759189 4:0.0203585 5:0.240394 6:0.542508 7:0.521628 
-1 1:0.246329 2:0.587138 3:0.211885 4:0.0183007 5:0.221115 6:0.559766 7:0.383973 
-1 1:0.190009 2:0.217643 3:0.67167 4:0.00745002 5:0.102579 6:0.178931 7:0.185556 
-1 1:0.721308 2:0.149724 3:0.180386 4:0.0591274 5:0.489015 6:0.311887 7:0.126136 
-1 1:0.536862 2:0.112833 3:0.416389 4:0.0190521 5:0.228258 6:0.352587 7:0.450528 
-1 1:0.252654 2:0.703756 3:0.0789425 4:0.00229185 5:0.0337993 6:0.219931 7:0.208875 
-1 1:0.553984 2:0.105901 3:0.405689 4:0.00868101 5:0.117665 6:0.320322 7:0.446625 
-1 1:0.698453 2:0.105901 3:0.252112 4:0.00295204 5:0.0431425 6:0.392491 7:0.303025 
-1 1:0.629951 2:0.081086 3:0.351792 4:0.00516251 5:0.0732375 6:0.288301 7:0.141969 
-1 1:0.828875 2:0.0391863 3:0.185674 4:0.00799 5:0.109254 6:0.513962 7:0.300392 
-1 1:0.661404 2:0.296265 3:0.0854605 4:0.0131183 5:0.168349 6:0.428218 7:0.483376 
-1 1:0.381254 2:0.453665 3:0.212915 4:0.00343852 5:0.0499206 6:0.237617 7:0.228792 
-1 1:0.378463 2:0.465317 3:0.20327 4:0.085654 5:0.587897 6:0.631547 7:0.138536 
-1 1:0.848719 2:0.113859 3:0.083759 4:0.00792524 5:0.108459 6:0.725337 7:0.76151 
-1 1:0.5519 2:0.365874 3:0.126529 4:0.0117466 5:0.153268 6:0.404182 7:0.112715 
-1 1:0.292392 2:0.18112 3:0.602361 4:0.00436256 5:0.0625516 6:0.180974 7:0.257897 
-1 1:0.726145 2:0.247624 3:0.0692851 4:0.0113545 5:0.148862 6:0.611523 7:0.897644 
-1 1:0.294807 2:0.287697 3:0.484444 4:0.00428809 5:0.0615461 6:0.221608 7:0.358591 
-1 1:0.803306 2:0.152556 3:0.0901524 4:0.00786816 5:0.107757 6:0.521589 7:0.16681 
-1 1:0.526224 2:0.12971 3:0.409428 4:0.00519202 5:0.0736269 6:0.286275 7:0.383632 
-1 1:0.536242 2:0.38221 3:0.125494 4:0.0171538 5:0.209977 6:0.429072 7:0.28529 
-1 1:0.39108 2:0.267757 3:0.403681 4:0.0340888 5:0.349569 6:0.353759 7:0.207224 
-1 1:0.246132 2:0.753805 3:0.0317065 4:0.0168137 5:0.206617 6:0.16067 7:0.36862 
-1 1:0.775933 2:0.174916 3:0.0950499 4:0.00392088 5:0.0565544 6:0.389201 7:0.337133 
-1 1:0.681073 2:0.282539 3:0.0794074 4:0.00549602 5:0.0776258 6:0.331957 7:0.265993 
-1 1:0.044594 2:0.098422 3:0.955288 4:0.0078357 5:0.107356 6:0.136527 7:0.379098 
-1 1:0.489999 2:0.448632 3:0.102763 4:0.00394635 5:0.0569011 6:0.262077 7:0.192422 
-1 1:0.503207 2:0.459496 3:0.076963 4:0.0253771 5:0.283933 6:0.450403 7:0.640538 
-1 1:0.283095 2:0.125378 3:0.672577 4:0.00312395 5:0.0455488 6:0.243971 7:0.186617 
-1 1:0.849567 2:0.0542625 3:0.14736 4:0.00920196 5:0.123909 6:0.488557 7:0.439789 
-1 1:0.721895 2:0.178901 3:0.148183 4:0.00544104 5:0.076905 6:0.498446 7:0.329557 
-1 1:0.148408 2:0.517867 3:0.390952 4:0.0243829 5:0.275674 6:0.179199 7:0.254464 
-1 1:0.514267 2:0.21311 3:0.331875 4:0.0189362 5:0.227165 6:0.310182 7:0.411786 
-1 1:0.907412 2:0.0169547 3:0.126248 4:0.00791196 5:0.108295 6:0.654947 7:0.330478 
-1 1:0.13742 2:0.12938 3:0.823104 4:0.00643171 5:0.0897337 6:0.110358 7:0.228292 
-1 1:0.791711 2:0.100792 3:0.158505 4:0.0171029 5:0.209476 6:0.342641 7:0.163407 
-1 1:0.15394 2:0.0739627 3:0.865522 4:0.0253658 5:0.28384 6:0.1457 7:0.460096 
-1 1:0.460009 2:0.323892 3:0.269652 4:0.00904363 5:0.122019 6:0.473734 7:0.303705 
-1 1:0.546675 2:0.283385 3:0.221363 4:0.0117138 5:0.152899 6:0.411805 7:0.277603 
-1 1:0.243527 2:0.604559 3:0.196008 4:0.0174529 5:0.21291 6:0.588525 7:0.532427 
-1 1:0.783234 2:0.222082 3:0.0362405 4:0.00427768 5:0.0614057 6:0.59206 7:0.291675 
-1 1:0.475277 2:0.281216 3:0.299611 4:0.015474 5:0.193125 6:0.345594 7:0.335782 
-1 1:0.465485 2:0.39743 3:0.184238 4:0.00453424 5:0.0648649 6:0.264084 7:0.219044 
-1 1:0.233034 2:0.118419 3:0.733325 4:0.00652178 5:0.0908836 6:0.136708 7:0.157182 
-1 1:0.571645 2:0.283361 3:0.194845 4:0.0241469 5:0.273688 6:0.513388 7:0.296429 
-1 1:0.288856 2:0.597761 3:0.15518 4:0.00833678 5:0.113494 6:0.194215 7:0.266464 
-1 1:0.863435 2:0.119348 3:0.0621748 4:0.00557165 5:0.0786158 6:0.615652 7:0.69052 
-1 1:0.244772 2:0.104047 3:0.736403 4:0.00197846 5:0.0293035 6:0.12792 7:0.218363 
-1 1:0.800251 2:0.039672 3:0.215577 4:0.00575343 5:0.0809853 6:0.599085 7:0.304306 
-1 1:0.593637 2:0.371523 3:0.0760463 4:0.0191552 5:0.229229 6:0.620814 7:0.208675 
-1 1:0.602008 2:0.349847 3:0.0906085 4:0.0229389 5:0.263367 6:0.575989 7:0.381771 
-1 1:0.629093 2:0.106299 3:0.325415 4:0.0231512 5:0.265199 6:0.271104 7:0.326694 
-1 1:0.715606 2:0.0681827 3:0.274703 4:0.0831381 5:0.579986 6:0.291839 7:0.433484 
-1 1:0.86702 2:0.0626703 3:0.119707 4:0.0152726 5:0.19106 6:0.361272 7:0.284009 
-1 1:0.866771 2:0.145482 3:0.0303438 4:0.00835783 5:0.11375 6:0.378926 7:0.291365 
-1 1:0.673126 2:0.299315 3:0.0696992 4:0.00655067 5:0.0912517 6:0.298287 7:0.27334 
-1 1:0.795466 2:0.0677184 3:0.190308 4:0.0100167 5:0.133511 6:0.368318 7:0.098793 
-1 1:0.90446 2:0.0941071 3:0.0458821 4:0.00647612 5:0.0903004 6:0.619947 7:0.501872 
-1 1:0.571735 2:0.328805 3:0.145564 4:0.0218883 5:0.254169 6:0.260909 7:0.1194 
-1 1:0.822559 2:0.0798792 3:0.148346 4:0.00564829 5:0.0796165 6:0.546981 7:0.393731 
-1 1:0.412207 2:0.111954 3:0.549852 4:0.0022479 5:0.0331716 6:0.206869 7:0.185406 
-1 1:0.47803 2:0.106363 3:0.485934 4:0.0019856 5:0.0294072 6:0.261835 7:0.291665 
-1 1:0.383311 2:0.112 3:0.580522 4:0.00523853 5:0.0742411 6:0.218492 7:0.165979 
-1 1:0.603659 2:0.113604 3:0.344546 4:0.00178394 5:0.0264943 6:0.24422 7:0.184415 
-1 1:0.82088 2:0.107583 3:0.120146 4:0.00851328 5:0.115637 6:0.473923 7:0.153469 
-1 1:0.818236 2:0.166991 3:0.0586573 4:0.00615543 5:0.0861892 6:0.45848 7:0.406181 
-1 1:0.445169 2:0.147262 3:0.476599 4:0.01068 5:0.141186 6:0.240125 7:0.164768 
-1 1:0.392749 2:0.228981 3:0.443878 4:0.00642441 5:0.0896397 6:0.240071 7:0.302164 
-1 1:0.497333 2:0.392978 3:0.155202 4:0.0045792 5:0.0654684 6:0.265643 7:0.203791 
-1 1:0.569038 2:0.425632 3:0.0436331 4:0.00808993 5:0.110481 6:0.2675 7:0.244325 
-1 1:0.494352 2:0.512323 3:0.0291983 4:0.00227329 5:0.0335339 6:0.217257 7:0.212318 
-1 1:0.558058 2:0.331647 3:0.157029 4:0.00875687 5:0.118579 6:0.414945 7:0.172004 
-1 1:0.846102 2:0.128724 3:0.0704522 4:0.00906165 5:0.122235 6:0.596854 7:0.119941 
-1 1:0.776358 2:0.157066 3:0.113917 4:0.00666039 5:0.0926476 6:0.449303 7:0.425247 
-1 1:0.518722 2:0.257641 3:0.278943 4:0.00711084 5:0.0983378 6:0.288507 7:0.30954 
-1 1:0.300405 2:0.583858 3:0.157952 4:0.0274624 5:0.300709 6:0.536092 7:0.159214 
-1 1:0.787784 2:0.219959 3:0.0337005 4:0.00987038 5:0.131801 6:0.602372 7:0.498208 
-1 1:0.954561 2:0.0463939 3:0.0442631 4:0.00935765 5:0.125759 6:0.718221 7:0.146493 
-1 1:0.346223 2:0.0570174 3:0.679457 4:0.0053335 5:0.0754917 6:0.167839 7:0.241753 
-1 1:0.178756 2:0.205573 3:0.696697 4:0.00741686 5:0.102166 6:0.216121 7:0.241263 
-1 1:0.293784 2:0.704097 3:0.0348503 4:0.00489586 5:0.0697017 6:0.187889 7:0.20233 
-1 1:0.468116 2:0.13015 3:0.470726 4:0.00242627 5:0.0357154 6:0.22273 7:0.265863 
-1 1:0.777342 2:0.0689574 3:0.208235 4:0.0227965 5:0.262131 6:0.344932 7:0.2265 
-1 1:0.0487692 2:0.959275 3:0.0191253 4:0.0255918 5:0.285693 6:0.787862 7:0.2853 
-1 1:0.508034 2:0.273677 3:0.272946 4:0.0166514 5:0.205006 6:0.356023 7:0.246907 
-1 1:0.962965 2:0.0447616 3:0.0370964 4:0.0113682 5:0.149017 6:0.471002 7:0.290604 
-1 1:0.694803 2:0.0816359 3:0.282255 4:0.0104849 5:0.138941 6:0.442551 7:0.235198 
-1 1:0.830071 2:0.118965 3:0.0980562 4:0.00578317 5:0.0813727 6:0.52977 7:0.355188 
-1 1:0.495373 2:0.513634 3:0.0266945 4:0.0177696 5:0.215994 6:0.339811 7:0.181703 
-1 1:0.352438 2:0.558365 3:0.130229 4:0.0191635 5:0.229307 6:0.335037 7:0.368219 
-1 1:0.8674 2:0.135433 3:0.0405501 4:0.0136189 5:0.173731 6:0.488367 7:0.125185 
-1 1:0.497983 2:0.158288 3:0.40852 4:0.00602288 5:0.0844794 6:0.225319 7:0.105318 
-1 1:0.257293 2:0.69962 3:0.0784893 4:0.00190321 5:0.0282186 6:0.12928 7:0.210917 
-1 1:0.785334 2:0.240232 3:0.0143639 4:0.00966088 5:0.129341 6:0.478723 7:0.222357 
-1 1:0.821785 2:0.157232 3:0.0654461 4:0.0044357 5:0.0635388 6:0.573411 7:0.314834 
-1 1:0.791141 2:0.136165 3:0.120825 4:0.0270284 5:0.297277 6:0.710607 7:0.157112 
-1 1:0.48976 2:0.399956 3:0.155697 4:0.0104809 5:0.138895 6:0.248228 7:0.21373 
-1 1:0.627162 2:0.109871 3:0.323602 4:0.0105261 5:0.139415 6:0.328659 7:0.150066 
-1 1:0.240676 2:0.740292 3:0.0521307 4:0.0149047 5:0.187264 6:0.17787 7:0.264472 
-1 1:0.465722 2:0.0975791 3:0.508523 4:0.00233169 5:0.0343679 6:0.34979 7:0.36861 
-1 1:0.630891 2:0.172877 3:0.251442 4:0.00344418 5:0.0499991 6:0.343245 7:0.191921 
-1 1:0.554944 2:0.428036 3:0.0560131 4:0.00397477 5:0.0572896 6:0.372446 7:0.116158 
-1 1:0.551664 2:0.0321995 3:0.487926 4:0.0127273 5:0.164101 6:0.387658 7:0.0739521 
-1 1:0.478635 2:0.0608265 3:0.534573 4:0.0235289 5:0.268441 6:0.178556 7:0.19049 
-1 1:0.686826 2:0.0789305 3:0.293663 4:0.00215985 5:0.0319103 6:0.34715 7:0.224178 
-1 1:0.590444 2:0.200143 3:0.26493 4:0.0244589 5:0.276311 6:0.270849 7:0.184485 
-1 1:0.099733 2:0.852194 3:0.0808468 4:0.0157148 5:0.195581 6:0.101982 7:0.361564 
-1 1:0.579482 2:0.044007 3:0.445573 4:0.0190918 5:0.228632 6:0.257442 7:0.0872833 
-1 1:0.586363 2:0.0750371 3:0.404674 4:0.00361999 5:0.0524267 6:0.281496 7:0.242924 
-1 1:0.90109 2:0.0854973 3:0.0587833 4:0.00585997 5:0.0823695 6:0.636317 7:0.475029 
-1 1:0.872509 2:0.112959 3:0.0594437 4:0.00811408 5:0.110776 6:0.589809 7:0.370681 
-1 1:0.823605 2:0.194491 3:0.0231858 4:0.0100091 5:0.133422 6:0.395882 7:0.107881 
-1 1:0.683664 2:0.200812 3:0.165108 4:0.0181122 5:0.219305 6:0.372306 7:0.47663 
-1 1:0.084363 2:0.68336 3:0.279919 4:0.0152324 5:0.190646 6:0.104013 7:0.182663 
-1 1:0.649437 2:0.328585 3:0.0632001 4:0.00663802 5:0.0923628 6:0.435208 7:0.175547 
-1 1:0.452639 2:0.193408 3:0.418714 4:0.00217429 5:0.0321167 6:0.3239 7:0.183985 
-1 1:0.400277 2:0.393952 3:0.257323 4:0.0117631 5:0.153451 6:0.210897 7:0.123294 
-1 1:0.481826 2:0.250086 3:0.326341 4:0.00440138 5:0.0630757 6:0.263042 7:0.142039 
-1 1:0.436381 2:0.541323 3:0.0594379 4:0.00415344 5:0.0597211 6:0.198654 7:0.242454 
-1 1:0.668786 2:0.19657 3:0.185517 4:0.00363474 5:0.0526291 6:0.447691 7:0.355439 
-1 1:0.918951 2:0.0790015 3:0.0468262 4:0.0128046 5:0.164943 6:0.508193 7:0.277203 
-1 1:0.469241 2:0.0932882 3:0.509427 4:0.00804544 5:0.109935 6:0.308114 7:0.300613 
-1 1:0.483595 2:0.398328 3:0.164015 4:0.0190588 5:0.22832 6:0.240755 7:0.112765 
-1 1:0.781316 2:0.126851 3:0.14135 4:0.0201373 5:0.238364 6:0.522375 7:0.253173 
-1 1:0.614746 2:0.223942 3:0.213338 4:0.00400785 5:0.0577401 6:0.239145 7:0.0989932 
-1 1:0.554871 2:0.163071 3:0.34287 4:0.00328811 5:0.047834 6:0.265453 7:0.263071 
-1 1:0.476401 2:0.374016 3:0.197976 4:0.00865694 5:0.117374 6:0.193681 7:0.209926 
-1 1:0.611248 2:0.0400078 3:0.416133 4:0.00445232 5:0.0637625 6:0.308283 7:0.299902 
-1 1:0.896904 2:0.0393469 3:0.113183 4:0.00957065 5:0.128278 6:0.400418 7:0.295148 
-1 1:0.392467 2:0.222628 3:0.451052 4:0.0354324 5:0.358729 6:0.332464 7:0.456483 
-1 1:0.812455 2:0.143404 3:0.090332 4:0.0114197 5:0.149597 6:0.438414 7:0.346711 
-1 1:0.583509 2:0.146432 3:0.330437 4:0.00661512 5:0.0920722 6:0.291817 7:0.207044 
-1 1:0.294873 2:0.702846 3:0.0350473 4:0.000847166 5:0.0127473 6:0.144639 7:0.209326 
-1 1:0.244286 2:0.143006 3:0.694753 4:0.0033715 5:0.0489926 6:0.216033 7:0.227511 
-1 1:0.328938 2:0.510332 3:0.207198 4:0.00452104 5:0.0646877 6:0.252628 7:0.157272 
-1 1:0.673768 2:0.226085 3:0.148275 4:0.0096601 5:0.129332 6:0.324067 7:0.167881 
-1 1:0.266369 2:0.150959 3:0.66267 4:0.0244152 5:0.275945 6:0.212916 7:0.459196 
-1 1:0.829483 2:0.117139 3:0.100658 4:0.00836031 5:0.11378 6:0.610994 7:0.260809 
-1 1:0.455297 2:0.414172 3:0.176948 4:0.0122194 5:0.158522 6:0.241028 7:0.301323 
-1 1:0.260794 2:0.737 3:0.0343087 4:0.00113168 5:0.0169612 6:0.176007 7:0.240662 
-1 1:0.863353 2:0.142099 3:0.037638 4:0.00798813 5:0.109232 6:0.410035 7:0.344519 
-1 1:0.823761 2:0.048069 3:0.181497 4:0.0097275 5:0.130125 6:0.400027 7:0.114446 
-1 1:0.900775 2:0.0608091 3:0.0858385 4:0.0170729 5:0.209181 6:0.362698 7:0.15507 
-1 1:0.946244 2:0.0720641 3:0.0253203 4:0.00763964 5:0.104934 6:0.519486 7:0.232135 
-1 1:0.874154 2:0.0355189 3:0.141511 4:0.00530671 5:0.0751401 6:0.593895 7:0.173065 
-1 1:0.951966 2:0.0779297 3:0.0128897 4:0.0152174 5:0.190492 6:0.435587 7:0.366788 
-1 1:0.933109 2:0.0398914 3:0.0741058 4:0.0164211 5:0.202707 6:0.527162 7:0.237099 
-1 1:0.901275 2:0.10908 3:0.0330619 4:0.0172815 5:0.211231 6:0.420161 7:0.352796 
-1 1:0.459983 2:0.0854357 3:0.527767 4:0.00671335 5:0.0933208 6:0.187584 7:0.141739 
-1 1:0.615693 2:0.352382 3:0.0733166 4:0.00281312 5:0.0411906 6:0.279828 7:0.256515 
-1 1:0.490147 2:0.123113 3:0.454922 4:0.0178255 5:0.216535 6:0.124771 7:0.125686 
-1 1:0.612139 2:0.336031 3:0.0947936 4:0.0258174 5:0.287536 6:0.426937 7:0.155761 
-1 1:0.746972 2:0.251137 3:0.0433406 4:0.00698792 5:0.0967917 6:0.376831 7:0.191681 
-1 1:0.616435 2:0.385731 3:0.0364317 4:0.0369441 5:0.36876 6:0.448652 7:0.086963 
-1 1:0.757987 2:0.209421 3:0.0767819 4:0.0107862 5:0.142403 6:0.368834 7:0.247108 
-1 1:0.527392 2:0.427367 3:0.0860267 4:0.00789946 5:0.108141 6:0.28428 7:0.215911 
-1 1:0.679385 2:0.307123 3:0.0545939 4:0.0274274 5:0.300433 6:0.428955 7:0.286541 
-1 1:0.225355 2:0.0578188 3:0.807078 4:0.00224037 5:0.0330641 6:0.116637 7:0.160355 
-1 1:0.0826207 2:0.210027 3:0.794071 4:0.00153336 5:0.0228519 6:0.113412 7:0.170433 
-1 1:0.507149 2:0.23297 3:0.317947 4:0.00386047 5:0.055728 6:0.267895 7:0.205613 
-1 1:0.497244 2:0.293979 3:0.262445 4:0.00237975 5:0.0350528 6:0.236651 7:0.132441 
-1 1:0.540413 2:0.216222 3:0.300714 4:0.00969582 5:0.129752 6:0.391645 7:0.316376 
-1 1:0.668876 2:0.0329487 3:0.362511 4:0.00942109 5:0.126511 6:0.327739 7:0.0915169 
-1 1:0.369877 2:0.268515 3:0.425404 4:0.00147404 5:0.0219868 6:0.19796 7:0.102006 
-1 1:0.562419 2:0.430565 3:0.0453303 4:0.00593738 5:0.0833741 6:0.349217 7:0.181022 
-1 1:0.49419 2:0.0711342 3:0.506881 4:0.0294308 5:0.315902 6:0.343719 7:0.229833 
-1 1:0.735241 2:0.201112 3:0.109954 4:0.0153393 5:0.191745 6:0.420461 7:0.312012 
-1 1:0.380426 2:0.215011 3:0.472097 4:0.00456616 5:0.0652931 6:0.303128 7:0.337493 
-1 1:0.671595 2:0.24312 3:0.132148 4:0.0147977 5:0.186151 6:0.379154 7:0.211017 
-1 1:0.699196 2:0.0371245 3:0.325759 4:0.00901242 5:0.121647 6:0.451857 7:0.260319 
-1 1:0.738345 2:0.117092 3:0.197592 4:0.00773227 5:0.10608 6:0.498791 7:0.132061 
-1 1:0.406753 2:0.0673398 3:0.603939 4:0.0129797 5:0.166847 6:0.280391 7:0.161616 
-1 1:0.383809 2:0.587848 3:0.0649697 4:0.00386676 5:0.0558143 6:0.214445 7:0.120211 
-1 1:0.57563 2:0.385318 3:0.0802589 4:0.00331994 5:0.0482767 6:0.2499 7:0.0614016 
-1 1:0.834579 2:0.113641 3:0.099025 4:0.0116228 5:0.151879 6:0.600602 7:0.100444 
-1 1:0.197732 2:0.323674 3:0.548702 4:0.0140831 5:0.178663 6:0.141747 7:0.263181 
-1 1:0.2699 2:0.101339 3:0.712622 4:0.00457252 5:0.0653783 6:0.23049 7:0.0737219 
-1 1:0.812885 2:0.175315 3:0.0553354 4:0.0164188 5:0.202684 6:0.517792 7:0.113365 
-1 1:0.330477 2:0.39708 3:0.328137 4:0.0276392 5:0.302099 6:0.299765 7:0.125776 
-1 1:0.293073 2:0.0636644 3:0.728764 4:0.00784479 5:0.107469 6:0.181864 7:0.191321 
-1 1:0.556056 2:0.0580342 3:0.455295 4:0.00381535 5:0.055111 6:0.315569 7:0.381911 
-1 1:0.615393 2:0.241892 3:0.193222 4:0.00295289 5:0.0431551 6:0.393416 7:0.317577 
-1 1:0.620087 2:0.222249 3:0.20949 4:0.0111675 5:0.146746 6:0.248963 7:0.224398 
-1 1:0.506431 2:0.215028 3:0.338128 4:0.00963603 5:0.129049 6:0.220948 7:0.264102 
-1 1:0.627754 2:0.308296 3:0.10821 4:0.0089225 5:0.120569 6:0.351295 7:0.325073 
-1 1:0.471903 2:0.422041 3:0.150779 4:0.0112823 5:0.148046 6:0.177145 7:0.177119 
-1 1:0.694363 2:0.200024 3:0.154588 4:0.00351345 5:0.0509571 6:0.271928 7:0.096441 
-1 1:0.577763 2:0.329079 3:0.13886 4:0.00758808 5:0.104294 6:0.256691 7:0.20189 
-1 1:0.454422 2:0.497047 3:0.0881786 4:0.00380068 5:0.0549085 6:0.251818 7:0.211488 
-1 1:0.854935 2:0.0783954 3:0.115535 4:0.0133856 5:0.17123 6:0.589773 7:0.1189 
-1 1:0.517032 2:0.109555 3:0.441015 4:0.0131894 5:0.169118 6:0.34925 7:0.103517 
-1 1:0.652762 2:0.0759536 3:0.333097 4:0.00303512 5:0.0443069 6:0.383183 7:0.236719 
-0.8468722082351486 1:0.622113 2:0.339157 3:0.0808063 4:0.00507966 5:0.0721409 6:0.257224 7:0.219194 
-1 1:0.736035 2:0.238089 3:0.0690896 4:0.00799598 5:0.109328 6:0.391626 7:0.136525 
-1 1:0.40749 2:0.143351 3:0.520888 4:0.0212261 5:0.248262 6:0.168596 7:0.192772 
-1 1:0.561761 2:0.0491474 3:0.45885 4:0.0127362 5:0.164198 6:0.218638 7:0.187708 
-1 1:0.52767 2:0.241804 3:0.28657 4:0.00539174 5:0.0762579 6:0.278584 7:0.136034 
-1 1:0.350405 2:0.500918 3:0.194567 4:0.0134758 5:0.172199 6:0.325231 7:0.1432 
-1 1:0.634824 2:0.094289 3:0.332321 4:0.00283455 5:0.0414919 6:0.362094 7:0.264702 
-1 1:0.664319 2:0.0860378 3:0.309898 4:0.00351485 5:0.0509755 6:0.540167 7:0.35728 
-1 1:0.545203 2:0.113778 3:0.406499 4:0.0201795 5:0.238752 6:0.192939 7:0.20265 
-1 1:0.580145 2:0.396997 3:0.0628178 4:0.00373957 5:0.0540715 6:0.227802 7:0.141519 
-1 1:0.420989 2:0.333826 3:0.30038 4:0.0223455 5:0.258197 6:0.290782 7:0.247428 
-1 1:0.106791 2:0.207762 3:0.77083 4:0.011406 5:0.149442 6:0.0886871 7:0.208365 
-1 1:0.427023 2:0.351581 3:0.274749 4:0.0112022 5:0.14714 6:0.383361 7:0.220966 
-1 1:0.595426 2:0.231151 3:0.226074 4:0.00213174 5:0.0315073 6:0.250796 7:0.109832 
-1 1:0.669842 2:0.221671 3:0.157226 4:0.0121551 5:0.15781 6:0.425336 7:0.127417 
-1 1:0.478282 2:0.211104 3:0.3723 4:0.0120211 5:0.156326 6:0.195497 7:0.182163 
-1 1:0.646854 2:0.0391515 3:0.379209 4:0.00316068 5:0.0460603 6:0.26376 7:0.182573 
-1 1:0.556259 2:0.199503 3:0.301964 4:0.00242122 5:0.0356437 6:0.238392 7:0.197616 
-1 1:0.567252 2:0.387685 3:0.0866031 4:0.01098 5:0.144615 6:0.318535 7:0.092808 
-1 1:0.573156 2:0.38495 3:0.0832869 4:0.00580724 5:0.0816866 6:0.298364 7:0.212849 
-1 1:0.405258 2:0.131442 3:0.536149 4:0.0149015 5:0.18723 6:0.276598 7:0.243625 
-1 1:0.355251 2:0.146938 3:0.572537 4:0.0211333 5:0.247428 6:0.221904 7:0.359162 
-1 1:0.690313 2:0.30348 3:0.0469204 4:0.00862867 5:0.117033 6:0.292567 7:0.221626 
-1 1:0.417081 2:0.47973 3:0.146619 4:0.0289567 5:0.312297 6:0.38317 7:0.129389 
-1 1:0.44617 2:0.204947 3:0.413102 4:0.0110254 5:0.145133 6:0.321941 7:0.11848 
-1 1:0.888253 2:0.061925 3:0.0979418 4:0.0152958 5:0.191299 6:0.558346 7:0.242684 
-1 1:0.280257 2:0.317396 3:0.467767 4:0.0159647 5:0.198116 6:0.153215 7:0.188378 
-1 1:0.19273 2:0.167616 3:0.722924 4:0.0021701 5:0.0320566 6:0.0923536 7:0.20199 
-1 1:0.673236 2:0.220765 3:0.154598 4:0.00431216 5:0.0618706 6:0.32925 7:0.138997 
-1 1:0.83087 2:0.0511852 3:0.170568 4:0.0101991 5:0.135633 6:0.693404 7:0.193733 
-1 1:0.541316 2:0.460256 3:0.035628 4:0.0019102 5:0.0283203 6:0.252784 7:0.163587 
-1 1:0.524114 2:0.162834 3:0.375822 4:0.00217429 5:0.0321167 6:0.238469 7:0.183804 
-1 1:0.346158 2:0.103403 3:0.62932 4:0.022347 5:0.25821 6:0.214196 7:0.203491 
-1 1:0.306791 2:0.191896 3:0.575392 4:0.00275861 5:0.0404224 6:0.19787 7:0.264632 
-1 1:0.755307 2:0.0669384 3:0.233844 4:0.0197086 5:0.234401 6:0.348553 7:0.108301 
-1 1:0.43201 2:0.191199 3:0.443032 4:0.00395707 5:0.0570474 6:0.227432 7:0.320649 
-1 1:0.624159 2:0.327629 3:0.0911081 4:0.0095003 5:0.127448 6:0.336334 7:0.205332 
-1 1:0.766801 2:0.212435 3:0.0641486 4:0.00920119 5:0.123899 6:0.446075 7:0.47605 
-1 1:0.631474 2:0.380268 3:0.0263586 4:0.0140408 5:0.178216 6:0.327788 7:0.131551 
-1 1:0.717498 2:0.203974 3:0.12572 4:0.00941713 5:0.126463 6:0.312913 7:0.186046 
-1 1:0.350957 2:0.260324 3:0.454381 4:0.00598794 5:0.084028 6:0.289431 7:0.180752 
-1 1:0.772991 2:0.155054 3:0.119675 4:0.0109676 5:0.144475 6:0.410755 7:0.4643 
-1 1:0.365213 2:0.216968 3:0.486151 4:0.0109854 5:0.144678 6:0.164506 7:0.148525 
-1 1:0.442951 2:0.109995 3:0.519291 4:0.0110174 5:0.145041 6:0.298997 7:0.247698 
-1 1:0.239635 2:0.373419 3:0.450313 4:0.00926999 5:0.124718 6:0.0878547 7:0.206423 
-1 1:0.280636 2:0.346297 3:0.436082 4:0.00264485 5:0.0388153 6:0.166087 7:0.22619 
-1 1:0.260666 2:0.393835 3:0.405862 4:0.00154369 5:0.0230021 6:0.156092 7:0.188889 
-1 1:0.840921 2:0.114693 3:0.0911458 4:0.0134157 5:0.171554 6:0.696974 7:0.258867 
-1 1:0.634394 2:0.221594 3:0.194993 4:0.0101638 5:0.135224 6:0.33834 7:0.354708 
-1 1:0.550844 2:0.353637 3:0.140896 4:0.00522541 5:0.0740677 6:0.282728 7:0.288402 
-1 1:0.612466 2:0.113146 3:0.33568 4:0.00502585 5:0.0714279 6:0.241583 7:0.198267 
-1 1:0.46149 2:0.161704 3:0.443617 4:0.0155444 5:0.193844 6:0.211793 7:0.124384 
-1 1:0.586357 2:0.363525 3:0.0924419 4:0.0150322 5:0.188583 6:0.412384 7:0.314034 
-1 1:0.37302 2:0.492711 3:0.179408 4:0.00423467 5:0.0608225 6:0.244012 7:0.197015 
-1 1:0.580098 2:0.0755294 3:0.410801 4:0.00358349 5:0.0519239 6:0.268728 7:0.089285 
-1 1:0.642493 2:0.329166 3:0.0699526 4:0.00885774 5:0.119792 6:0.373822 7:0.468313 
-1 1:0.685342 2:0.115683 3:0.25546 4:0.0417358 5:0.398769 6:0.304525 7:0.255715 
-1 1:0.783732 2:0.0545033 3:0.217085 4:0.007695 5:0.105619 6:0.441765 7:0.199998 
-1 1:0.897928 2:0.0644712 3:0.0849015 4:0.0100577 5:0.133988 6:0.494394 7:0.254184 
-1 1:0.17842 2:0.818925 3:0.0332067 4:0.00757829 5:0.104173 6:0.188698 7:0.200749 
-1 1:0.85685 2:0.102125 3:0.0878151 4:0.0109656 5:0.144451 6:0.453834 7:0.121692 
-1 1:0.854269 2:0.112991 3:0.0787992 4:0.0102768 5:0.136536 6:0.355068 7:0.0456383 
-1 1:0.873114 2:0.0701963 3:0.105084 4:0.017461 5:0.212989 6:0.432367 7:0.314004 
-1 1:0.866129 2:0.0468823 3:0.137742 4:0.0102457 5:0.136176 6:0.359902 7:0.0942692 
-1 1:0.917622 2:0.112643 3:0.0118282 4:0.0107724 5:0.142245 6:0.471957 7:0.272399 
-1 1:0.518333 2:0.110623 3:0.438478 4:0.0131699 5:0.168906 6:0.145624 7:0.115427 
-1 1:0.556285 2:0.437921 3:0.0438895 4:0.0165357 5:0.203852 6:0.409482 7:0.287882 
-1 1:0.233114 2:0.60272 3:0.209069 4:0.0195866 5:0.233266 6:0.497293 7:0.254484 
-1 1:0.877877 2:0.144811 3:0.0192628 4:0.00472907 5:0.0674756 6:0.426373 7:0.152708 
-1 1:0.94641 2:0.0731612 3:0.0239562 4:0.00678587 5:0.0942392 6:0.502963 7:0.283028 
-1 1:0.236876 2:0.172747 3:0.670441 4:0.0033288 5:0.0484007 6:0.19935 7:0.086883 
-1 1:0.635586 2:0.388696 3:0.0128665 4:0.0224729 5:0.259311 6:0.4725 7:0.111984 
-1 1:0.904475 2:0.0270229 3:0.118475 4:0.00852431 5:0.115771 6:0.446838 7:0.238791 
-1 1:0.57023 2:0.163941 3:0.325603 4:0.0410122 5:0.394403 6:0.196121 7:0.0892149 
-1 1:0.866891 2:0.0585868 3:0.124264 4:0.00599609 5:0.0841326 6:0.481918 7:0.0831899 
-1 1:0.673368 2:0.285995 3:0.0838589 4:0.00594484 5:0.08347 6:0.254065 7:0.140628 
-1 1:0.949825 2:0.0688021 3:0.0250466 4:0.0144316 5:0.182332 6:0.534254 7:0.196195 
-1 1:0.917136 2:0.056426 3:0.0731906 4:0.00852905 5:0.115828 6:0.706811 7:0.219554 
-1 1:0.811503 2:0.172825 3:0.0595016 4:0.0188614 5:0.226456 6:0.490871 7:0.168111 
-1 1:0.804878 2:0.183669 3:0.0548068 4:0.00543918 5:0.0768799 6:0.333501 7:0.0980223 
-1 1:0.677405 2:0.281461 3:0.0844729 4:0.0121933 5:0.158233 6:0.310671 7:0.200128 
-1 1:0.733155 2:0.21215 3:0.100225 4:0.0210172 5:0.246381 6:0.406131 7:0.296539 
-1 1:0.484174 2:0.158194 3:0.423303 4:0.00523977 5:0.0742576 6:0.144158 7:0.0955403 
-1 1:0.410221 2:0.145256 3:0.51592 4:0.0109753 5:0.144563 6:0.28889 7:0.26144 
-1 1:0.414327 2:0.540215 3:0.0840819 4:0.0053057 5:0.0751255 6:0.216195 7:0.0937588 
-1 1:0.881179 2:0.11959 3:0.0430496 4:0.011796 5:0.153819 6:0.622942 7:0.136795 
-1 1:0.834764 2:0.1376 3:0.0728981 4:0.0124276 5:0.160817 6:0.580455 7:0.258717 
-1 1:0.424334 2:0.219893 3:0.420137 4:0.00315439 5:0.0459731 6:0.209948 7:0.17835 
-1 1:0.651608 2:0.345735 3:0.0423313 4:0.0131148 5:0.168312 6:0.306155 7:0.211518 
-1 1:0.889471 2:0.113782 3:0.0405211 4:0.00532107 5:0.075329 6:0.401449 7:0.128898 
-1 1:0.639107 2:0.242382 3:0.167483 4:0.00620675 5:0.0868489 6:0.45578 7:0.0890348 
-1 1:0.70478 2:0.270561 3:0.0671694 4:0.013128 5:0.168454 6:0.346427 7:0.251291 
-1 1:0.411237 2:0.51238 3:0.117493 4:0.00970956 5:0.129914 6:0.304362 7:0.329487 
-1 1:0.586241 2:0.102571 3:0.375002 4:0.0108572 5:0.143215 6:0.358597 7:0.177769 
-1 1:0.785814 2:0.13378 3:0.129069 4:0.0072569 5:0.100169 6:0.450781 7:0.0870932 
-1 1:0.17041 2:0.315101 3:0.587025 4:0.0345376 5:0.352655 6:0.207006 7:0.34524 
-1 1:0.84033 2:0.163942 3:0.0384692 4:0.0205031 5:0.241716 6:0.655178 7:0.0431663 
-1 1:0.44951 2:0.165556 3:0.452184 4:0.00400529 5:0.0577061 6:0.218676 7:0.102556 
-1 1:0.596605 2:0.364209 3:0.0808077 4:0.00218361 5:0.0322513 6:0.305798 7:0.14279 
-1 1:0.777089 2:0.172436 3:0.0965067 4:0.00660106 5:0.0918929 6:0.41901 7:0.105188 
-1 1:0.516682 2:0.320287 3:0.213307 4:0.00983225 5:0.131354 6:0.275498 7:0.173856 
-1 1:0.515593 2:0.114174 3:0.437546 4:0.00296283 5:0.0432937 6:0.300537 7:0.152488 
-1 1:0.84863 2:0.166793 3:0.0265613 4:0.011187 5:0.146968 6:0.687276 7:0.0711197 
-1 1:0.73283 2:0.277298 3:0.03006 4:0.0162277 5:0.200767 6:0.316046 7:0.0739221 
-1 1:0.626847 2:0.140702 3:0.290567 4:0.00204811 5:0.0303061 6:0.266107 7:0.115207 
-1 1:0.421181 2:0.134118 3:0.516324 4:0.00217771 5:0.0321661 6:0.195025 7:0.154139 
-1 1:0.295841 2:0.656943 3:0.0836996 4:0.00538708 5:0.0761959 6:0.202964 7:0.221296 
-1 1:0.80986 2:0.118912 3:0.1196 4:0.00400055 5:0.0576412 6:0.322162 7:0.0628528 
-1 1:0.657866 2:0.171362 3:0.224407 4:0.00840612 5:0.114337 6:0.383456 7:0.435856 
-1 1:0.579823 2:0.0268182 3:0.463815 4:0.00432063 5:0.0619859 6:0.307506 7:0.105218 
-1 1:0.28261 2:0.145025 3:0.65183 4:0.0399797 5:0.388075 6:0.216646 7:0.156191 
-1 1:0.881354 2:0.0714915 3:0.0949225 4:0.0111417 5:0.146455 6:0.297804 7:0.1189 
-1 1:0.824967 2:0.161076 3:0.0579043 4:0.00790745 5:0.10824 6:0.475265 7:0.152198 
-1 1:0.756417 2:0.165797 3:0.125667 4:0.00535532 5:0.0757794 6:0.453568 7:0.14257 
-1 1:0.885936 2:0.1212 3:0.0362507 4:0.0153937 5:0.192303 6:0.739273 7:0.117549 
-1 1:0.213147 2:0.780436 3:0.0379493 4:0.0351873 5:0.357076 6:0.634119 7:0.217903 
-1 1:0.149721 2:0.163811 3:0.772762 4:0.0063004 5:0.088052 6:0.108466 7:0.0969014 
-1 1:0.169378 2:0.74009 3:0.128144 4:0.0021725 5:0.0320915 6:0.109342 7:0.186657 
-1 1:0.82141 2:0.170613 3:0.0513632 4:0.00876635 5:0.118693 6:0.462138 7:0.153459 
-1 1:0.30002 2:0.204013 3:0.569475 4:0.00103135 5:0.0154781 6:0.11572 7:0.0697086 
-1 1:0.256176 2:0.117385 3:0.709844 4:0.0101435 5:0.134988 6:0.180222 7:0.159684 
-1 1:0.405392 2:0.0683633 3:0.604277 4:0.0198279 5:0.235507 6:0.225054 7:0.112615 
-1 1:0.770396 2:0.0765503 3:0.2074 4:0.0191718 5:0.229385 6:0.484048 7:0.0831599 
-1 1:0.86171 2:0.0133502 3:0.178732 4:0.00758901 5:0.104306 6:0.391796 7:0.125035 
-1 1:0.171359 2:0.0663122 3:0.855286 4:0.00173782 5:0.0258249 6:0.119245 7:0.102366 
-1 1:0.240883 2:0.725589 3:0.0678254 4:0.00171095 5:0.0254355 6:0.134776 7:0.129869 
-1 1:0.723106 2:0.108501 3:0.223091 4:0.00809149 5:0.110499 6:0.407339 7:0.0664158 
-1 1:0.566928 2:0.278686 3:0.204921 4:0.00908494 5:0.122513 6:0.297964 7:0.280145 
-1 1:0.945155 2:0.0784676 3:0.0195481 4:0.0135975 5:0.173502 6:0.702053 7:0.0758137 
-1 1:0.127949 2:0.157498 3:0.802739 4:0.00161505 5:0.0240425 6:0.10614 7:0.224879 
-1 1:0.714294 2:0.191199 3:0.142951 4:0.0109764 5:0.144575 6:0.575191 7:0.0850314 
-1 1:0.250279 2:0.262336 3:0.559227 4:0.000762838 5:0.0114928 6:0.092289 7:0.105198 
-1 1:0.225775 2:0.0685198 3:0.795051 4:0.0134101 5:0.171493 6:0.06162 7:0.134013 
-1 1:0.692881 2:0.263918 3:0.08701 4:0.00656938 5:0.09149 6:0.276738 7:0.194373 
-1 1:0.63673 2:0.216719 3:0.197785 4:0.00609175 5:0.0853687 6:0.346434 7:0.106359 
-1 1:0.570467 2:0.236714 3:0.246585 4:0.0172753 5:0.21117 6:0.324609 7:0.14321 
-1 1:0.854931 2:0.0741219 3:0.120165 4:0.00520297 5:0.0737713 6:0.501474 7:0.255635 
-1 1:0.651046 2:0.303009 3:0.0891735 4:0.0118179 5:0.154062 6:0.317003 7:0.28574 
-1 1:0.614331 2:0.308964 3:0.121757 4:0.0140479 5:0.178291 6:0.501805 7:0.0783058 
-1 1:0.567311 2:0.161367 3:0.331491 4:0.00160069 5:0.0238332 6:0.209022 7:0.057118 
-1 1:0.694298 2:0.333029 3:0.010703 4:0.0195236 5:0.23268 6:0.637089 7:0.0829397 
-1 1:0.843406 2:0.0242225 3:0.186423 4:0.00823871 5:0.112299 6:0.594061 7:0.302244 
-1 1:0.349115 2:0.587555 3:0.102167 4:0.00716745 5:0.0990488 6:0.223432 7:0.259168 
-1 1:0.712711 2:0.0902912 3:0.253849 4:0.0183184 5:0.221285 6:0.239135 7:0.151017 
-1 1:0.569893 2:0.326948 3:0.149534 4:0.00344667 5:0.050034 6:0.249376 7:0.162787 
-1 1:0.506465 2:0.426785 3:0.108903 4:0.00488538 5:0.0695612 6:0.237453 7:0.155491 
-1 1:0.489458 2:0.132309 3:0.445704 4:0.0078833 5:0.107944 6:0.237776 7:0.0943693 
-1 1:0.576185 2:0.418169 3:0.0441125 4:0.0106891 5:0.14129 6:0.324439 7:0.0737419 
-0.9258606590393692 1:0.57199 2:0.124015 3:0.366944 4:0.00199375 5:0.0295234 6:0.178222 7:0.0789263 
-1 1:0.349276 2:0.108604 3:0.62038 4:0.00323523 5:0.0470988 6:0.218086 7:0.159144 
-1 1:0.3151 2:0.216327 3:0.540116 4:0.0128849 5:0.165817 6:0.12 7:0.238791 
-1 1:0.442616 2:0.556296 3:0.036604 4:0.00418435 5:0.0601415 6:0.2285 7:0.100114 
-1 1:0.287011 2:0.542001 3:0.217491 4:0.00652815 5:0.0909649 6:0.283382 7:0.200709 
-1 1:0.505132 2:0.315891 3:0.230344 4:0.00427085 5:0.0613127 6:0.210223 7:0.138386 
-1 1:0.567074 2:0.40089 3:0.0724999 4:0.00891838 5:0.12052 6:0.273431 7:0.0366108 
-0.9059257778950729 1:0.269946 2:0.613969 3:0.157739 4:0.0038791 5:0.0559828 6:0.108548 7:0.199778 
-1 1:0.902035 2:0.126518 3:0.0133806 4:0.00592473 5:0.0832104 6:0.472969 7:0.123364 
-1 1:0.504747 2:0.429841 3:0.107421 4:0.00979451 5:0.130912 6:0.348967 7:0.131911 
-1 1:0.364216 2:0.58086 3:0.0933614 4:0.00929196 5:0.124979 6:0.11999 7:0.13149 
-1 1:0.476512 2:0.0972152 3:0.497446 4:0.00560815 5:0.0790924 6:0.26035 7:0.13092 
-1 1:0.831526 2:0.151091 3:0.0617375 4:0.00815958 5:0.111332 6:0.44164 7:0.397554 
-1 1:0.473532 2:0.136668 3:0.457913 4:0.00686391 5:0.0952263 6:0.188152 7:0.0875836 
-1 1:0.676722 2:0.196136 3:0.177549 4:0.00370059 5:0.0535349 6:0.276198 7:0.206333 
-1 1:0.700302 2:0.24515 3:0.0994319 4:0.012307 5:0.159489 6:0.496482 7:0.236068 
-1 1:0.826012 2:0.0573398 3:0.16907 4:0.0268319 5:0.295713 6:0.398119 7:0.0703891 
-1 1:0.808007 2:0.116747 3:0.123912 4:0.00409699 5:0.0589538 6:0.360753 7:0.10668 
-1 1:0.506364 2:0.11446 3:0.447048 4:0.00248109 5:0.0364952 6:0.227694 7:0.0551763 
-1 1:0.302466 2:0.64887 3:0.0853953 4:0.00547265 5:0.0773197 6:0.170216 7:0.143891 
-1 1:0.362044 2:0.0784074 3:0.639487 4:0.0419764 5:0.400209 6:0.214451 7:0.0755134 
-1 1:0.248326 2:0.617822 3:0.17655 4:0.0120888 5:0.157077 6:0.182287 7:0.0507426 
-1 1:0.252618 2:0.087345 3:0.74614 4:0.00497382 5:0.0707373 6:0.125611 7:0.10761 
-1 1:0.459905 2:0.0767229 3:0.53728 4:0.0194187 5:0.231699 6:0.326879 7:0.185976 
-1 1:0.933014 2:0.0780809 3:0.0328751 4:0.00704002 5:0.0974475 6:0.519924 7:0.0777253 
-1 1:0.772732 2:0.177141 3:0.0960462 4:0.00586377 5:0.0824199 6:0.480783 7:0.0600605 
-1 1:0.875662 2:0.0670748 3:0.105753 4:0.0179595 5:0.217832 6:0.364644 7:0.0832199 
-1 1:0.549187 2:0.352964 3:0.143385 4:0.0201636 5:0.238606 6:0.437461 7:0.0307759 
-1 1:0.63963 2:0.156999 3:0.259339 4:0.00293689 5:0.0429304 6:0.289909 7:0.136435 
-1 1:0.305215 2:0.205883 3:0.561929 4:0.0237929 5:0.270691 6:0.291477 7:0.125345 
-1 1:0.453857 2:0.361586 3:0.235394 4:0.00751058 5:0.103332 6:0.277602 7:0.10748 
-1 1:0.423952 2:0.494873 3:0.122925 4:0.009001 5:0.12151 6:0.193333 7:0.232265 
-1 1:0.671352 2:0.301643 3:0.0690649 4:0.00299785 5:0.0437848 6:0.301681 7:0.14345 
-1 1:0.707367 2:0.228954 3:0.109453 4:0.0262019 5:0.290655 6:0.526761 7:0.0912767 
-1 1:0.617799 2:0.145138 3:0.295384 4:0.00461073 5:0.0658908 6:0.45449 7:0.0531146 
-1 1:0.771407 2:0.0413939 3:0.244377 4:0.00864397 5:0.117218 6:0.542217 7:0.340806 
-1 1:0.311336 2:0.201807 3:0.559832 4:0.00218702 5:0.0322998 6:0.133366 7:0.174417 
-1 1:0.464735 2:0.44518 3:0.133355 4:0.0126332 5:0.163072 6:0.207215 7:0.131781 
-1 1:0.46827 2:0.230315 3:0.362152 4:0.0129594 5:0.166627 6:0.278023 7:0.129939 
-1 1:0.616847 2:0.0608787 3:0.387592 4:0.0126374 5:0.163118 6:0.294762 7:0.213559 
-1 1:0.230765 2:0.209981 3:0.636638 4:0.00256277 5:0.0376538 6:0.175836 7:0.134073 
-1 1:0.569882 2:0.309006 3:0.168963 4:0.0185321 5:0.223329 6:0.174752 7:0.11935 
-1 1:0.641101 2:0.329743 3:0.0708099 4:0.00999392 5:0.133245 6:0.421672 7:0.239551 
-1 1:0.44271 2:0.173134 3:0.451209 4:0.0110493 5:0.145404 6:0.196531 7:0.0931983 
-1 1:0.927834 2:0.0783873 3:0.0380492 4:0.0113448 5:0.148752 6:0.450374 7:0.138266 
-1 1:0.368737 2:0.140801 3:0.564843 4:0.00731483 5:0.100892 6:0.256356 7:0.101976 
-1 1:0.420013 2:0.570798 3:0.0449364 4:0.00760066 5:0.104451 6:0.282102 7:0.052384 
-1 1:0.503457 2:0.212387 3:0.344149 4:0.00683945 5:0.0949182 6:0.255761 7:0.204872 
-1 1:0.739693 2:0.101564 3:0.212966 4:0.00712544 5:0.0985209 6:0.473834 7:0.185035 
-1 1:0.515848 2:0.452055 3:0.0715774 4:0.00270961 5:0.0397317 6:0.251199 7:0.113175 
-1 1:0.310886 2:0.224335 3:0.53593 4:0.0126746 5:0.163525 6:0.271717 7:0.0973218 
-1 1:0.434569 2:0.138346 3:0.497517 4:0.023812 5:0.270853 6:0.198081 7:0.0696785 
-1 1:0.709006 2:0.195497 3:0.143922 4:0.0243589 5:0.275473 6:0.427048 7:0.122263 
-1 1:0.692446 2:0.12186 3:0.241224 4:0.0166519 5:0.205009 6:0.359461 7:0.0980724 
-1 1:0.497632 2:0.426279 3:0.11884 4:0.00954518 5:0.127977 6:0.16945 7:0.0406041 
-1 1:0.376314 2:0.0112162 3:0.69704 4:0.0134305 5:0.171712 6:0.101263 7:0.13094 
-1 1:0.557298 2:0.458447 3:0.020598 4:0.0358827 5:0.361747 6:0.491246 7:0.324643 
-1 1:0.349837 2:0.161963 3:0.562031 4:0.060252 5:0.494024 6:0.204138 7:0.210837 
-1 1:0.919616 2:0.054114 3:0.0730559 4:0.0122191 5:0.158518 6:0.386477 7:0.174807 
-1 1:0.257113 2:0.0788155 3:0.750593 4:0.00224247 5:0.0330941 6:0.102202 7:0.211908 
-1 1:0.600272 2:0.0385173 3:0.429414 4:0.00687602 5:0.0953793 6:0.281521 7:0.0676768 
-1 1:0.845255 2:0.0453075 3:0.161637 4:0.0336786 5:0.346725 6:0.321414 7:0.0580788 
-1 1:0.82444 2:0.0911127 3:0.134188 4:0.00842507 5:0.114568 6:0.325487 7:0.0495116 
-1 1:0.774529 2:0.0340097 3:0.24905 4:0.00599702 5:0.0841452 6:0.414387 7:0.211348 
-1 1:0.496927 2:0.0249356 3:0.553975 4:0.00114783 5:0.0171985 6:0.139088 7:0.066706 
-1 1:0.906131 2:0.0810071 3:0.0582837 4:0.0107495 5:0.141982 6:0.644318 7:0.443543 
-1 1:0.713996 2:0.248443 3:0.0813116 4:0.00501591 5:0.0712962 6:0.24157 7:0.0912667 
-1 1:0.605006 2:0.0507356 3:0.411157 4:0.0356794 5:0.360387 6:0.145233 7:0.0773049 
-1 1:0.873826 2:0.139597 3:0.0292143 4:0.0094037 5:0.126304 6:0.366435 7:0.0706093 
-1 1:0.891991 2:0.0506968 3:0.106121 4:0.0140097 5:0.177887 6:0.309287 7:0.0796769 
-1 1:0.800417 2:0.0808639 3:0.170817 4:0.0175144 5:0.213511 6:0.364833 7:0.0367709 
-1 1:0.654706 2:0.162007 3:0.237892 4:0.0489789 5:0.439552 6:0.41265 7:0.069058 
-1 1:0.954898 2:0.016077 3:0.0767197 4:0.00643512 5:0.0897763 6:0.523635 7:0.113846 
-1 1:0.889428 2:0.0668915 3:0.0913181 4:0.00449014 5:0.0642721 6:0.34154 7:0.152178 
-1 1:0.4851 2:0.523809 3:0.0266033 4:0.00472115 5:0.06737 6:0.269867 7:0.108581 
-1 1:0.371393 2:0.121043 3:0.583403 4:0.00154066 5:0.0229575 6:0.127348 7:0.0818387 
-1 1:0.2591 2:0.0585801 3:0.770381 4:0.0703512 5:0.535406 6:0.122672 7:0.0388827 
-1 1:0.797587 2:0.0641313 3:0.191936 4:0.0468467 5:0.428071 6:0.201951 7:0.120061 
-1 1:0.887978 2:0.127446 3:0.0273187 4:0.0118072 5:0.153944 6:0.572953 7:0.168091 
-1 1:0.440849 2:0.126871 3:0.50326 4:0.00838392 5:0.114068 6:0.139331 7:0.0987229 
-1 1:0.608376 2:0.0952296 3:0.359418 4:0.00524459 5:0.0743205 6:0.202852 7:0.113936 
-1 1:0.417796 2:0.531216 3:0.0901321 4:0.00355018 5:0.0514647 6:0.112617 7:0.0421454 
