svm_type c_svc
kernel_type rbf
gamma 0.142857
nr_class 2
total_sv 10762
rho 0.474874
label 1 -1
probA -1.36585
probB 0.0392755
nr_sv 5380 5382
SV
1 1:0.394929 2:0.143935 3:0.530591 4:0.015208 5:0.219791 6:0.4047 7:0.348424 
1 1:0.304865 2:0.240934 3:0.530591 4:0.00225376 5:0.0395749 6:0.237323 7:0.342078 
1 1:0.362935 2:0.192206 3:0.516813 4:0.0213114 5:0.284298 6:0.344376 7:0.28098 
1 1:0.805218 2:0.206134 3:0.0277853 4:0.0188913 5:0.259945 6:0.56674 7:0.417531 
1 1:0.562092 2:0.462407 3:0.0333424 4:0.00951088 5:0.149054 6:0.516306 7:0.396631 
1 1:0.788383 2:0.0905057 3:0.16121 4:0.00954063 5:0.149455 6:0.598314 7:0.386431 
1 1:0.78238 2:0.0711116 3:0.187002 4:0.0104922 5:0.162078 6:0.630235 7:0.367913 
1 1:0.638777 2:0.408014 3:0.00521804 4:0.00892463 5:0.141092 6:0.459503 7:0.313591 
1 1:0.478497 2:0.523094 3:0.0626137 4:0.0085921 5:0.136513 6:0.442284 7:0.345271 
1 1:0.494173 2:0.499716 3:0.0690935 4:0.00601499 5:0.0994159 6:0.39058 7:0.292711 
1 1:0.705869 2:0.314758 3:0.026164 4:0.00839699 5:0.133805 6:0.543025 7:0.432575 
1 1:0.48934 2:0.528086 3:0.0459863 4:0.00938194 5:0.147316 6:0.431845 7:0.428912 
1 1:0.500513 2:0.484191 3:0.0777661 4:0.0180385 5:0.250995 6:0.438392 7:0.259309 
1 1:0.500513 2:0.217476 3:0.34381 4:0.0109996 5:0.168667 6:0.46203 7:0.224996 
1 1:0.545281 2:0.171314 3:0.341763 4:0.00786184 5:0.126296 6:0.546608 7:0.451924 
1 1:0.669551 2:0.0267674 3:0.352442 4:0.00732163 5:0.118591 6:0.423249 7:0.464055 
1 1:0.40111 2:0.618792 3:0.0502925 4:0.0081003 5:0.129657 6:0.440312 7:0.257247 
1 1:0.872219 2:0.0910306 3:0.0706233 4:0.0140624 5:0.206466 6:0.733535 7:0.496146 
1 1:0.676032 2:0.208087 3:0.164619 4:0.0131389 5:0.195411 6:0.481884 7:0.962714 
1 1:0.64272 2:0.308544 3:0.100202 4:0.0110675 5:0.169541 6:0.570459 7:0.439332 
1 1:0.820891 2:0.196756 3:0.0203021 4:0.022778 5:0.298345 6:0.480218 7:0.356682 
1 1:0.458244 2:0.355557 3:0.251486 4:0.0128379 5:0.191746 6:0.41743 7:0.335072 
1 1:0.602304 2:0.219798 3:0.23214 4:0.0333401 5:0.386189 6:0.529152 7:0.686239 
1 1:0.56525 2:0.397506 3:0.0946875 4:0.0051443 5:0.0861971 6:0.417107 7:0.454096 
1 1:0.440893 2:0.310505 3:0.315063 4:0.00777842 5:0.125115 6:0.321917 7:0.226117 
1 1:0.727484 2:0.267873 3:0.0497115 4:0.0139893 5:0.2056 6:0.487172 7:0.359615 
1 1:0.543409 2:0.0644948 3:0.450323 4:0.0122261 5:0.184199 6:0.420726 7:0.456328 
1 1:0.622841 2:0.373775 3:0.0564893 4:0.00845598 5:0.134625 6:0.48857 7:0.453235 
1 1:0.75956 2:0.22653 3:0.0564893 4:0.00729579 5:0.118219 6:0.446624 7:0.400815 
1 1:0.858003 2:0.153833 3:0.0232495 4:0.024384 5:0.313153 6:0.314574 7:0.294413 
1 1:0.442483 2:0.610669 3:0.0139494 4:0.00467205 5:0.0788743 6:0.406645 7:0.26054 
1 1:0.395768 2:0.0617346 3:0.611683 4:0.0199076 5:0.270356 6:0.348444 7:0.431594 
1 1:0.546632 2:0.108709 3:0.402758 4:0.00832267 5:0.132769 6:0.363566 7:0.401616 
1 1:0.589892 2:0.0621197 3:0.402758 4:0.0140943 5:0.206843 6:0.491369 7:0.418802 
1 1:0.650032 2:0.113652 3:0.286747 4:0.00607045 5:0.100245 6:0.384264 7:0.311329 
1 1:0.664409 2:0.154256 3:0.230801 4:0.00669492 5:0.10949 6:0.548936 7:0.448921 
1 1:0.474664 2:0.165936 3:0.422989 4:0.00698397 5:0.113708 6:0.469677 7:0.336923 
1 1:0.406186 2:0.614577 3:0.0490416 4:0.0087885 5:0.139223 6:0.348293 7:0.336923 
1 1:0.636007 2:0.269025 3:0.146831 4:0.00975992 5:0.152395 6:0.35217 7:0.315333 
1 1:0.855774 2:0.11371 3:0.0656663 4:0.00552998 5:0.0920969 6:0.450837 7:0.351347 
1 1:0.589042 2:0.0658324 3:0.399967 4:0.00841898 5:0.134111 6:0.436062 7:0.33329 
1 1:0.411497 2:0.585416 3:0.0724264 4:0.0172657 5:0.242708 6:0.315819 7:0.283432 
1 1:0.436778 2:0.608107 3:0.0226329 4:0.00540847 5:0.0902461 6:0.312085 7:0.259599 
1 1:0.6589 2:0.30121 3:0.0901352 4:0.015572 5:0.223939 6:0.533538 7:0.296264 
1 1:0.90002 2:0.0974843 3:0.0343198 4:0.0115354 5:0.17552 6:0.707832 7:0.408062 
1 1:0.814829 2:0.0573435 3:0.165877 4:0.0202978 5:0.274281 6:0.382214 7:0.361087 
1 1:0.76988 2:0.112926 3:0.158722 4:0.00762344 5:0.122912 6:0.665184 7:0.409173 
1 1:0.902556 2:0.086105 3:0.0429446 4:0.00931102 5:0.146356 6:0.765326 7:0.384509 
1 1:0.935868 2:0.0502278 3:0.0429446 4:0.00703956 5:0.114516 6:0.499599 7:0.361387 
1 1:0.487085 2:0.242346 3:0.333427 4:0.0168605 5:0.238295 6:0.399394 7:0.382207 
1 1:0.452168 2:0.384411 3:0.229231 4:0.0115085 5:0.175177 6:0.296235 7:0.526916 
1 1:0.909247 2:0.0929164 3:0.0289624 4:0.0194251 5:0.265447 6:0.435645 7:0.318366 
1 1:0.801405 2:0.220675 3:0.017378 4:0.0174781 5:0.245002 6:0.751064 7:0.601628 
1 1:0.526408 2:0.20906 3:0.324385 4:0.00963188 5:0.15068 6:0.489171 7:0.285374 
1 1:0.746406 2:0.102207 3:0.194631 4:0.0189878 5:0.260945 6:0.454761 7:0.486607 
1 1:0.35855 2:0.0893805 3:0.624089 4:0.00377976 5:0.064732 6:0.31691 7:0.249249 
1 1:0.890758 2:0.0785315 3:0.0631728 4:0.00734804 5:0.11897 6:0.163775 7:0.466438 
1 1:0.434416 2:0.186888 3:0.445328 4:0.00794802 5:0.127514 6:0.370113 7:0.215957 
1 1:0.581797 2:0.447948 3:0.026596 4:0.00467353 5:0.0788973 6:0.329203 7:0.295293 
1 1:0.552089 2:0.0959891 3:0.409584 4:0.00666048 5:0.108986 6:0.478414 7:0.330047 
1 1:0.370503 2:0.0676798 3:0.632895 4:0.00254499 5:0.0444747 6:0.325018 7:0.501381 
1 1:0.762349 2:0.0795046 3:0.200149 4:0.0269663 5:0.335791 6:0.243953 7:0.264794 
1 1:0.473639 2:0.591098 4:0.00594824 5:0.0984149 6:0.390626 7:0.330918 
1 1:0.386214 2:0.120311 3:0.563518 4:0.00425867 5:0.0723726 6:0.351883 7:0.899974 
1 1:0.342633 2:0.638319 3:0.0936335 4:0.00317478 5:0.0549096 6:0.297064 7:0.495316 
1 1:0.841188 2:0.161457 3:0.0337088 4:0.00933801 5:0.14672 6:0.76057 7:0.495316 
1 1:0.482023 2:0.433906 3:0.147789 4:0.0128594 5:0.192008 6:0.404571 7:0.451443 
1 1:0.526242 2:0.13758 3:0.395864 4:0.0032884 5:0.056768 6:0.417635 7:0.379584 
1 1:0.377615 2:0.162053 3:0.531119 4:0.0155504 5:0.223693 6:0.346327 7:0.442905 
1 1:0.420607 2:0.115752 3:0.531119 4:0.0103317 5:0.159975 6:0.373 7:0.413567 
1 1:0.458559 2:0.511444 3:0.095654 4:0.0122362 5:0.184326 6:0.336496 7:0.488759 
1 1:0.510215 2:0.315261 3:0.235849 4:0.0167423 5:0.236998 6:0.457509 7:0.434157 
1 1:0.485821 2:0.38094 3:0.196541 4:0.0164073 5:0.233303 6:0.504353 7:0.444587 
1 1:0.510411 2:0.242823 3:0.307894 4:0.0191002 5:0.262107 6:0.395861 7:0.518137 
1 1:0.69485 2:0.102277 3:0.249946 4:0.0286359 5:0.349709 6:0.477301 7:0.313401 
1 1:0.728089 2:0.235237 3:0.0816144 4:0.0176141 5:0.246464 6:0.582513 7:0.50013 
1 1:0.527027 2:0.511133 3:0.0224101 4:0.0153313 5:0.221201 6:0.451705 7:0.445678 
1 1:0.56875 2:0.483048 3:0.00560218 4:0.00702142 5:0.114253 6:0.521041 7:0.277566 
1 1:0.565805 2:0.326048 3:0.16537 4:0.0139146 5:0.204715 6:0.429786 7:0.459691 
1 1:0.372348 2:0.617226 3:0.0827518 4:0.0139305 5:0.204904 6:0.465684 7:0.2813 
1 1:0.461703 2:0.0564129 3:0.546159 4:0.0030879 5:0.0534818 6:0.236289 7:0.603069 
1 1:0.776318 2:0.247141 3:0.0179289 4:0.0155556 5:0.223752 6:0.423046 7:0.322119 
1 1:0.805381 2:0.187051 3:0.0466452 4:0.006196 5:0.102118 6:0.450747 7:0.363018 
1 1:0.547328 2:0.452915 3:0.0586711 4:0.0148358 5:0.215508 6:0.456565 7:0.305383 
1 1:0.574637 2:0.14705 3:0.334429 4:0.00666625 5:0.109069 6:0.456565 7:0.546004 
1 1:0.374729 2:0.608565 3:0.0888338 4:0.00494847 5:0.083174 6:0.309146 7:0.404508 
1 1:0.463251 2:0.442496 3:0.159387 4:0.0249049 5:0.317834 6:0.43933 7:0.245285 
1 1:0.446151 2:0.367455 3:0.252608 4:0.0159417 5:0.228109 6:0.420822 7:0.274223 
1 1:0.400628 2:0.128624 3:0.539742 4:0.00527555 5:0.0882125 6:0.413126 7:0.247187 
1 1:0.429456 2:0.0443524 3:0.592832 4:0.0246615 5:0.315654 6:0.340125 7:0.278788 
1 1:0.451139 2:0.0895025 3:0.524501 4:0.0269255 5:0.335444 6:0.426593 7:0.605501 
1 1:0.425169 2:0.111879 3:0.530081 4:0.0183219 5:0.253991 6:0.34373 7:0.669563 
1 1:0.339262 2:0.136005 3:0.598303 4:0.00360221 5:0.0618697 6:0.363362 7:0.944527 
1 1:0.316597 2:0.139492 3:0.619173 4:0.00818552 5:0.130852 6:0.323184 7:0.190363 
1 1:0.732837 2:0.0971636 3:0.214239 4:0.00755368 5:0.121916 6:0.405757 7:0.422325 
1 1:0.766074 2:0.0357963 3:0.239744 4:0.00540514 5:0.0901954 6:0.540428 7:0.422325 
1 1:0.336128 2:0.595352 3:0.14348 4:0.0288908 5:0.351788 6:0.398972 7:0.255395 
1 1:0.638225 2:0.322473 3:0.0911373 4:0.0193388 5:0.264563 6:0.531301 7:0.216478 
1 1:0.56836 2:0.209607 3:0.278772 4:0.00736561 5:0.119222 6:0.42515 7:0.824371 
1 1:0.744499 2:0.226201 3:0.0729978 4:0.0188086 5:0.259085 6:0.513502 7:0.410624 
1 1:0.732146 2:0.139712 3:0.172541 4:0.00943625 5:0.148049 6:0.601104 7:0.46905 
1 1:0.617805 2:0.0840163 3:0.350929 4:0.00480754 5:0.0809863 6:0.413965 7:0.779689 
1 1:0.47198 2:0.56281 3:0.0299986 4:0.00922625 5:0.145206 6:0.369966 7:0.358384 
1 1:0.879097 2:0.120643 3:0.0336951 4:0.0104034 5:0.160914 6:0.665377 7:0.372468 
1 1:0.538918 2:0.239839 3:0.280246 4:0.015186 5:0.219539 6:0.446159 7:0.423136 
1 1:0.61527 2:0.123346 3:0.314422 4:0.00936417 5:0.147075 6:0.587142 7:0.472594 
1 1:0.692388 2:0.24731 3:0.107925 4:0.0076605 5:0.123439 6:0.621274 7:0.351868 
1 1:0.725875 2:0.252463 3:0.0668106 4:0.0120017 5:0.181397 6:0.595834 7:0.276075 
1 1:0.806273 2:0.206241 3:0.0265441 4:0.012987 5:0.193565 6:0.595628 7:0.34424 
1 1:0.868047 2:0.139712 3:0.0265441 4:0.0146654 5:0.213532 6:0.617529 7:0.363959 
1 1:0.920678 2:0.0931946 3:0.0164046 4:0.0116983 5:0.177582 6:0.655941 7:0.418672 
1 1:0.559278 2:0.487901 3:0.0109364 4:0.00282295 5:0.0491065 6:0.452926 7:0.418672 
1 1:0.499145 2:0.172055 3:0.390586 4:0.00701455 5:0.114153 6:0.436637 7:0.249469 
1 1:0.471601 2:0.498366 3:0.0946875 4:0.0120549 5:0.182064 6:0.382929 7:0.446168 
1 1:0.70032 2:0.323833 3:0.0230731 4:0.0131909 5:0.196042 6:0.485895 7:0.342289 
1 1:0.437456 2:0.584075 3:0.0458742 4:0.0043696 5:0.0741258 6:0.347376 7:0.37465 
1 1:0.399024 2:0.0919803 3:0.578016 4:0.0246817 5:0.315836 6:0.324667 7:0.19832 
1 1:0.712421 2:0.160008 3:0.173484 4:0.0154894 5:0.223001 6:0.614194 7:0.623799 
1 1:0.74472 2:0.229578 3:0.0693929 4:0.0102419 5:0.158792 6:0.505414 7:0.546855 
1 1:0.863414 2:0.114209 3:0.056961 4:0.0065114 5:0.106792 6:0.69053 7:0.330337 
1 1:0.863414 2:0.142762 3:0.0284798 4:0.00726847 5:0.117825 6:0.686613 7:0.247938 
1 1:0.523913 2:0.388652 3:0.147927 4:0.0214694 5:0.285836 6:0.401549 7:0.384379 
1 1:0.528661 2:0.13296 3:0.397874 4:0.0165118 5:0.234459 6:0.435217 7:0.447069 
1 1:0.412884 2:0.603188 3:0.0532084 4:0.00821194 5:0.131223 6:0.384363 7:0.360566 
1 1:0.534447 2:0.24561 3:0.27929 4:0.00583141 5:0.0966578 6:0.549041 7:0.462494 
1 1:0.495755 2:0.401614 3:0.165248 4:0.0189544 5:0.260599 6:0.475697 7:0.440453 
1 1:0.5144 2:0.341372 3:0.205308 4:0.021929 5:0.290276 6:0.442646 7:0.440453 
1 1:0.716352 2:0.1099 3:0.219244 4:0.0148394 5:0.215549 6:0.566393 7:0.449522 
1 1:0.596302 2:0.394345 3:0.0644838 4:0.00704007 5:0.114524 6:0.42275 7:0.621397 
1 1:0.893656 2:0.108287 3:0.0303786 4:0.0173096 5:0.243183 6:0.161408 7:0.326243 
1 1:0.892187 2:0.00467755 3:0.135305 4:0.011818 5:0.179091 6:0.315857 7:0.421765 
1 1:0.80481 2:0.0661216 3:0.167884 4:0.00960136 5:0.150271 6:0.547073 7:0.367763 
1 1:0.575978 2:0.438803 3:0.0419712 4:0.00987669 5:0.153954 6:0.507499 7:0.345241 
1 1:0.354922 2:0.679638 3:0.0392194 4:0.0134912 5:0.199662 6:0.313033 7:0.49008 
1 1:0.412291 2:0.0898697 3:0.565869 4:0.0363202 5:0.407415 6:0.206718 7:0.710482 
1 1:0.429012 2:0.467079 3:0.171648 4:0.0101765 5:0.157928 6:0.449446 7:0.333 
1 1:0.491783 2:0.251978 3:0.318775 4:0.00963213 5:0.150684 6:0.479793 7:0.432695 
1 1:0.638617 2:0.317143 3:0.0960327 4:0.00564046 5:0.0937735 6:0.497891 7:0.835932 
1 1:0.459831 2:0.47005 3:0.135576 4:0.00888488 5:0.140547 6:0.465267 7:0.487618 
1 1:0.743917 2:0.170461 3:0.129223 4:0.0116291 5:0.176706 6:0.684919 7:0.47892 
1 1:0.740287 2:0.240842 3:0.0629186 4:0.0071662 5:0.11635 6:0.462439 7:0.716077 
1 1:0.49004 2:0.447279 3:0.125837 4:0.00444423 5:0.0753019 6:0.377495 7:0.815793 
1 1:0.645434 2:0.333563 3:0.0723307 4:0.0168776 5:0.238483 6:0.571179 7:0.813141 
1 1:0.527606 2:0.152279 3:0.379737 4:0.00904928 5:0.142797 6:0.396814 7:0.328876 
1 1:0.338732 2:0.225009 3:0.510094 4:0.0290449 5:0.353039 6:0.342631 7:0.547406 
1 1:0.217229 2:0.0727987 3:0.792449 4:0.0053886 5:0.0899427 6:0.165234 7:0.328946 
1 1:0.246617 2:0.822938 3:0.0126288 4:0.0044175 5:0.0748808 6:0.308497 7:0.793712 
1 1:0.391683 2:0.188494 3:0.489632 4:0.00583795 5:0.0967564 6:0.290875 7:0.492663 
1 1:0.660567 2:0.28919 3:0.100333 4:0.0241993 5:0.311481 6:0.590505 7:0.446158 
1 1:0.701428 2:0.182316 3:0.163043 4:0.0247794 5:0.316713 6:0.502552 7:0.491272 
1 1:0.761096 2:0.207428 3:0.0738946 4:0.014303 5:0.2093 6:0.645821 7:0.329166 
1 1:0.803369 2:0.186063 3:0.0497935 4:0.00515828 5:0.0864115 6:0.375573 7:0.793342 
1 1:0.542121 2:0.440196 3:0.0769527 4:0.00629776 5:0.103631 6:0.431593 7:0.685908 
1 1:0.423411 2:0.113858 3:0.529995 4:0.00306385 5:0.0530865 6:0.372413 7:0.493974 
1 1:0.403833 2:0.0885554 3:0.576264 4:0.0861376 5:0.632276 6:0.285654 7:0.408172 
1 1:0.822606 2:0.0502278 3:0.164619 4:0.0192748 5:0.263905 6:0.635415 7:0.464076 
1 1:0.596081 2:0.107632 3:0.35071 4:0.0132937 5:0.197284 6:0.470074 7:0.605782 
1 1:0.858636 2:0.111758 3:0.0645385 4:0.00991939 5:0.154522 6:0.737323 7:0.766045 
1 1:0.794077 2:0.13178 3:0.113921 4:0.0102791 5:0.159282 6:0.708604 7:0.480481 
1 1:0.40133 2:0.0947213 3:0.572803 4:0.00650602 5:0.106712 6:0.316198 7:0.529358 
1 1:0.285895 2:0.219044 3:0.572803 4:0.0281704 5:0.345883 6:0.328378 7:0.549037 
1 1:0.178989 2:0.0251475 3:0.881058 4:0.101454 5:0.673169 6:0.0938305 7:0.598945 
1 1:0.708871 2:0.181868 3:0.155494 4:0.00534025 5:0.089203 6:0.537297 7:0.859255 
1 1:0.648561 2:0.0779436 3:0.323946 4:0.00337926 5:0.0582514 6:0.409009 7:0.696939 
1 1:0.3106 2:0.0834229 3:0.681545 4:0.0486866 5:0.482829 6:0.294959 7:0.679823 
1 1:0.820997 2:0.148471 3:0.0683526 4:0.0124264 5:0.186684 6:0.43676 7:0.430754 
1 1:0.386214 2:0.373376 3:0.311092 4:0.00889744 5:0.14072 6:0.437483 7:0.34412 
1 1:0.345428 2:0.224026 3:0.503882 4:0.0255114 5:0.323209 6:0.404949 7:0.5317 
1 1:0.548304 2:0.125066 3:0.384646 4:0.0106738 5:0.164447 6:0.534715 7:0.522231 
1 1:0.548304 2:0.125066 3:0.384646 4:0.00582872 5:0.0966177 6:0.448946 7:0.25034 
1 1:0.409211 2:0.235299 3:0.424116 4:0.00396981 5:0.0677781 6:0.322501 7:0.401846 
1 1:0.451374 2:0.181634 3:0.432351 4:0.0047379 5:0.0799011 6:0.342884 7:0.320047 
1 1:0.734123 2:0.175533 3:0.134685 4:0.0153724 5:0.22167 6:0.510886 7:0.647832 
1 1:0.778004 2:0.128274 3:0.134685 4:0.00654782 5:0.107328 6:0.583114 7:0.320758 
1 1:0.529733 2:0.36066 3:0.169596 4:0.0144051 5:0.210496 6:0.502552 7:0.403658 
1 1:0.563221 2:0.345204 3:0.14904 4:0.0114321 5:0.174207 6:0.527992 7:0.298306 
1 1:0.756662 2:0.0974583 3:0.18835 4:0.0082933 5:0.13236 6:0.43488 7:0.790098 
1 1:0.790597 2:0.140096 3:0.109364 4:0.00556627 5:0.0926481 6:0.469969 7:0.578766 
1 1:0.290657 2:0.376513 3:0.410616 4:0.0127559 5:0.190742 6:0.360019 7:0.360216 
1 1:0.748469 2:0.280105 3:0.0149679 4:0.0147281 5:0.214261 6:0.342016 7:0.3122 
1 1:0.790266 2:0.155058 3:0.0947955 4:0.0134052 5:0.198628 6:0.679552 7:0.463535 
1 1:0.316209 2:0.0804215 3:0.678513 4:0.00332239 5:0.0573231 6:0.233685 7:0.310548 
1 1:0.356657 2:0.0435616 3:0.671828 4:0.0200538 5:0.27183 6:0.338473 7:0.325062 
1 1:0.255819 2:0.115056 3:0.708843 4:0.00494931 5:0.0831864 6:0.314574 7:0.580017 
1 1:0.30618 2:0.0689558 3:0.700722 4:0.0122475 5:0.184466 6:0.339402 7:0.365431 
1 1:0.254158 2:0.142223 3:0.683526 4:0.0107899 5:0.165955 6:0.257827 7:0.490541 
1 1:0.800813 2:0.128208 3:0.110246 4:0.00533384 5:0.0891054 6:0.418871 7:0.620155 
1 1:0.754014 2:0.202395 3:0.0865221 4:0.0142633 5:0.208834 6:0.533485 7:0.450382 
1 1:0.727166 2:0.115655 3:0.201885 4:0.0140019 5:0.205751 6:0.390717 7:0.481742 
1 1:0.459698 2:0.567507 3:0.0385085 4:0.00818494 5:0.130844 6:0.443775 7:0.350156 
1 1:0.49196 2:0.555925 3:0.0154039 4:0.0049177 5:0.0826965 6:0.399297 7:0.327024 
1 1:0.492258 2:0.183728 3:0.386341 4:0.00673262 5:0.110043 6:0.355439 7:0.824832 
1 1:0.538364 2:0.134071 3:0.386341 4:0.00381836 5:0.0653522 6:0.465773 7:0.338525 
1 1:0.298884 2:0.259769 3:0.518229 4:0.00683284 5:0.111507 6:0.388291 7:0.374219 
1 1:0.340469 2:0.156757 3:0.576307 4:0.00167623 5:0.029719 6:0.292459 7:0.330667 
1 1:0.816741 2:0.155926 3:0.0654873 4:0.0106279 5:0.16385 6:0.465407 7:0.737418 
1 1:0.732922 2:0.147719 3:0.163718 4:0.0118465 5:0.179449 6:0.566712 7:0.898082 
1 1:0.384314 2:0.286375 3:0.399913 4:0.00274146 5:0.0477523 6:0.325797 7:0.360246 
1 1:0.424065 2:0.166946 3:0.476338 4:0.00447238 5:0.075745 6:0.360371 7:0.686769 
1 1:0.44209 2:0.155298 3:0.468593 4:0.0060398 5:0.0997872 6:0.414687 7:0.4474 
1 1:0.917466 2:0.06653 3:0.0464538 4:0.0179015 5:0.249537 6:0.650379 7:0.371066 
1 1:0.671963 2:0.0902727 3:0.286508 4:0.00550959 5:0.0917868 6:0.539697 7:0.581738 
1 1:0.617851 2:0.258944 3:0.176393 4:0.00593112 5:0.0981574 6:0.390805 7:0.822049 
1 1:0.777976 2:0.119695 3:0.143271 4:0.0163185 5:0.232315 6:0.583817 7:0.30201 
1 1:0.750192 2:0.161588 3:0.131333 4:0.00858838 5:0.136462 6:0.534565 7:0.279779 
1 1:0.728253 2:0.174285 3:0.142236 4:0.0100541 5:0.15631 6:0.447136 7:0.370756 
1 1:0.706186 2:0.23766 3:0.102727 4:0.00940842 5:0.147673 6:0.557967 7:0.505185 
1 1:0.750248 2:0.170461 3:0.122422 4:0.00753335 5:0.121625 6:0.572693 7:0.283712 
1 1:0.750248 2:0.163643 3:0.129223 4:0.00641715 5:0.1054 6:0.505358 7:0.310348 
1 1:0.249101 2:0.789785 3:0.0430307 4:0.00261694 5:0.0456767 6:0.244481 7:0.566414 
1 1:0.295318 2:0.746645 3:0.0364101 4:0.00313496 5:0.054255 6:0.244481 7:0.589316 
1 1:0.519527 2:0.15663 3:0.384076 4:0.00514391 5:0.0861914 6:0.459586 7:0.322229 
1 1:0.513467 2:0.117472 3:0.429645 4:0.0186897 5:0.257847 6:0.395136 7:0.340937 
1 1:0.648629 2:0.123887 3:0.278045 4:0.0376512 5:0.416469 6:0.499366 7:0.421234 
1 1:0.942947 2:0.0263563 3:0.059151 4:0.0185376 5:0.256256 6:0.442905 7:0.371717 
1 1:0.677387 2:0.133567 3:0.237497 4:0.0189346 5:0.260394 6:0.536005 7:0.454246 
1 1:0.673029 2:0.156224 3:0.219579 4:0.00388139 5:0.0663627 6:0.435348 7:0.401505 
1 1:0.73237 2:0.191729 3:0.120414 4:0.00572747 5:0.0950903 6:0.523006 7:0.366141 
1 1:0.514493 2:0.392363 3:0.154344 4:0.00828298 5:0.132215 6:0.507099 7:0.36455 
1 1:0.620379 2:0.361733 3:0.0711482 4:0.0206749 5:0.278038 6:0.550769 7:0.451393 
1 1:0.841596 2:0.164051 3:0.0306821 4:0.0132777 5:0.197092 6:0.565836 7:0.406921 
1 1:0.553879 2:0.111122 3:0.392565 4:0.00534275 5:0.0892412 6:0.388242 7:0.409123 
1 1:0.485094 2:0.152793 3:0.424895 4:0.0101387 5:0.157429 6:0.445396 7:0.331468 
1 1:0.495348 2:0.212895 3:0.35393 4:0.0073131 5:0.118467 6:0.482477 7:0.42685 
1 1:0.707196 2:0.0900041 3:0.248927 4:0.00883525 5:0.139866 6:0.625438 7:0.559437 
1 1:0.699599 2:0.200463 3:0.146908 4:0.00964874 5:0.150907 6:0.234895 7:0.559137 
1 1:0.88425 2:0.0437864 3:0.104821 4:0.0117949 5:0.1788 6:0.835866 7:0.731182 
1 1:0.313266 2:0.157129 3:0.60516 4:0.00630026 5:0.103669 6:0.269077 7:0.509459 
1 1:0.41481 2:0.150141 3:0.503045 4:0.00655334 5:0.10741 6:0.394834 7:0.305643 
1 1:0.45413 2:0.58901 3:0.0230403 4:0.0144411 5:0.210917 6:0.353649 7:0.505515 
1 1:0.571075 2:0.268546 3:0.217066 4:0.010441 5:0.161408 6:0.555896 7:0.487878 
1 1:0.337674 2:0.675365 3:0.0620109 4:0.0113448 5:0.173094 6:0.333953 7:0.310838 
1 1:0.610938 2:0.110807 3:0.331583 4:0.0188358 5:0.259368 6:0.447359 7:0.438411 
1 1:0.648206 2:0.192243 3:0.210316 4:0.00713004 5:0.115827 6:0.551034 7:0.431514 
1 1:0.659722 2:0.142632 3:0.24743 4:0.00727899 5:0.117976 6:0.581656 7:0.456879 
1 1:0.830471 2:0.0892051 3:0.117292 4:0.0106356 5:0.16395 6:0.692754 7:0.547556 
1 1:0.514221 2:0.450078 3:0.0970689 4:0.0152898 5:0.220727 6:0.56929 7:0.745215 
1 1:0.610598 2:0.125795 3:0.316998 4:0.0123292 5:0.185479 6:0.467136 7:0.401375 
1 1:0.601944 2:0.288218 3:0.164281 4:0.00798784 5:0.128075 6:0.432363 7:0.42734 
1 1:0.414039 2:0.135852 3:0.518125 4:0.0266558 5:0.333143 6:0.320054 7:0.266746 
1 1:0.789789 2:0.0626514 3:0.187482 4:0.00212783 5:0.0374428 6:0.164192 7:0.471633 
1 1:0.288047 2:0.105725 3:0.683526 4:0.0046373 5:0.0783307 6:0.209307 7:0.722814 
1 1:0.297704 2:0.633096 3:0.147111 4:0.0177918 5:0.248368 6:0.282011 7:0.865151 
1 1:0.383268 2:0.199865 3:0.487328 4:0.0103804 5:0.160614 6:0.374623 7:0.253714 
1 1:0.406834 2:0.139589 3:0.522137 4:0.0221754 5:0.292635 6:0.398119 7:0.607463 
1 1:0.151459 2:0.0976446 3:0.83832 4:0.0112279 5:0.171599 6:0.188299 7:0.472484 
1 1:0.128793 2:0.11508 3:0.845277 4:0.00354629 5:0.0609644 6:0.231348 7:0.449161 
1 1:0.769554 2:0.212813 3:0.0594367 4:0.00927742 5:0.1459 6:0.506055 7:0.367293 
1 1:0.761651 2:0.144712 3:0.135856 4:0.00896733 5:0.141677 6:0.583114 7:0.293832 
1 1:0.720368 2:0.182407 3:0.142607 4:0.00467616 5:0.0789384 6:0.551236 7:0.460682 
1 1:0.706637 2:0.202125 3:0.137688 4:0.00676186 5:0.110471 6:0.539065 7:0.525945 
1 1:0.564679 2:0.0919241 3:0.400113 4:0.00524926 5:0.0878106 6:0.33406 7:0.436529 
1 1:0.365689 2:0.671992 3:0.0352781 4:0.0032741 5:0.0565345 6:0.309723 7:0.661035 
1 1:0.394424 2:0.123788 3:0.551231 4:0.00363074 5:0.06233 6:0.349744 7:0.52094 
1 1:0.587958 2:0.155993 3:0.311198 4:0.00868758 5:0.137833 6:0.429194 7:0.232423 
1 1:0.598303 2:0.0668534 3:0.388999 4:0.0190381 5:0.261466 6:0.254972 7:0.659063 
1 1:0.747662 2:0.199464 3:0.0962719 4:0.0081557 5:0.130434 6:0.616397 7:0.352128 
1 1:0.45156 2:0.466714 3:0.147789 4:0.0205245 5:0.276544 6:0.462924 7:0.451403 
1 1:0.492832 2:0.31855 3:0.251242 4:0.0238726 5:0.308502 6:0.499503 7:0.578615 
1 1:0.642305 2:0.216096 3:0.192862 4:0.00714132 5:0.11599 6:0.490852 7:0.998418 
1 1:0.721507 2:0.181976 3:0.14181 4:0.0212154 5:0.28336 6:0.603171 7:0.935888 
1 1:0.725208 2:0.258375 3:0.0616294 4:0.0124968 5:0.187555 6:0.525664 7:0.311929 
1 1:0.866021 2:0.0561689 3:0.112053 4:0.00749911 5:0.121136 6:0.521041 7:0.493374 
1 1:0.378211 2:0.120673 3:0.571755 4:0.0123782 5:0.186088 6:0.250733 7:0.556094 
1 1:0.794385 2:0.18963 3:0.0558865 4:0.00937629 5:0.147239 6:0.616048 7:0.665189 
1 1:0.398855 2:0.612645 3:0.0588461 4:0.01222 5:0.184122 6:0.360635 7:0.561689 
1 1:0.339863 2:0.685254 3:0.0497935 4:0.00553453 5:0.0921658 6:0.207515 7:0.567475 
1 1:0.855326 2:0.0580726 3:0.121644 4:0.0296307 5:0.357751 6:0.445203 7:0.769689 
1 1:0.623466 2:0.354242 3:0.0753041 4:0.0178906 5:0.249421 6:0.40697 7:0.888463 
1 1:0.329945 2:0.191126 3:0.553331 4:0.0198575 5:0.269849 6:0.372119 7:0.975797 
1 1:0.143827 2:0.410221 3:0.534731 4:0.0124128 5:0.186516 6:0.326083 7:0.435818 
1 1:0.354664 2:0.611632 3:0.10733 4:0.00443096 5:0.0750923 6:0.218255 7:0.997648 
1 1:0.558844 2:0.403716 3:0.0953751 4:0.00376315 5:0.064465 6:0.415121 7:0.554672 
1 1:0.766863 2:0.107726 3:0.167151 4:0.011656 5:0.177047 6:0.618293 7:0.353469 
1 1:0.783533 2:0.167573 3:0.0895446 4:0.0112777 5:0.172236 6:0.509939 7:0.689942 
1 1:0.781608 2:0.0538418 3:0.205058 4:0.00564084 5:0.0937802 6:0.466299 7:0.527086 
1 1:0.422571 2:0.513941 3:0.131823 4:0.00367203 5:0.062997 6:0.248782 7:0.657471 
1 1:0.93223 2:0.0615591 3:0.0355502 4:0.00154254 5:0.0274098 6:0.194588 7:0.753794 
1 1:0.213233 2:0.145799 3:0.723924 4:0.000923395 5:0.0165806 6:0.173258 7:0.482653 
1 1:0.494615 2:0.106595 3:0.460747 4:0.0286315 5:0.349674 6:0.285333 7:0.78103 
1 1:0.456911 2:0.167506 3:0.440494 4:0.00362337 5:0.0622114 6:0.360524 7:0.542371 
1 1:0.441946 2:0.100038 3:0.523871 4:0.0103747 5:0.160538 6:0.3379 7:0.454656 
1 1:0.339772 2:0.650242 3:0.0848174 4:0.0059717 5:0.0987661 6:0.267923 7:0.985176 
1 1:0.265403 2:0.315738 3:0.498368 4:0.0128336 5:0.191693 6:0.312671 7:0.351357 
1 1:0.345943 2:0.159604 3:0.567586 4:0.0257588 5:0.32538 6:0.358357 7:0.334061 
1 1:0.68464 2:0.23044 3:0.133076 4:0.0057369 5:0.0952319 6:0.48259 7:0.639234 
1 1:0.617072 2:0.345659 3:0.090734 4:0.00496252 5:0.0833912 6:0.442666 7:0.507888 
1 1:0.601388 2:0.219281 3:0.233642 4:0.0129972 5:0.193689 6:0.336448 7:0.419273 
1 1:0.564369 2:0.184395 3:0.308209 4:0.00265637 5:0.046336 6:0.295435 7:0.904348 
0.81804110026877 1:0.453728 2:0.0793223 3:0.531876 4:0.0484849 5:0.481739 6:0.366555 7:0.356232 
1 1:0.445544 2:0.603728 3:0.017583 4:0.00765319 5:0.123335 6:0.359302 7:0.621026 
1 1:0.565967 2:0.245831 3:0.245211 4:0.00922632 5:0.145206 6:0.469677 7:0.715737 
1 1:0.526021 2:0.294998 3:0.239081 4:0.0300874 5:0.361381 6:0.515196 7:0.951523 
1 1:0.380775 2:0.28113 3:0.408947 4:0.00956333 5:0.14976 6:0.324214 7:0.991322 
1 1:0.484101 2:0.134709 3:0.443999 4:0.0046473 5:0.0784867 6:0.391693 7:0.877112 
1 1:0.438058 2:0.0862913 3:0.541757 4:0.00500234 5:0.0840075 6:0.410652 7:0.56251 
1 1:0.310805 2:0.248721 3:0.516442 4:0.00559731 5:0.0931189 6:0.448247 7:0.616272 
1 1:0.609956 2:0.391574 3:0.0525796 4:0.0327301 5:0.381672 6:0.514946 7:0.945558 
1 1:0.80573 2:0.165666 3:0.0676021 4:0.013717 5:0.202365 6:0.614099 7:0.586403 
1 1:0.321035 2:0.0768828 3:0.676858 4:0.00544175 5:0.0907533 6:0.329245 7:0.261681 
1 1:0.296205 2:0.0935962 3:0.68686 4:0.00334752 5:0.0577336 6:0.252221 7:0.256827 
1 1:0.700387 2:0.216096 3:0.130466 4:0.00945651 5:0.148322 6:0.61253 7:0.384779 
1 1:0.450268 2:0.202357 3:0.412868 4:0.00581935 5:0.096477 6:0.373869 7:0.428101 
1 1:0.420376 2:0.28514 3:0.362407 4:0.00719037 5:0.116699 6:0.347376 7:0.443916 
1 1:0.36786 2:0.65231 3:0.0525796 4:0.0182956 5:0.253714 6:0.480862 7:0.51055 
1 1:0.759408 2:0.171314 3:0.111731 4:0.013767 5:0.20296 6:0.605578 7:0.514404 
1 1:0.3942 2:0.510357 3:0.165877 4:0.0180783 5:0.251416 6:0.495473 7:0.992643 
1 1:0.574472 2:0.0872603 3:0.394244 4:0.00363747 5:0.0624391 6:0.386386 7:0.448481 
1 1:0.584005 2:0.441437 3:0.0307204 4:0.00762979 5:0.123002 6:0.407507 7:0.993784 
1 1:0.518205 2:0.142153 3:0.399935 4:0.00695024 5:0.113218 6:0.508551 7:0.569427 
1 1:0.189342 2:0.338018 3:0.557856 4:0.0201559 5:0.272858 6:0.340705 7:0.388073 
1 1:0.751478 2:0.272833 3:0.018987 4:0.00485742 5:0.0817615 6:0.439892 7:0.473114 
1 1:0.62776 2:0.355317 3:0.0696185 4:0.0132706 5:0.197006 6:0.481665 7:0.388523 
1 1:0.718486 2:0.144665 3:0.182273 4:0.0196721 5:0.267968 6:0.396032 7:0.846743 
1 1:0.598303 2:0.228419 3:0.227842 4:0.00698365 5:0.113705 6:0.49002 7:0.408092 
1 1:0.784368 2:0.159752 3:0.0964483 4:0.0137851 5:0.203175 6:0.672078 7:0.616332 
1 1:0.845582 2:0.0737498 3:0.116476 4:0.00671819 5:0.109832 6:0.43933 7:0.673076 
1 1:0.302933 2:0.0968689 3:0.676368 4:0.00449329 5:0.0760732 6:0.275207 7:0.330287 
1 1:0.864928 2:0.0978941 3:0.0716076 4:0.00810748 5:0.129758 6:0.663675 7:0.462174 
1 1:0.485547 2:0.433706 3:0.144203 4:0.0130549 5:0.194391 6:0.376441 7:0.415329 
1 1:0.512596 2:0.483433 3:0.0655433 4:0.0112612 5:0.172025 6:0.375087 7:0.394999 
1 1:0.59104 2:0.333241 3:0.131087 4:0.00443314 5:0.0751268 6:0.487101 7:0.431164 
1 1:0.425169 2:0.545406 3:0.0976472 4:0.0085453 5:0.135865 6:0.291556 7:0.99957 
1 1:0.672534 2:0.23005 3:0.14647 4:0.00504966 5:0.0847377 6:0.526721 7:0.735476 
1 1:0.489297 2:0.122503 3:0.450593 4:0.0116385 5:0.176826 6:0.373383 7:0.505896 
1 1:0.549724 2:0.149302 3:0.358947 4:0.0115381 5:0.175554 6:0.278869 7:0.590797 
1 1:0.427341 2:0.495051 3:0.145542 4:0.0274066 5:0.339514 6:0.3546 7:0.329897 
1 1:0.437019 2:0.484628 3:0.145542 4:0.0241968 5:0.311458 6:0.431792 7:0.299397 
1 1:0.533045 2:0.0737964 3:0.452178 4:0.00497226 5:0.0835415 6:0.350724 7:0.571829 
1 1:0.498785 2:0.0843384 3:0.478468 4:0.00297344 5:0.0515965 6:0.355062 7:0.652176 
1 1:0.734257 2:0.240132 3:0.0701052 4:0.00706611 5:0.114901 6:0.63269 7:0.425148 
1 1:0.734257 2:0.257702 3:0.0525796 4:0.00502888 5:0.0844181 6:0.497731 7:0.464736 
1 1:0.375429 2:0.0371668 3:0.658039 4:0.0021999 5:0.0386639 6:0.240658 7:0.684187 
1 1:0.651325 2:0.235556 3:0.163762 4:0.00892405 5:0.141085 6:0.567169 7:0.591388 
1 1:0.598303 2:0.152279 3:0.303789 4:0.0116493 5:0.176962 6:0.469969 7:0.415669 
1 1:0.558713 2:0.243646 3:0.255184 4:0.0330973 5:0.384399 6:0.459943 7:0.29192 
1 1:0.863414 2:0.125191 3:0.0460068 4:0.00881883 5:0.13964 6:0.551353 7:0.370796 
1 1:0.747173 2:0.250381 3:0.0460068 4:0.0139445 5:0.20507 6:0.529663 7:0.369044 
1 1:0.845433 2:0.14301 3:0.0475502 4:0.00800867 5:0.128369 6:0.679087 7:0.442605 
1 1:0.856498 2:0.113216 3:0.0653806 4:0.0148736 5:0.215945 6:0.644761 7:0.408782 
1 1:0.533339 2:0.423911 3:0.102631 4:0.00348108 5:0.059906 6:0.345057 7:0.566564 
1 1:0.422518 2:0.563842 3:0.0821052 4:0.00913732 5:0.143997 6:0.355218 7:0.580828 
1 1:0.653802 2:0.134489 3:0.261912 4:0.00894868 5:0.141422 6:0.560526 7:0.591718 
1 1:0.178973 2:0.0509048 3:0.855384 4:0.00167129 5:0.0296338 6:0.13519 7:0.887482 
1 1:0.178973 2:0.0939772 3:0.81242 4:0.00562834 5:0.0935898 6:0.189972 7:0.6148 
1 1:0.701198 2:0.0882005 3:0.257168 4:0.0104371 5:0.161356 6:0.502552 7:0.387242 
1 1:0.682298 2:0.0882005 3:0.277471 4:0.00248459 5:0.0434622 6:0.496969 7:0.460502 
1 1:0.754197 2:0.13666 3:0.151895 4:0.0065175 5:0.106881 6:0.68089 7:0.593199 
1 1:0.319142 2:0.613019 3:0.144105 4:0.0054052 5:0.0901954 6:0.269588 7:0.456638 
1 1:0.121598 2:0.349032 3:0.619645 4:0.00443917 5:0.0752224 6:0.154706 7:0.998068 
1 1:0.344589 2:0.281786 3:0.447167 4:0.00850618 5:0.135323 6:0.39978 7:0.635 
1 1:0.491382 2:0.560663 3:0.0112973 4:0.0103049 5:0.159621 6:0.367394 7:0.522522 
1 1:0.444057 2:0.509694 3:0.11298 4:0.00510692 5:0.085622 6:0.372056 7:0.501792 
1 1:0.711632 2:0.287703 3:0.0469596 4:0.027759 5:0.342468 6:0.562819 7:0.521621 
1 1:0.701919 2:0.282471 3:0.0626137 4:0.0310306 5:0.368762 6:0.584343 7:0.753303 
1 1:0.392124 2:0.0933467 3:0.584066 4:0.00307597 5:0.0532866 6:0.322722 7:0.433576 
1 1:0.415762 2:0.0806188 3:0.571369 4:0.0220681 5:0.29161 6:0.24241 7:0.576163 
1 1:0.530014 2:0.042431 3:0.486721 4:0.00595369 5:0.0984962 6:0.259869 7:0.472183 
1 1:0.541833 2:0.190938 3:0.325892 4:0.00737876 5:0.119412 6:0.448428 7:0.732253 
1 1:0.64262 2:0.168756 3:0.239744 4:0.00632366 5:0.104015 6:0.494135 7:0.488759 
1 1:0.172969 2:0.881308 3:0.0335242 4:0.00194964 5:0.0344092 6:0.162963 7:0.678001 
1 1:0.784345 2:0.0721326 3:0.183873 4:0.00771423 5:0.124203 6:0.459679 7:0.759689 
1 1:0.784345 2:0.0721326 3:0.183873 4:0.0332734 5:0.385698 6:0.400319 7:0.573661 
1 1:0.871288 2:0.140217 3:0.0225591 4:0.00638246 5:0.104887 6:0.694252 7:0.996647 
1 1:0.896487 2:0.0723697 3:0.0631646 4:0.0053339 5:0.0891063 6:0.210349 7:0.595452 
1 1:0.528292 2:0.153017 3:0.378262 4:0.00555351 5:0.0924548 6:0.436851 7:0.620295 
1 1:0.491228 2:0.133059 3:0.437987 4:0.0133074 5:0.197449 6:0.310924 7:0.838305 
1 1:0.668621 2:0.322473 3:0.0584839 4:0.00842725 5:0.134227 6:0.421128 7:0.703065 
1 1:0.838746 2:0.124592 3:0.0731045 4:0.00614393 5:0.101342 6:0.644288 7:0.407661 
1 1:0.737759 2:0.0813548 3:0.224721 4:0.00363145 5:0.0623415 6:0.469077 7:0.529889 
1 1:0.650599 2:0.162708 3:0.237205 4:0.0147711 5:0.21476 6:0.469077 7:0.529889 
1 1:0.892288 2:0.0452309 3:0.0947463 4:0.0029955 5:0.0519602 6:0.232683 7:0.935458 
1 1:0.531106 2:0.135694 3:0.39252 4:0.0143713 5:0.2101 6:0.478357 7:0.617953 
1 1:0.60926 2:0.177003 3:0.267357 4:0.00617766 5:0.101846 6:0.438042 7:0.434207 
1 1:0.411236 2:0.015399 3:0.641286 4:0.0167799 5:0.23741 6:0.375825 7:0.430173 
1 1:0.33617 2:0.0692957 3:0.668166 4:0.00850407 5:0.135294 6:0.239595 7:0.241742 
1 1:0.791493 2:0.217111 3:0.0315816 4:0.0125342 5:0.188016 6:0.504413 7:0.278457 
1 1:0.871288 2:0.15831 3:0.00451127 4:0.00832626 5:0.13282 6:0.604916 7:0.528467 
1 1:0.749084 2:0.0428284 3:0.250983 4:0.00869264 5:0.137903 6:0.365974 7:0.557515 
1 1:0.65464 2:0.299799 3:0.0961202 4:0.0117233 5:0.177898 6:0.52458 7:0.546304 
1 1:0.598303 2:0.291233 3:0.165185 4:0.0122554 5:0.184564 6:0.493153 7:0.401235 
1 1:0.593907 2:0.255638 3:0.205412 4:0.0144216 5:0.21069 6:0.493786 7:0.714636 
1 1:0.587314 2:0.362156 3:0.106247 4:0.00404887 5:0.0690394 6:0.347689 7:0.921755 
1 1:0.573642 2:0.228419 3:0.254336 4:0.00262399 5:0.0457953 6:0.415121 7:0.464116 
1 1:0.499656 2:0.297474 3:0.264932 4:0.00521579 5:0.0872967 6:0.402006 7:0.681534 
1 1:0.90441 2:0.0635806 3:0.0634203 4:0.00599716 5:0.0991479 6:0.831028 7:0.529678 
1 1:0.884733 2:0.113031 3:0.035233 4:0.0126425 5:0.18935 6:0.174076 7:0.662406 
1 1:0.979586 2:0.015399 3:0.0307204 4:0.00844623 5:0.13449 6:0.373714 7:0.786155 
1 1:0.649497 2:0.230387 3:0.170882 4:0.00681046 5:0.111181 6:0.560889 7:0.389023 
1 1:0.726287 2:0.0708882 3:0.247483 4:0.0275818 5:0.340985 6:0.541444 7:0.409383 
1 1:0.623856 2:0.055041 3:0.373331 4:0.0197917 5:0.269181 6:0.491228 7:0.376832 
1 1:0.390572 2:0.553836 3:0.126406 4:0.00787235 5:0.126444 6:0.170372 7:0.809187 
1 1:0.355707 2:0.244063 3:0.47285 4:0.0315186 5:0.372519 6:0.37895 7:0.369044 
1 1:0.802098 2:0.145473 3:0.0916458 4:0.00952448 5:0.149238 6:0.663225 7:0.648593 
1 1:0.638588 2:0.306259 3:0.10692 4:0.00729438 5:0.118199 6:0.35448 7:0.550518 
1 1:0.805524 2:0.148285 3:0.0851605 4:0.00979 5:0.152797 6:0.197473 7:0.855061 
1 1:0.560765 2:0.173841 3:0.322608 4:0.00554101 5:0.0922643 6:0.524177 7:0.997277 
1 1:0.532635 2:0.309654 3:0.217356 4:0.0138998 5:0.20454 6:0.533226 7:0.445448 
1 1:0.607177 2:0.200703 3:0.245955 4:0.0326403 5:0.381002 6:0.471877 7:0.660654 
1 1:0.581459 2:0.286965 3:0.187538 4:0.0150608 5:0.218102 6:0.374293 7:0.392006 
1 1:0.654961 2:0.267175 3:0.128316 4:0.00557025 5:0.0927093 6:0.280643 7:0.611177 
1 1:0.873383 2:0.134437 3:0.0260752 4:0.0108838 5:0.167171 6:0.627016 7:0.439842 
1 1:0.387947 2:0.567622 3:0.115474 4:0.00844033 5:0.134409 6:0.359648 7:0.439842 
1 1:0.837299 2:0.184098 3:0.0153028 4:0.0106377 5:0.163977 6:0.658265 7:0.327735 
1 1:0.746453 2:0.25697 3:0.0402077 4:0.00434183 5:0.0736875 6:0.378155 7:0.536115 
1 1:0.718382 2:0.206584 3:0.120622 4:0.00542066 5:0.0904317 6:0.411328 7:0.340337 
1 1:0.743667 2:0.215585 3:0.0844811 4:0.00410074 5:0.0698662 6:0.458197 7:0.596743 
1 1:0.707922 2:0.192487 3:0.145922 4:0.0149367 5:0.216674 6:0.356817 7:0.721282 
1 1:0.341823 2:0.119521 3:0.611994 4:0.00306924 5:0.0531746 6:0.404192 7:0.866522 
1 1:0.782032 2:0.175298 3:0.0834544 4:0.00631616 5:0.103904 6:0.243536 7:0.444427 
1 1:0.579616 2:0.416587 3:0.0602227 4:0.00790506 5:0.126907 6:0.450381 7:0.428321 
1 1:0.644322 2:0.174545 3:0.23214 4:0.0249009 5:0.317798 6:0.42275 7:0.401776 
1 1:0.578294 2:0.407274 3:0.0709322 4:0.013291 5:0.197251 6:0.42275 7:0.527937 
1 1:0.28017 2:0.258212 3:0.539887 4:0.00667158 5:0.109147 6:0.183807 7:0.990721 
1 1:0.318927 2:0.23647 3:0.519936 4:0.00292067 5:0.0507247 6:0.325734 7:0.453465 
1 1:0.307123 2:0.162731 3:0.60617 4:0.0238599 5:0.308385 6:0.120668 7:0.998859 
1 1:0.33727 2:0.667683 3:0.0701052 4:0.00365164 5:0.0626678 6:0.285654 7:0.392397 
1 1:0.789999 2:0.0702824 3:0.179644 4:0.00733939 5:0.118845 6:0.64715 7:0.722343 
1 1:0.426655 2:0.171314 3:0.4692 4:0.00562873 5:0.0935955 6:0.337674 7:0.528397 
1 1:0.334989 2:0.26423 3:0.474993 4:0.0232227 5:0.302504 6:0.294661 7:0.98994 
1 1:0.369657 2:0.173224 3:0.528526 4:0.0187991 5:0.258987 6:0.336936 7:0.330928 
1 1:0.374387 2:0.132465 3:0.564099 4:0.00877664 5:0.13906 6:0.408214 7:0.327715 
1 1:0.822581 2:0.147028 3:0.0680901 4:0.00385676 5:0.0659675 6:0.340502 7:0.652236 
1 1:0.783576 2:0.189036 3:0.0680901 4:0.00765383 5:0.123343 6:0.539283 7:0.578305 
1 1:0.749121 2:0.167506 3:0.126579 4:0.00701161 5:0.11411 6:0.527615 7:0.351087 
1 1:0.668999 2:0.137051 3:0.243032 4:0.00460697 5:0.0778561 6:0.448247 7:0.498128 
1 1:0.498725 2:0.250703 3:0.312589 4:0.0130806 5:0.194704 6:0.296235 7:0.751261 
1 1:0.487085 2:0.484693 3:0.0916923 4:0.00778137 5:0.125157 6:0.454411 7:0.700402 
1 1:0.414285 2:0.357743 3:0.29653 4:0.0108303 5:0.16648 6:0.378155 7:0.494625 
1 1:0.535924 2:0.0957342 3:0.427204 4:0.00547695 5:0.0912901 6:0.440353 7:0.511151 
1 1:0.397782 2:0.0415305 3:0.629672 4:0.00326436 5:0.0563757 6:0.266725 7:0.384809 
1 1:0.77183 2:0.193809 3:0.0759479 4:0.00860108 5:0.136638 6:0.491159 7:0.460042 
1 1:0.739696 2:0.124592 3:0.179512 4:0.00729745 5:0.118243 6:0.542426 7:0.686649 
1 1:0.676549 2:0.24616 3:0.126087 4:0.0128138 5:0.191451 6:0.579203 7:0.755445 
1 1:0.730975 2:0.138863 3:0.174645 4:0.0104249 5:0.161196 6:0.460319 7:0.550508 
1 1:0.759005 2:0.175087 3:0.1084 4:0.011931 5:0.180511 6:0.584533 7:0.411445 
1 1:0.585047 2:0.0489464 3:0.421101 4:0.00511782 5:0.0857885 6:0.401849 7:0.637862 
1 1:0.545281 2:0.0978941 3:0.414997 4:0.0102229 5:0.158541 6:0.416955 7:0.560378 
1 1:0.420376 2:0.413911 3:0.233959 4:0.0239965 5:0.309634 6:0.389009 7:0.422856 
1 1:0.565565 2:0.28054 3:0.211021 4:0.00703232 5:0.114412 6:0.347376 7:0.457039 
1 1:0.640721 2:0.260046 3:0.150726 4:0.0037182 5:0.0637416 6:0.540147 7:0.706909 
1 1:0.311167 2:0.667683 3:0.0981475 4:0.00402309 5:0.0686289 6:0.248059 7:0.394208 
1 1:0.253042 2:0.737616 3:0.0908338 4:0.0173091 5:0.243178 6:0.227143 7:0.632437 
1 1:0.320685 2:0.605573 3:0.149877 4:0.0217384 5:0.28844 6:0.410749 7:0.304092 
1 1:0.760203 2:0.240624 3:0.0417416 4:0.0147036 5:0.213976 6:0.524076 7:0.573821 
1 1:0.61935 2:0.371397 3:0.0626137 4:0.00722955 5:0.117264 6:0.442284 7:0.417681 
1 1:0.438711 2:0.44779 3:0.180469 4:0.00410542 5:0.0699409 6:0.303407 7:0.515315 
1 1:0.766294 2:0.0904632 3:0.184981 4:0.0108567 5:0.16682 6:0.601194 7:0.838885 
1 1:0.718424 2:0.266824 3:0.0604893 4:0.0067523 5:0.11033 6:0.487581 7:0.608354 
1 1:0.825407 2:0.145541 3:0.0665385 4:0.0102834 5:0.159338 6:0.587391 7:0.585452 
1 1:0.536513 2:0.45324 3:0.0699671 4:0.00691594 5:0.112719 6:0.475909 7:0.54195 
1 1:0.471383 2:0.442448 3:0.150698 4:0.0104319 5:0.161288 6:0.382661 7:0.977298 
1 1:0.603293 2:0.386967 3:0.0643321 4:0.00971087 5:0.15174 6:0.442841 7:0.996276 
1 1:0.685633 2:0.298287 3:0.0643321 4:0.0118146 5:0.179048 6:0.668414 7:0.998999 
1 1:0.785228 2:0.195123 3:0.0602433 4:0.00729951 5:0.118272 6:0.69945 7:0.994475 
1 1:0.616995 2:0.0882704 3:0.347555 4:0.00233654 5:0.0409731 6:0.175662 7:0.619355 
1 1:0.884796 2:0.107844 3:0.040339 4:0.00486416 5:0.0818658 6:0.511797 7:0.451714 
1 1:0.908677 2:0.0835681 3:0.0388995 4:0.00600043 5:0.0991967 6:0.585079 7:0.295804 
1 1:0.748317 2:0.256274 3:0.0388995 4:0.00625672 5:0.103022 6:0.410855 7:0.995906 
1 1:0.68121 2:0.118363 3:0.248555 4:0.00930486 5:0.146272 6:0.569198 7:0.351207 
1 1:0.480883 2:0.441028 3:0.141908 4:0.0159703 5:0.22843 6:0.313274 7:0.579616 
1 1:0.458867 2:0.459998 3:0.146638 4:0.00456292 5:0.0771661 6:0.328884 7:0.988459 
1 1:0.675858 2:0.214781 3:0.15813 4:0.00841096 5:0.134 6:0.515177 7:0.766596 
1 1:0.599885 2:0.286375 3:0.168331 4:0.011055 5:0.16938 6:0.456259 7:0.990761 
1 1:0.675426 2:0.0778696 3:0.295159 4:0.00995119 5:0.154945 6:0.412836 7:0.681785 
1 1:0.697117 2:0.0778696 3:0.271857 4:0.013906 5:0.204614 6:0.380793 7:0.811929 
1 1:0.419091 2:0.162461 3:0.486155 4:0.00509871 5:0.0854947 6:0.298576 7:0.773593 
1 1:0.40362 2:0.145799 3:0.519396 4:0.00925581 5:0.145607 6:0.319145 7:0.975056 
1 1:0.579309 2:0.354559 3:0.122422 4:0.00547388 5:0.0912433 6:0.359464 7:0.746166 
1 1:0.892288 2:0.0949859 3:0.0451168 4:0.0104215 5:0.161152 6:0.828255 7:0.534853 
1 1:0.904887 2:0.0814164 3:0.0451168 4:0.0120762 5:0.18233 6:0.724031 7:0.998328 
1 1:0.797376 2:0.202854 3:0.0394818 4:0.00482729 5:0.0812935 6:0.305074 7:0.826133 
1 1:0.875474 2:0.0940059 3:0.0641571 4:0.008573 5:0.136249 6:0.6756 7:0.734735 
1 1:0.496641 2:0.24352 3:0.321991 4:0.00689831 5:0.112462 6:0.404679 7:0.369495 
1 1:0.52819 2:0.164235 3:0.367183 4:0.0396545 5:0.429629 6:0.339431 7:0.423727 
1 1:0.815324 2:0.143425 3:0.0794804 4:0.0212986 5:0.284172 6:0.535339 7:0.407521 
1 1:0.748738 2:0.183266 3:0.111271 4:0.0136418 5:0.201466 6:0.417307 7:0.487848 
1 1:0.576268 2:0.320378 3:0.159785 4:0.00322178 5:0.055679 6:0.353634 7:0.635961 
1 1:0.356388 2:0.101718 3:0.614106 4:0.00253781 5:0.0443541 6:0.321917 7:0.548206 
1 1:0.430951 2:0.465759 3:0.170882 4:0.00455856 5:0.0770981 6:0.388004 7:0.548206 
1 1:0.719065 2:0.180459 3:0.145949 4:0.00596561 5:0.0986752 6:0.504558 7:0.998408 
1 1:0.587736 2:0.165826 3:0.301628 4:0.00523964 5:0.0876622 6:0.35605 7:0.71884 
1 1:0.816366 2:0.207506 3:0.0144402 4:0.010569 5:0.163081 6:0.26427 7:0.453135 
1 1:0.426484 2:0.12722 3:0.513365 4:0.00655616 5:0.107451 6:0.357405 7:0.747488 
1 1:0.472059 2:0.413328 3:0.179018 4:0.0039423 5:0.0673379 6:0.413039 7:0.457049 
1 1:0.401363 2:0.261049 3:0.406861 4:0.00715992 5:0.11626 6:0.278769 7:0.907681 
1 1:0.46126 2:0.337356 3:0.2664 4:0.0087417 5:0.138578 6:0.545932 7:0.987388 
1 1:0.546096 2:0.435752 3:0.0771154 4:0.010596 5:0.163433 6:0.424469 7:0.790719 
1 1:0.788851 2:0.18202 3:0.0694203 4:0.0139331 5:0.204935 6:0.643535 7:0.774994 
1 1:0.729201 2:0.101718 3:0.213602 4:0.00472636 5:0.0797212 6:0.533392 7:0.750581 
1 1:0.435852 2:0.500576 3:0.130888 4:0.00511051 5:0.0856765 6:0.398564 7:0.484845 
1 1:0.318527 2:0.490856 3:0.266623 4:0.0165291 5:0.23465 6:0.206588 7:0.809317 
1 1:0.502133 2:0.166458 3:0.392958 4:0.00617311 5:0.101778 6:0.41351 7:0.558036 
1 1:0.332118 2:0.410598 3:0.332077 4:0.0306569 5:0.365857 6:0.472871 7:0.955988 
1 1:0.784755 2:0.0753026 3:0.18027 4:0.00537154 5:0.0896824 6:0.539734 7:0.847393 
1 1:0.819714 2:0.030121 3:0.187782 4:0.00529485 5:0.0885082 6:0.428187 7:0.915058 
1 1:0.75566 2:0.0810519 3:0.205793 4:0.0242213 5:0.31168 6:0.363085 7:0.544653 
1 1:0.728292 2:0.272628 3:0.0440984 4:0.0110566 5:0.169401 6:0.551062 7:0.700893 
1 1:0.90076 2:0.101298 3:0.0297183 4:0.00487435 5:0.0820247 6:0.566301 7:0.99983 
1 1:0.812236 2:0.0715049 3:0.154536 4:0.011073 5:0.169611 6:0.316209 7:0.525294 
1 1:0.471383 2:0.318346 3:0.274486 4:0.0159146 5:0.227804 6:0.515873 7:0.517897 
1 1:0.506453 2:0.107914 3:0.446714 4:0.0163578 5:0.232754 6:0.209484 7:0.516746 
1 1:0.67015 2:0.200889 3:0.178117 4:0.00804747 5:0.128915 6:0.618278 7:0.603139 
1 1:0.761341 2:0.133926 3:0.146947 4:0.012958 5:0.193213 6:0.294981 7:0.51078 
1 1:0.340469 2:0.412049 3:0.321659 4:0.00821033 5:0.1312 6:0.329317 7:0.564192 
1 1:0.311358 2:0.317994 3:0.446749 4:0.00909173 5:0.143376 6:0.222428 7:0.998729 
1 1:0.735608 2:0.182206 3:0.126433 4:0.0199375 5:0.270658 6:0.590565 7:0.41663 
1 1:0.801811 2:0.142596 3:0.0948242 4:0.00597632 5:0.0988359 6:0.473214 7:0.504865 
1 1:0.567092 2:0.137509 3:0.35205 4:0.00214354 5:0.0377088 6:0.353553 7:0.589025 
1 1:0.588372 2:0.2521 3:0.214888 4:0.0111412 5:0.170488 6:0.485577 7:0.472664 
1 1:0.641857 2:0.33039 3:0.0793382 4:0.00328282 5:0.0566771 6:0.427025 7:0.413857 
1 1:0.664581 2:0.312036 3:0.0732343 4:0.0159995 5:0.228756 6:0.492481 7:0.998449 
1 1:0.666919 2:0.282163 3:0.100518 4:0.0129089 5:0.192613 6:0.469379 7:0.815032 
1 1:0.676276 2:0.2217 3:0.150778 4:0.0135017 5:0.199788 6:0.535725 7:0.771931 
1 1:0.438367 2:0.314543 3:0.313749 4:0.00504953 5:0.0847358 6:0.314574 7:0.412026 
1 1:0.541557 2:0.453781 3:0.0640095 4:0.00303667 5:0.0526387 6:0.31206 7:0.63512 
1 1:0.571348 2:0.421695 3:0.0640095 4:0.00546746 5:0.0911447 6:0.43654 7:0.469361 
1 1:0.567692 2:0.108322 3:0.38052 4:0.00609026 5:0.100541 6:0.29132 7:0.784273 
1 1:0.567692 2:0.40032 3:0.0892576 4:0.00211962 5:0.0373031 6:0.469607 7:0.399974 
1 1:0.663425 2:0.0909881 3:0.294966 4:0.014096 5:0.206862 6:0.242816 7:0.672055 
1 1:0.858689 2:0.149263 3:0.0270704 4:0.0130654 5:0.19452 6:0.69053 7:0.636791 
1 1:0.519675 2:0.0869108 3:0.453461 4:0.00631885 5:0.103944 6:0.395267 7:0.323551 
1 1:0.494845 2:0.113652 3:0.453461 4:0.0106071 5:0.163578 6:0.40627 7:0.724816 
1 1:0.627862 2:0.152809 3:0.271505 4:0.00615483 5:0.101504 6:0.547745 7:0.734265 
1 1:0.583523 2:0.181461 3:0.290559 4:0.00352962 5:0.0606936 6:0.347323 7:0.960372 
1 1:0.704347 2:0.205576 3:0.136705 4:0.0121052 5:0.182692 6:0.344651 7:0.768077 
1 1:0.729798 2:0.191871 3:0.123035 4:0.00577197 5:0.0957621 6:0.446159 7:0.994925 
1 1:0.657563 2:0.226738 3:0.165856 4:0.00793718 5:0.127361 6:0.440353 7:0.893107 
1 1:0.699669 2:0.29224 3:0.055285 4:0.00628609 5:0.103458 6:0.461086 7:0.997267 
1 1:0.433097 2:0.365469 3:0.268613 4:0.00694107 5:0.113085 6:0.282915 7:0.582379 
1 1:0.571513 2:0.187543 3:0.297394 4:0.0164205 5:0.233449 6:0.524317 7:0.523753 
1 1:0.665278 2:0.250058 3:0.134307 4:0.00468462 5:0.0790695 6:0.42934 7:0.39576 
1 1:0.783093 2:0.149263 3:0.108281 4:0.00964214 5:0.150818 6:0.530469 7:0.472404 
1 1:0.505907 2:0.359589 3:0.196259 4:0.0121713 5:0.183516 6:0.357381 7:0.779058 
1 1:0.567659 2:0.302241 3:0.187125 4:0.00912154 5:0.143782 6:0.418927 7:0.487448 
1 1:0.548304 2:0.427307 3:0.0831674 4:0.00710657 5:0.115487 6:0.474677 7:0.394859 
1 1:0.612325 2:0.0169902 3:0.423673 4:0.0020564 5:0.0362284 6:0.269521 7:0.752172 
1 1:0.512416 2:0.209541 3:0.338939 4:0.00742749 5:0.120111 6:0.372056 7:0.996076 
1 1:0.659778 2:0.198625 3:0.19152 4:0.0163505 5:0.232671 6:0.390855 7:0.545554 
1 1:0.684368 2:0.1589 3:0.204727 4:0.00586199 5:0.0971182 6:0.456238 7:0.648763 
1 1:0.369406 2:0.217213 3:0.484917 4:0.0415228 5:0.441426 6:0.338692 7:0.281861 
1 1:0.441437 2:0.563719 3:0.0619042 4:0.00218772 5:0.0384572 6:0.287619 7:0.986827 
1 1:0.276183 2:0.334899 3:0.467675 4:0.00743974 5:0.120286 6:0.366869 7:0.387082 
1 1:0.38143 2:0.267919 3:0.421423 4:0.00250152 5:0.0437455 6:0.311748 7:0.560868 
1 1:0.393105 2:0.153378 3:0.523131 4:0.0305816 5:0.365268 6:0.292858 7:0.924888 
1 1:0.388511 2:0.0544243 3:0.626772 4:0.0328099 5:0.382267 6:0.227711 7:0.394148 
1 1:0.781138 2:0.236295 3:0.0235693 4:0.00799585 5:0.128188 6:0.256236 7:0.654638 
1 1:0.128444 2:0.11948 3:0.841263 4:0.00237334 5:0.0415923 6:0.184436 7:0.338715 
1 1:0.151285 2:0.0773104 3:0.858789 4:0.00572298 5:0.0950224 6:0.149732 7:0.657001 
1 1:0.616948 2:0.150605 3:0.285428 4:0.00458889 5:0.0775737 6:0.277392 7:0.776455 
1 1:0.626271 2:0.311251 3:0.115173 4:0.00817224 5:0.130666 6:0.426121 7:0.961283 
1 1:0.789294 2:0.086105 3:0.164619 4:0.00768609 5:0.123804 6:0.393308 7:0.8962 
1 1:0.822606 2:0.0287012 3:0.186091 4:0.00703822 5:0.114497 6:0.52322 7:0.6668 
1 1:0.685504 2:0.0334267 3:0.328664 4:0.00543637 5:0.0906719 6:0.390551 7:0.560298 
1 1:0.857875 2:0.136368 3:0.0408079 4:0.0137377 5:0.202612 6:0.60636 7:0.579026 
1 1:0.547655 2:0.368197 3:0.142827 4:0.00396974 5:0.0677771 6:0.292129 7:0.689652 
1 1:0.375429 2:0.44135 3:0.254875 4:0.00465852 5:0.0786628 6:0.254039 7:0.998799 
1 1:0.380822 2:0.545881 3:0.144815 4:0.00729425 5:0.118197 6:0.306609 7:0.580327 
1 1:0.620098 2:0.373775 3:0.0594367 4:0.0122493 5:0.184488 6:0.576108 7:0.497087 
1 1:0.486957 2:0.199865 3:0.375939 4:0.0114038 5:0.173846 6:0.483754 7:0.509099 
1 1:0.529374 2:0.0970773 3:0.4329 4:0.00886647 5:0.140294 6:0.26758 7:0.785995 
1 1:0.715318 2:0.283554 3:0.0471401 4:0.00961065 5:0.150396 6:0.327539 7:0.999279 
1 1:0.797593 2:0.218573 3:0.0235693 4:0.00772462 5:0.124351 6:0.614366 7:0.412916 
1 1:0.867648 2:0.151121 3:0.015594 4:0.00672787 5:0.109973 6:0.749138 7:0.732483 
1 1:0.916033 2:0.0521109 3:0.0623745 4:0.00970087 5:0.151606 6:0.684811 7:0.888353 
1 1:0.549466 2:0.0766402 3:0.4317 4:0.00287714 5:0.0500041 6:0.42093 7:0.384809 
1 1:0.45319 2:0.15328 3:0.458682 4:0.0297578 5:0.358765 6:0.257687 7:0.80191 
1 1:0.604173 2:0.384122 3:0.0662241 4:0.00339831 5:0.0585605 6:0.383521 7:0.454396 
1 1:0.696642 2:0.251339 3:0.0993355 4:0.0224183 5:0.294947 6:0.563043 7:0.724255 
1 1:0.285751 2:0.662714 3:0.13041 4:0.0129398 5:0.192989 6:0.142674 7:0.535164 
1 1:0.796369 2:0.135919 3:0.10733 4:0.00429836 5:0.0730003 6:0.553819 7:0.606432 
1 1:0.643875 2:0.31148 3:0.0960327 4:0.00250428 5:0.0437924 6:0.274183 7:0.635991 
1 1:0.701718 2:0.118929 3:0.225959 4:0.00588873 5:0.0975201 6:0.530515 7:0.798176 
1 1:0.479652 2:0.297103 3:0.286794 4:0.00762447 5:0.122926 6:0.281711 7:0.741061 
1 1:0.559742 2:0.177304 3:0.320254 4:0.00231538 5:0.0406152 6:0.364526 7:0.480701 
1 1:0.284588 2:0.751876 3:0.0427204 4:0.00422956 5:0.0719113 6:0.224502 7:0.641756 
1 1:0.762909 2:0.177279 3:0.102019 4:0.0169148 5:0.238889 6:0.656862 7:0.496126 
1 1:0.883198 2:0.0613659 3:0.0884168 4:0.0117199 5:0.177855 6:0.589526 7:0.999139 
1 1:0.697941 2:0.147169 3:0.201847 4:0.00601646 5:0.0994369 6:0.521476 7:0.970201 
1 1:0.469015 2:0.136112 3:0.458805 4:0.00351347 5:0.0604314 6:0.371225 7:0.496857 
1 1:0.381855 2:0.323853 3:0.365171 4:0.018443 5:0.255265 6:0.317149 7:0.400965 
1 1:0.55169 2:0.401614 3:0.105158 4:0.00333983 5:0.0576083 6:0.376544 7:0.693576 
1 1:0.47711 2:0.135545 3:0.450676 4:0.0158797 5:0.227413 6:0.397201 7:0.335922 
1 1:0.598303 2:0.391574 3:0.0650977 4:0.0141372 5:0.207349 6:0.319945 7:0.545273 
1 1:0.792213 2:0.20884 3:0.039058 4:0.00819026 5:0.130919 6:0.42736 7:0.601938 
1 1:0.681069 2:0.206134 3:0.161156 4:0.0140305 5:0.206089 6:0.5484 7:0.468159 
1 1:0.433229 2:0.276802 3:0.356915 4:0.00768185 5:0.123742 6:0.36643 7:0.982493 
1 1:0.483378 2:0.229544 3:0.350181 4:0.00410946 5:0.070005 6:0.305314 7:0.601067 
1 1:0.809315 2:0.222621 3:0.00693916 4:0.0108228 5:0.166381 6:0.637094 7:0.746967 
1 1:0.809315 2:0.194793 3:0.0346972 4:0.00758914 5:0.122423 6:0.631369 7:0.390965 
1 1:0.323425 2:0.063116 3:0.688022 4:0.0057317 5:0.0951544 6:0.253976 7:0.51013 
1 1:0.310866 2:0.644681 3:0.121416 4:0.0129516 5:0.193135 6:0.287368 7:0.514634 
1 1:0.542099 2:0.133625 3:0.382775 4:0.0168788 5:0.238496 6:0.0852418 7:0.99985 
1 1:0.573913 2:0.222708 3:0.25974 4:0.00760369 5:0.122629 6:0.550486 7:0.583951 
1 1:0.236083 2:0.331078 3:0.514564 4:0.0271707 5:0.337525 6:0.353649 7:0.609015 
1 1:0.446981 2:0.0269483 3:0.591365 4:0.00578518 5:0.0959612 6:0.176231 7:0.998208 
1 1:0.388208 2:0.0859254 3:0.595675 4:0.013932 5:0.204921 6:0.235612 7:0.99975 
1 1:0.850948 2:0.0988137 3:0.0857087 4:0.00755746 5:0.12197 6:0.36643 7:0.496056 
1 1:0.393416 2:0.589578 3:0.0876978 4:0.00601826 5:0.0994637 6:0.245058 7:0.530589 
1 1:0.369406 2:0.279274 3:0.423012 4:0.00532127 5:0.088913 6:0.274851 7:0.685108 
1 1:0.369017 2:0.279863 3:0.422842 4:0.0144687 5:0.21124 6:0.402635 7:0.361167 
1 1:0.476018 2:0.22636 3:0.361263 4:0.0333165 5:0.386015 6:0.294252 7:0.443556 
1 1:0.588393 2:0.224148 3:0.242747 4:0.00338824 5:0.0583968 6:0.318088 7:0.997087 
1 1:0.588393 2:0.371446 3:0.0958208 4:0.00789916 5:0.126824 6:0.381332 7:0.51084 
1 1:0.705585 2:0.239972 3:0.101066 4:0.00886987 5:0.140341 6:0.329203 7:0.846002 
1 1:0.814518 2:0.101322 3:0.122343 4:0.00604204 5:0.0998197 6:0.579352 7:0.98934 
1 1:0.731801 2:0.20175 3:0.111029 4:0.00652577 5:0.107004 6:0.562666 7:0.330717 
1 1:0.764098 2:0.173923 3:0.10409 4:0.0105806 5:0.163233 6:0.562666 7:0.673567 
1 1:0.943841 2:0.0846947 4:0.0149131 5:0.216401 6:0.654623 7:0.673817 
1 1:0.600685 2:0.423472 3:0.0307204 4:0.0204141 5:0.275444 6:0.420179 7:0.481052 
1 1:0.465381 2:0.58736 3:0.0126001 4:0.0042856 5:0.0727984 6:0.292052 7:0.959591 
1 1:0.465381 2:0.57473 3:0.0251989 4:0.00192232 5:0.0339422 6:0.307644 7:0.560358 
1 1:0.367389 2:0.214903 3:0.489388 4:0.00591913 5:0.0979775 6:0.165527 7:0.691554 
1 1:0.457747 2:0.0527125 3:0.5541 4:0.00315035 5:0.0545086 6:0.409119 7:0.52056 
1 1:0.845822 2:0.0870671 3:0.102931 4:0.0377268 5:0.416976 6:0.288921 7:0.4375 
1 1:0.607882 2:0.101684 3:0.343968 4:0.0105812 5:0.163241 6:0.466169 7:0.366542 
1 1:0.907986 2:0.0810327 3:0.0421708 4:0.0157692 5:0.226168 6:0.724355 7:0.58341 
1 1:0.448436 2:0.216169 3:0.401059 4:0.0439102 5:0.455871 6:0.497215 7:0.817375 
1 1:0.63598 2:0.274887 3:0.141014 4:0.0499942 5:0.489793 6:0.442765 7:0.254434 
1 1:0.220288 2:0.810486 3:0.0533342 4:0.00542437 5:0.0904882 6:0.283695 7:0.365171 
1 1:0.836957 2:0.0787974 3:0.120705 4:0.0151078 5:0.218642 6:0.211901 7:0.532021 
1 1:0.419702 2:0.0721326 3:0.575601 4:0.00289041 5:0.0502242 6:0.373936 7:0.50039 
1 1:0.317643 2:0.226701 3:0.53106 4:0.00591194 5:0.0978694 6:0.260866 7:0.501772 
1 1:0.476603 2:0.431385 3:0.156126 4:0.0217037 5:0.288106 6:0.453856 7:0.279809 
1 1:0.529772 2:0.366486 3:0.163741 4:0.0209193 5:0.280453 6:0.318763 7:0.540509 
1 1:0.527796 2:0.462961 3:0.0696349 4:0.0116492 5:0.17696 6:0.482898 7:0.274514 
1 1:0.531208 2:0.496028 3:0.0329856 4:0.0104266 5:0.161219 6:0.552444 7:0.99984 
1 1:0.736953 2:0.227785 3:0.0795242 4:0.00865161 5:0.137336 6:0.554102 7:0.8751 
1 1:0.538744 2:0.389563 3:0.131087 4:0.0152778 5:0.22059 6:0.475513 7:0.264734 
1 1:0.714254 2:0.227628 3:0.104067 4:0.0199626 5:0.270911 6:0.602069 7:0.419553 
1 1:0.801588 2:0.144808 3:0.092857 4:0.0102842 5:0.159348 6:0.4834 7:0.565163 
1 1:0.762543 2:0.146243 3:0.133371 4:0.0374784 5:0.415307 6:0.519745 7:0.547836 
1 1:0.719866 2:0.221454 3:0.104197 4:0.0190758 5:0.261856 6:0.591955 7:0.669182 
1 1:0.693293 2:0.322784 3:0.0316691 4:0.0169643 5:0.23943 6:0.622306 7:0.719951 
1 1:0.751577 2:0.095974 3:0.195293 4:0.0147912 5:0.214991 6:0.365123 7:0.264244 
1 1:0.746899 2:0.248787 3:0.0478906 4:0.0132041 5:0.196201 6:0.610309 7:0.481102 
1 1:0.652913 2:0.135409 3:0.26195 4:0.035912 5:0.404588 6:0.455276 7:0.295223 
1 1:0.603383 2:0.270819 3:0.180091 4:0.0207739 5:0.279018 6:0.593726 7:0.51074 
1 1:0.362225 2:0.223907 3:0.485954 4:0.00934462 5:0.14681 6:0.436743 7:0.713004 
1 1:0.508441 2:0.105802 3:0.446684 4:0.00587892 5:0.0973737 6:0.414469 7:0.310308 
1 1:0.563163 2:0.190573 3:0.303339 4:0.00543168 5:0.0906002 6:0.399109 7:0.620015 
1 1:0.762645 2:0.132746 3:0.146726 4:0.0173953 5:0.244109 6:0.679703 7:0.850326 
1 1:0.606076 2:0.301368 3:0.146726 4:0.0115823 5:0.176114 6:0.55865 7:0.685148 
1 1:0.430263 2:0.558745 3:0.078868 4:0.0138745 5:0.20424 6:0.584973 7:0.727739 
1 1:0.750816 2:0.230984 3:0.0614408 4:0.0161424 5:0.230357 6:0.451861 7:0.297546 
1 1:0.437204 2:0.176686 3:0.452508 4:0.0236763 5:0.3067 6:0.42592 7:0.71896 
1 1:0.693308 2:0.168611 3:0.185437 4:0.0133739 5:0.198251 6:0.443846 7:0.297416 
1 1:0.754579 2:0.0998745 3:0.188177 4:0.00603781 5:0.0997565 6:0.354148 7:0.51004 
1 1:0.71807 2:0.182734 3:0.144746 4:0.0193136 5:0.264304 6:0.42515 7:0.310678 
1 1:0.57227 2:0.286965 3:0.197408 4:0.00766762 5:0.12354 6:0.553448 7:0.543432 
1 1:0.503287 2:0.4678 3:0.0911373 4:0.0108897 5:0.167247 6:0.344651 7:0.696529 
1 1:0.758884 2:0.254523 3:0.0292946 4:0.0150378 5:0.217837 6:0.583114 7:0.408582 
1 1:0.782791 2:0.197129 3:0.0608625 4:0.00946869 5:0.148486 6:0.518002 7:0.423457 
1 1:0.752285 2:0.234676 3:0.0561804 4:0.0110791 5:0.16969 6:0.521864 7:0.429292 
1 1:0.51827 2:0.232727 3:0.309521 4:0.00395609 5:0.067559 6:0.459991 7:0.510981 
1 1:0.386214 2:0.272035 3:0.412177 4:0.0320126 5:0.376281 6:0.352359 7:0.428081 
1 1:0.325464 2:0.337462 3:0.412177 4:0.00798745 5:0.12807 6:0.335356 7:0.579486 
1 1:0.765709 2:0.117936 3:0.158205 4:0.0114628 5:0.174597 6:0.564467 7:0.459631 
1 1:0.688129 2:0.112866 3:0.246605 4:0.0269535 5:0.335683 6:0.460533 7:0.309958 
1 1:0.580836 2:0.137051 3:0.337743 4:0.0107294 5:0.16517 6:0.479331 7:0.228069 
1 1:0.543766 2:0.15663 3:0.358038 4:0.00866225 5:0.137483 6:0.373653 7:0.366131 
1 1:0.72161 2:0.233731 3:0.0900764 4:0.00850157 5:0.13526 6:0.415121 7:0.329817 
1 1:0.761069 2:0.196546 3:0.0847791 4:0.0137503 5:0.202761 6:0.550639 7:0.622698 
1 1:0.69619 2:0.219632 3:0.131448 4:0.0152942 5:0.220777 6:0.574851 7:0.415409 
1 1:0.668999 2:0.23567 3:0.144661 4:0.0120976 5:0.182597 6:0.439892 7:0.365421 
0.8221687347718581 1:0.699298 2:0.199413 3:0.148279 4:0.00732996 5:0.11871 6:0.630854 7:0.331108 
1 1:0.780745 2:0.108069 3:0.151895 4:0.00507793 5:0.0851741 6:0.225638 7:0.841638 
1 1:0.710505 2:0.167998 3:0.167575 4:0.0250914 5:0.319494 6:0.648082 7:0.809537 
1 1:0.636615 2:0.194523 3:0.220492 4:0.047025 5:0.473729 6:0.491637 7:0.456208 
1 1:0.810391 2:0.176072 3:0.0522132 4:0.00960899 5:0.150373 6:0.698362 7:0.411755 
1 1:0.854577 2:0.152279 3:0.0284798 4:0.00891001 5:0.140892 6:0.545629 7:0.685748 
1 1:0.737331 2:0.082506 3:0.224033 4:0.0617338 5:0.545504 6:0.485577 7:0.43783 
1 1:0.69179 2:0.315577 3:0.0404716 4:0.0241511 5:0.311042 6:0.624985 7:0.567655 
1 1:0.711214 2:0.187336 3:0.147524 4:0.0407859 5:0.436826 6:0.284822 7:0.707369 
1 1:0.832292 2:0.0558633 3:0.148593 4:0.0230269 5:0.300678 6:0.453514 7:0.361817 
1 1:0.584396 2:0.274102 3:0.197214 4:0.00609514 5:0.100614 6:0.389765 7:0.674107 
1 1:0.797406 2:0.0559387 3:0.185993 4:0.0141085 5:0.20701 6:0.506388 7:0.560548 
1 1:0.501443 2:0.165468 3:0.394687 4:0.0336331 5:0.388338 6:0.453707 7:0.879855 
1 1:0.693185 2:0.144264 3:0.209855 4:0.0194942 5:0.266154 6:0.59654 7:0.852268 
1 1:0.70528 2:0.277317 3:0.0641435 4:0.0160128 5:0.228906 6:0.586894 7:0.817335 
1 1:0.838709 2:0.186718 3:0.0111743 4:0.0131846 5:0.195966 6:0.202914 7:0.639564 
1 1:0.53191 2:0.488617 3:0.0396254 4:0.00623402 5:0.102684 6:0.497648 7:0.328515 
1 1:0.542975 2:0.0516421 3:0.463608 4:0.013194 5:0.196079 6:0.406111 7:0.315123 
1 1:0.51435 2:0.057105 3:0.488911 4:0.0471851 5:0.474618 6:0.334155 7:0.580007 
1 1:0.571051 2:0.0765648 3:0.408589 4:0.0289153 5:0.351987 6:0.376533 7:0.636651 
1 1:0.603042 2:0.0153127 3:0.435319 4:0.0519062 5:0.499677 6:0.404888 7:0.518197 
1 1:0.479424 2:0.0523767 3:0.531148 4:0.0115555 5:0.175774 6:0.419938 7:0.702725 
1 1:0.47132 2:0.0436466 3:0.548562 4:0.0174311 5:0.244495 6:0.326547 7:0.578986 
1 1:0.705433 2:0.271295 3:0.0699862 4:0.0188394 5:0.259406 6:0.535271 7:0.417811 
1 1:0.717421 2:0.25658 3:0.0717853 4:0.0145573 5:0.212274 6:0.335174 7:0.427811 
1 1:0.732583 2:0.186519 3:0.125381 4:0.0132459 5:0.196706 6:0.519236 7:0.304823 
1 1:0.575516 2:0.328468 3:0.152522 4:0.0201316 5:0.272614 6:0.558479 7:0.800709 
1 1:0.858111 2:0.102788 3:0.0740491 4:0.016985 5:0.239656 6:0.413262 7:0.320047 
1 1:0.595618 2:0.169145 3:0.289849 4:0.0166478 5:0.235959 6:0.488275 7:0.262162 
1 1:0.720639 2:0.214257 3:0.110544 4:0.0112339 5:0.171675 6:0.494951 7:0.275144 
1 1:0.315102 2:0.2217 3:0.53878 4:0.00683258 5:0.111504 6:0.379813 7:0.498439 
1 1:0.318845 2:0.644945 3:0.112581 4:0.015142 5:0.219035 6:0.273662 7:0.741812 
1 1:0.861039 2:0.0920489 3:0.0816144 4:0.00836852 5:0.133409 6:0.540428 7:0.599536 
1 1:0.790541 2:0.0810149 3:0.168357 4:0.0043553 5:0.0738999 6:0.627561 7:0.494505 
1 1:0.596743 2:0.131004 3:0.326686 4:0.00200452 5:0.0353451 6:0.369862 7:0.572279 
1 1:0.447033 2:0.317435 3:0.301555 4:0.00836467 5:0.133355 6:0.498406 7:0.768167 
1 1:0.924593 2:0.0685254 3:0.0368051 4:0.00853273 5:0.135691 6:0.814884 7:0.492733 
1 1:0.911825 2:0.0350508 3:0.083911 4:0.00619023 5:0.102032 6:0.241498 7:0.637732 
1 1:0.876025 2:0.087629 3:0.0699261 4:0.00598645 5:0.0989881 6:0.809759 7:0.654969 
1 1:0.642241 2:0.343992 3:0.0653574 4:0.0115199 5:0.175323 6:0.558721 7:0.267176 
1 1:0.642241 2:0.202027 3:0.206963 4:0.0077983 5:0.125396 6:0.473345 7:0.448991 
1 1:0.845998 2:0.0750285 3:0.114753 4:0.0048648 5:0.0818763 6:0.123853 7:0.833981 
1 1:0.315908 2:0.74583 3:0.0151059 4:0.00781913 5:0.125692 6:0.318729 7:0.347534 
1 1:0.337 2:0.677682 3:0.0604223 4:0.014019 5:0.205953 6:0.271994 7:0.34337 
1 1:0.264651 2:0.771607 3:0.0444565 4:0.00560507 5:0.0932376 6:0.330621 7:0.345542 
1 1:0.231027 2:0.805034 3:0.0472358 4:0.0146429 5:0.213271 6:0.216001 7:0.51052 
1 1:0.665278 2:0.192352 3:0.191867 4:0.0154383 5:0.222421 6:0.502552 7:0.584421 
1 1:0.827135 2:0.0781437 3:0.131908 4:0.00641856 5:0.105421 6:0.561914 7:0.483484 
1 1:0.685504 2:0.281742 3:0.0809746 4:0.0101357 5:0.157391 6:0.598833 7:0.421214 
1 1:0.796351 2:0.100282 3:0.142898 4:0.011018 5:0.168903 6:0.594904 7:0.728499 
1 1:0.793608 2:0.0788783 3:0.167193 4:0.0103426 5:0.160117 6:0.384896 7:0.581929 
1 1:0.793608 2:0.128177 3:0.118019 4:0.00949306 5:0.148815 6:0.547179 7:0.701964 
1 1:0.803263 2:0.0691011 3:0.166574 4:0.00854382 5:0.135844 6:0.583114 7:0.647792 
1 1:0.748692 2:0.195193 3:0.0994216 4:0.0176412 5:0.246755 6:0.618756 7:0.34421 
1 1:0.640721 2:0.240878 3:0.169845 4:0.00290926 5:0.0505362 6:0.437614 7:0.557355 
1 1:0.615499 2:0.154337 3:0.283263 4:0.012388 5:0.186209 6:0.446666 7:0.498989 
1 1:0.72441 2:0.234591 3:0.0862104 4:0.00871182 5:0.138167 6:0.558438 7:0.644819 
1 1:0.388273 2:0.612072 3:0.070786 4:0.00624774 5:0.102888 6:0.347425 7:0.999419 
1 1:0.46652 2:0.119754 3:0.477805 4:0.00808254 5:0.129408 6:0.372975 7:0.69802 
1 1:0.606367 2:0.213654 3:0.233907 4:0.00471181 5:0.0794944 6:0.470388 7:0.826724 
1 1:0.572497 2:0.422096 3:0.0623745 4:0.0173937 5:0.244092 6:0.590465 7:0.752552 
1 1:0.595763 2:0.229786 3:0.229207 4:0.00686823 5:0.112024 6:0.519436 7:0.316214 
1 1:0.504323 2:0.336472 3:0.221021 4:0.00552722 5:0.0920548 6:0.465407 7:0.392737 
1 1:0.562411 2:0.0702824 3:0.424136 4:0.0194392 5:0.265592 6:0.395549 7:0.373408 
1 1:0.497152 2:0.151107 3:0.413621 4:0.0484471 5:0.481534 6:0.42736 7:0.564912 
1 1:0.764351 2:0.190213 3:0.0875693 4:0.00322755 5:0.0557737 6:0.275774 7:0.837234 
1 1:0.777937 2:0.199967 3:0.0632439 4:0.00623261 5:0.102663 6:0.576806 7:0.994485 
1 1:0.506966 2:0.19007 3:0.364214 4:0.00405054 5:0.0690662 6:0.354365 7:0.826183 
1 1:0.562696 2:0.0700261 3:0.424086 4:0.0288222 5:0.35123 6:0.379063 7:0.598014 
1 1:0.295868 2:0.264992 3:0.516259 4:0.00606269 5:0.100129 6:0.405439 7:0.441834 
1 1:0.415048 2:0.111794 3:0.541038 4:0.00852651 5:0.135604 6:0.33729 7:0.39635 
1 1:0.369712 2:0.205379 3:0.496393 4:0.028342 5:0.347299 6:0.266902 7:0.387672 
1 1:0.483396 2:0.533195 3:0.0472754 4:0.00342062 5:0.0589241 6:0.318908 7:0.445267 
1 1:0.625543 2:0.176028 3:0.250835 4:0.0363113 5:0.407354 6:0.461163 7:0.462254 
1 1:0.689754 2:0.257756 3:0.100333 4:0.00594324 5:0.0983393 6:0.533594 7:0.998218 
1 1:0.805218 2:0.119382 3:0.114318 4:0.0074028 5:0.119756 6:0.449499 7:0.553321 
1 1:0.774181 2:0.0573037 3:0.209583 4:0.0196924 5:0.268174 6:0.496658 7:0.995015 
1 1:0.577094 2:0.394021 3:0.0854408 4:0.00373795 5:0.0640593 6:0.439109 7:0.327074 
1 1:0.585047 2:0.124202 3:0.346035 4:0.0140543 5:0.20637 6:0.439109 7:0.99999 
1 1:0.837823 2:0.0907907 3:0.107811 4:0.0225629 5:0.296316 6:0.418941 7:0.24984 
1 1:0.538278 2:0.38788 3:0.133266 4:0.0105913 5:0.163373 6:0.60186 7:0.518017 
1 1:0.590299 2:0.344782 3:0.120369 4:0.00664272 5:0.108724 6:0.445804 7:0.70843 
1 1:0.353861 2:0.166474 3:0.552228 4:0.0242506 5:0.311946 6:0.416528 7:0.570738 
1 1:0.296346 2:0.677511 3:0.104266 4:0.012426 5:0.18668 6:0.355993 7:0.580938 
1 1:0.666562 2:0.0630119 3:0.319502 4:0.00364023 5:0.0624831 6:0.504713 7:0.318856 
1 1:0.720974 2:0.23399 3:0.0905016 4:0.018998 5:0.261051 6:0.520236 7:0.623609 
1 1:0.772439 2:0.149073 3:0.119916 4:0.022364 5:0.294431 6:0.544105 7:0.383248 
1 1:0.85281 2:0.110603 3:0.0719507 4:0.00727931 5:0.117981 6:0.694486 7:0.998018 
1 1:0.635473 2:0.240193 3:0.176167 4:0.00618215 5:0.101912 6:0.490925 7:0.434597 
1 1:0.66827 2:0.204871 3:0.176167 4:0.00640182 5:0.105173 6:0.380464 7:0.982914 
1 1:0.571616 2:0.33582 3:0.149381 4:0.0113609 5:0.173299 6:0.648203 7:0.689202 
1 1:0.537906 2:0.422044 3:0.099587 4:0.0131312 5:0.195319 6:0.327023 7:0.61486 
1 1:0.436207 2:0.0587359 3:0.571232 4:0.00139256 5:0.0248078 6:0.289063 7:0.492293 
1 1:0.37258 2:0.631413 3:0.0683526 4:0.00377059 5:0.0645847 6:0.264895 7:0.601307 
1 1:0.616646 2:0.170387 3:0.266022 4:0.0161033 5:0.229919 6:0.359282 7:0.537056 
1 1:0.575375 2:0.148163 3:0.332526 4:0.0281873 5:0.346023 6:0.493407 7:0.628143 
1 1:0.720414 2:0.207653 3:0.117374 4:0.0103482 5:0.16019 6:0.394322 7:0.574251 
1 1:0.636865 2:0.325323 3:0.0897565 4:0.0108516 5:0.166754 6:0.553819 7:0.241502 
1 1:0.37816 2:0.508881 3:0.184581 4:0.00684996 5:0.111758 6:0.395476 7:0.565603 
1 1:0.630519 2:0.138786 3:0.282639 4:0.00854786 5:0.135901 6:0.443065 7:0.595682 
1 1:0.82196 2:0.14951 3:0.0662815 4:0.00589553 5:0.0976234 6:0.492298 7:0.998869 
1 1:0.627689 2:0.375651 3:0.0494121 4:0.00390351 5:0.0667178 6:0.312309 7:0.399584 
1 1:0.61619 2:0.408676 3:0.0288229 4:0.0230101 5:0.300521 6:0.77093 7:0.996377 
1 1:0.497651 2:0.49168 3:0.0733724 4:0.00517905 5:0.086732 6:0.279528 7:0.49991 
1 1:0.540787 2:0.174218 3:0.343693 4:0.00656668 5:0.107606 6:0.489808 7:0.492793 
1 1:0.52819 2:0.113266 3:0.418024 4:0.00728623 5:0.118081 6:0.364287 7:0.92693 
1 1:0.577269 2:0.0528564 3:0.425556 4:0.0103855 5:0.160679 6:0.376716 7:0.335402 
1 1:0.602304 2:0.219798 3:0.23214 4:0.0093139 5:0.146394 6:0.507872 7:0.467869 
1 1:0.668332 2:0.084041 3:0.296624 4:0.00481055 5:0.0810332 6:0.44403 7:0.726197 
1 1:0.803852 2:0.181125 3:0.0542009 4:0.0132846 5:0.197174 6:0.534847 7:0.501101 
1 1:0.596182 2:0.363185 3:0.0956936 4:0.0116405 5:0.176852 6:0.60406 7:0.600537 
1 1:0.624814 2:0.276005 3:0.151895 4:0.0191198 5:0.262309 6:0.561294 7:0.872758 
1 1:0.766206 2:0.2189 3:0.056961 4:0.00614098 5:0.101298 6:0.62787 7:0.847193 
1 1:0.550159 2:0.201792 3:0.306119 4:0.0211634 5:0.282851 6:0.51985 7:0.679172 
1 1:0.620422 2:0.0546518 3:0.377408 4:0.0058536 5:0.0969918 6:0.294969 7:0.982513 
1 1:0.383001 2:0.58835 3:0.100112 4:0.0212097 5:0.283303 6:0.533882 7:0.570988 
1 1:0.534227 2:0.107653 3:0.417137 4:0.00178479 5:0.0315861 6:0.248696 7:0.590847 
1 1:0.576517 2:0.277414 3:0.202373 4:0.00575761 5:0.0955458 6:0.39181 7:0.467859 
1 1:0.808061 2:0.230928 4:0.00574286 5:0.0953229 6:0.426121 7:0.436839 
1 1:0.649577 2:0.28113 3:0.12018 4:0.0076119 5:0.122747 6:0.496354 7:0.32338 
1 1:0.561187 2:0.299799 3:0.196514 4:0.0105152 5:0.162378 6:0.481404 7:0.372798 
1 1:0.394167 2:0.334062 3:0.341763 4:0.014924 5:0.216527 6:0.375667 7:0.519339 
1 1:0.664581 2:0.165196 3:0.219704 4:0.00683002 5:0.111466 6:0.366603 7:0.806634 
1 1:0.419315 2:0.249544 3:0.399053 4:0.00793256 5:0.127296 6:0.456916 7:0.326804 
1 1:0.393569 2:0.217856 3:0.458318 4:0.00691575 5:0.112717 6:0.339565 7:0.550388 
1 1:0.793856 2:0.171895 3:0.0741448 4:0.0125778 5:0.188553 6:0.71092 7:0.993914 
1 1:0.793856 2:0.120791 3:0.125119 4:0.00707098 5:0.114972 6:0.714744 7:0.694126 
1 1:0.702395 2:0.252241 3:0.0922555 4:0.00552395 5:0.092005 6:0.582125 7:0.338215 
1 1:0.671167 2:0.277465 3:0.100642 4:0.00664356 5:0.108736 6:0.537149 7:0.99958 
1 1:0.590145 2:0.188885 3:0.276039 4:0.0153307 5:0.221194 6:0.470017 7:0.740621 
1 1:0.500416 2:0.49637 3:0.0657238 4:0.00349173 5:0.0600792 6:0.310959 7:0.995275 
1 1:0.659651 2:0.31148 3:0.0790853 4:0.00694287 5:0.113111 6:0.507212 7:0.784743 
1 1:0.718974 2:0.149653 3:0.176774 4:0.00777835 5:0.125114 6:0.583576 7:0.685778 
1 1:0.705219 2:0.214024 3:0.127342 4:0.0142595 5:0.208788 6:0.383586 7:0.826213 
1 1:0.513467 2:0.213706 3:0.333654 4:0.00812351 5:0.129983 6:0.450937 7:0.505916 
1 1:0.535035 2:0.185831 3:0.338288 4:0.00469148 5:0.0791776 6:0.52358 7:0.356232 
1 1:0.879645 2:0.0978941 3:0.0557976 4:0.00247677 5:0.0433311 6:0.448844 7:0.995756 
1 1:0.438154 2:0.111879 3:0.516132 4:0.00339183 5:0.0584552 6:0.218667 7:0.632787 
1 1:0.530093 2:0.420106 3:0.109914 4:0.0112518 5:0.171905 6:0.516721 7:0.472013 
1 1:0.632407 2:0.220383 3:0.199219 4:0.0116033 5:0.17638 6:0.533724 7:0.278547 
1 1:0.656692 2:0.12207 3:0.271197 4:0.0101922 5:0.158136 6:0.427208 7:0.376992 
1 1:0.670222 2:0.322473 3:0.0567627 4:0.00947478 5:0.148568 6:0.590362 7:0.41666 
1 1:0.80232 2:0.218144 3:0.0189214 4:0.00644177 5:0.105764 6:0.457672 7:0.466268 
1 1:0.526193 2:0.424858 3:0.109364 4:0.0206606 5:0.277895 6:0.564584 7:0.806935 
1 1:0.583457 2:0.205576 3:0.266575 4:0.0259186 5:0.326775 6:0.542027 7:0.987298 
1 1:0.435964 2:0.293278 3:0.337544 4:0.010185 5:0.158041 6:0.500231 7:0.608664 
1 1:0.614013 2:0.107159 3:0.331918 4:0.00489455 5:0.0823376 6:0.263519 7:0.615291 
1 1:0.340169 2:0.432792 3:0.301291 4:0.0110608 5:0.169454 6:0.472871 7:0.553822 
1 1:0.606159 2:0.160739 3:0.286913 4:0.00900408 5:0.142179 6:0.422487 7:0.330017 
1 1:0.511896 2:0.414536 3:0.135017 4:0.0113758 5:0.173489 6:0.540844 7:0.361557 
1 1:0.76219 2:0.171314 3:0.108742 4:0.0225933 5:0.296603 6:0.515369 7:0.265655 
1 1:0.870644 2:0.093444 3:0.0699056 4:0.00660245 5:0.108132 6:0.649943 7:0.532681 
1 1:0.654519 2:0.231171 3:0.164705 4:0.0155484 5:0.223671 6:0.325898 7:0.574842 
1 1:0.669851 2:0.305475 3:0.0741175 4:0.00568926 5:0.0945123 6:0.522935 7:0.518808 
1 1:0.341879 2:0.0671056 3:0.664218 4:0.0313578 5:0.371285 6:0.293334 7:0.4691 
1 1:0.445402 2:0.541829 3:0.0794804 4:0.00908435 5:0.143275 6:0.327689 7:0.42744 
1 1:0.430605 2:0.0903042 3:0.545761 4:0.0037393 5:0.0640813 6:0.362662 7:0.349305 
1 1:0.161794 2:0.209826 3:0.715318 4:0.0106183 5:0.163725 6:0.187799 7:0.377913 
1 1:0.156861 2:0.215138 3:0.715318 4:0.00205807 5:0.0362571 6:0.227143 7:0.842078 
1 1:0.540524 2:0.20034 3:0.317919 4:0.00972152 5:0.151881 6:0.459461 7:0.431594 
1 1:0.515158 2:0.232212 3:0.313378 4:0.00751072 5:0.121302 6:0.425737 7:0.304853 
1 1:0.304763 2:0.205957 3:0.565589 4:0.00705482 5:0.114738 6:0.304809 7:0.595652 
1 1:0.295318 2:0.27461 3:0.507256 4:0.00522227 5:0.0873952 6:0.32992 7:0.928692 
1 1:0.573925 2:0.414828 3:0.0680901 4:0.00817366 5:0.130686 6:0.362109 7:0.630335 
1 1:0.69094 2:0.15753 3:0.199035 4:0.0180159 5:0.250754 6:0.470141 7:0.960152 
1 1:0.697579 2:0.0874796 3:0.261775 4:0.0170796 5:0.240687 6:0.461757 7:0.67678 
1 1:0.788558 2:0.226738 3:0.0251292 4:0.0138577 5:0.20404 6:0.573043 7:0.521781 
1 1:0.602631 2:0.410221 3:0.0418482 4:0.00831581 5:0.132674 6:0.498716 7:0.242903 
1 1:0.611288 2:0.130525 3:0.311539 4:0.00277256 5:0.0482691 6:0.45268 7:0.598324 
1 1:0.746365 2:0.245657 3:0.0515871 4:0.0138967 5:0.204503 6:0.598314 7:0.664528 
1 1:0.73436 2:0.168082 3:0.141864 4:0.0173734 5:0.243873 6:0.486591 7:0.965157 
1 1:0.902314 2:0.0730056 3:0.0562706 4:0.0108777 5:0.167093 6:0.72239 7:0.568085 
1 1:0.738192 2:0.257578 3:0.048477 4:0.0169867 5:0.239675 6:0.698528 7:0.688771 
1 1:0.57574 2:0.417957 3:0.0630197 4:0.0144252 5:0.210732 6:0.634536 7:0.540489 
1 1:0.713081 2:0.300975 3:0.0321654 4:0.00716081 5:0.116272 6:0.54457 7:0.338325 
1 1:0.678148 2:0.322473 3:0.0482487 4:0.00328994 5:0.0567929 6:0.469379 7:0.658762 
1 1:0.697579 2:0.297429 3:0.0523554 4:0.0154828 5:0.222927 6:0.509751 7:0.378223 
1 1:0.596047 2:0.116639 3:0.341763 4:0.0319613 5:0.375892 6:0.412563 7:0.729721 
1 1:0.616353 2:0.102059 3:0.334492 4:0.0164369 5:0.23363 6:0.520549 7:0.444297 
1 1:0.808909 2:0.0335446 3:0.195976 4:0.0094517 5:0.148257 6:0.261993 7:0.982683 
1 1:0.857852 2:0.134176 3:0.0430198 4:0.00894893 5:0.141424 6:0.624803 7:0.856813 
1 1:0.67102 2:0.0870163 3:0.290769 4:0.00425053 5:0.0722434 6:0.547309 7:0.388093 
1 1:0.352726 2:0.528968 3:0.191867 4:0.0113181 5:0.172753 6:0.362064 7:0.412356 
1 1:0.524533 2:0.0541707 3:0.4809 4:0.00356598 5:0.0612831 6:0.393332 7:0.345742 
1 1:0.510623 2:0.0995346 3:0.450593 4:0.00486326 5:0.0818514 6:0.263116 7:0.995185 
1 1:0.53906 2:0.06508 3:0.454411 4:0.0243536 5:0.312879 6:0.448994 7:0.436319 
1 1:0.758058 2:0.20172 3:0.0828516 4:0.00896073 5:0.141587 6:0.490345 7:0.412876 
1 1:0.647882 2:0.261049 3:0.142031 4:0.00896426 5:0.141635 6:0.465932 7:0.402536 
1 1:0.64993 2:0.162297 3:0.238335 4:0.00437736 5:0.0742482 6:0.584173 7:0.299057 
1 1:0.662487 2:0.225413 3:0.161888 4:0.0148513 5:0.215687 6:0.561914 7:0.639444 
1 1:0.78634 2:0.216645 3:0.0375816 4:0.0128362 5:0.191725 6:0.671151 7:0.369054 
1 1:0.612287 2:0.215867 3:0.225338 4:0.0081239 5:0.129988 6:0.57072 7:0.657491 
1 1:0.588981 2:0.401614 3:0.0650977 4:0.0133399 5:0.197841 6:0.426121 7:0.890635 
1 1:0.710223 2:0.278441 3:0.0577115 4:0.00528305 5:0.0883273 6:0.24216 7:0.419703 
1 1:0.935717 2:0.057105 3:0.0362474 4:0.0120725 5:0.182284 6:0.754613 7:0.522842 
1 1:0.877875 2:0.0986355 3:0.056961 4:0.00832754 5:0.132838 6:0.263308 7:0.977348 
1 1:0.517674 2:0.464387 3:0.0790853 4:0.0125342 5:0.188016 6:0.460606 7:0.482844 
1 1:0.680684 2:0.294489 3:0.0734367 4:0.00520547 5:0.0871369 6:0.474589 7:0.571409 
1 1:0.873743 2:0.0593293 3:0.100605 4:0.00901959 5:0.142392 6:0.563584 7:0.728309 
1 1:0.873743 2:0.088994 3:0.0710156 4:0.00916886 5:0.144426 6:0.783298 7:0.922846 
1 1:0.377674 2:0.0781834 3:0.614714 4:0.00441115 5:0.0747803 6:0.146783 7:0.810668 
1 1:0.407566 2:0.469101 3:0.192672 4:0.0134493 5:0.199159 6:0.502552 7:0.995255 
1 1:0.676684 2:0.238349 3:0.133733 4:0.0045392 5:0.0767938 6:0.465773 7:0.597524 
1 1:0.635188 2:0.059587 3:0.356623 4:0.00761106 5:0.122735 6:0.473947 7:0.373469 
1 1:0.786826 2:0.07614 3:0.177211 4:0.00993555 5:0.154737 6:0.419006 7:0.535144 
1 1:0.775044 2:0.101519 3:0.164552 4:0.00541001 5:0.090269 6:0.419006 7:0.407671 
1 1:0.798793 2:0.09101 3:0.149521 4:0.00815615 5:0.130441 6:0.577449 7:0.29155 
1 1:0.833588 2:0.032122 3:0.170882 4:0.0053616 5:0.0895303 6:0.440871 7:0.629895 
1 1:0.676612 2:0.253016 3:0.119178 4:0.009575 5:0.149917 6:0.395549 7:0.623769 
1 1:0.591776 2:0.351412 3:0.112168 4:0.00902652 5:0.142487 6:0.441821 7:0.509549 
1 1:0.604311 2:0.4426 3:0.00774572 4:0.00702263 5:0.11427 6:0.456224 7:0.47891 
1 1:0.42767 2:0.28342 3:0.356285 4:0.00198785 5:0.0350609 6:0.290079 7:0.535494 
1 1:0.674916 2:0.0966003 3:0.277024 4:0.00444763 5:0.0753555 6:0.395727 7:0.793722 
1 1:0.557193 2:0.374324 3:0.126467 4:0.0158489 5:0.227065 6:0.440445 7:0.328475 
1 1:0.886336 2:0.0478774 3:0.0984988 4:0.0111091 5:0.170074 6:0.123313 7:0.768047 
1 1:0.161159 2:0.885743 3:0.041788 4:0.00887449 5:0.140405 6:0.246443 7:0.379484 
1 1:0.676312 2:0.2678 3:0.104754 4:0.00633488 5:0.104182 6:0.305931 7:0.874089 
1 1:0.510542 2:0.388574 3:0.16237 4:0.0057031 5:0.0947219 6:0.314574 7:0.422395 
1 1:0.225082 2:0.703053 3:0.155346 4:0.004623 5:0.0781068 6:0.183966 7:0.619275 
1 1:0.291187 2:0.30703 3:0.479355 4:0.00405926 5:0.069205 6:0.271853 7:0.99994 
1 1:0.89084 2:0.0649813 3:0.0766014 4:0.00821649 5:0.131286 6:0.274062 7:0.404729 
1 1:0.775652 2:0.100425 3:0.16499 4:0.0140294 5:0.206075 6:0.658119 7:0.461813 
1 1:0.282725 2:0.280706 3:0.514703 4:0.0185047 5:0.255912 6:0.244365 7:0.99986 
1 1:0.42071 2:0.0825608 3:0.564115 4:0.0123692 5:0.185975 6:0.438005 7:0.488519 
1 1:0.525074 2:0.468741 3:0.0667942 4:0.0126292 5:0.189186 6:0.471325 7:0.544883 
1 1:0.62041 2:0.401778 3:0.0311702 4:0.00347993 5:0.0598878 6:0.192114 7:0.58354 
1 1:0.783881 2:0.0793113 3:0.177211 4:0.00826971 5:0.13203 6:0.698362 7:0.606592 
1 1:0.221255 2:0.707462 3:0.155059 4:0.00814397 5:0.13027 6:0.231028 7:0.379474 
1 1:0.406552 2:0.563223 3:0.0998755 4:0.0142814 5:0.209046 6:0.422726 7:0.950022 
1 1:0.394929 2:0.262838 3:0.411989 4:0.0250548 5:0.31917 6:0.407275 7:0.449702 
1 1:0.897794 2:0.114538 3:0.0196979 4:0.00807196 5:0.129259 6:0.263652 7:0.650224 
1 1:0.522197 2:0.462863 3:0.075747 4:0.0110634 5:0.169488 6:0.343341 7:0.993324 
1 1:0.562488 2:0.0759385 3:0.418412 4:0.00281924 5:0.0490443 6:0.340366 7:0.744224 
1 1:0.250333 2:0.752619 3:0.0787791 4:0.00847816 5:0.134934 6:0.389765 7:0.566784 
1 1:0.366803 2:0.622536 3:0.0834134 4:0.0140389 5:0.206187 6:0.29036 7:0.521451 
1 1:0.980529 2:0.0451816 4:0.0101354 5:0.157386 6:0.707055 7:0.834531 
1 1:0.359398 2:0.330812 3:0.382355 4:0.0060961 5:0.100628 6:0.33618 7:0.522672 
1 1:0.408154 2:0.278302 3:0.382355 4:0.0172913 5:0.242985 6:0.409644 7:0.627192 
1 1:0.603069 2:0.266916 3:0.184321 4:0.013391 5:0.198458 6:0.513112 7:0.576884 
1 1:0.292801 2:0.239174 3:0.545306 4:0.00588303 5:0.0974349 6:0.160443 7:0.584651 
1 1:0.303376 2:0.554278 3:0.219637 4:0.00573145 5:0.0951496 6:0.397888 7:0.476708 
1 1:0.382029 2:0.171314 3:0.517141 4:0.0235356 5:0.305404 6:0.298497 7:0.694116 
1 1:0.340169 2:0.23443 3:0.499154 4:0.012732 5:0.190449 6:0.346728 7:0.790399 
1 1:0.501692 2:0.468217 3:0.0924346 4:0.00464063 5:0.0783834 6:0.255706 7:0.688321 
1 1:0.633022 2:0.375548 3:0.0437839 4:0.00510127 5:0.0855349 6:0.588847 7:0.728459 
1 1:0.73716 2:0.0645304 3:0.242146 4:0.00594208 5:0.098322 6:0.168744 7:0.508498 
1 1:0.82605 2:0.0919803 3:0.119273 4:0.00446975 5:0.0757029 6:0.362515 7:0.89626 
1 1:0.8474 2:0.0643865 3:0.12386 4:0.0172959 5:0.243035 6:0.631234 7:0.447139 
1 1:0.344013 2:0.111879 3:0.617266 4:0.0342623 5:0.392904 6:0.289638 7:0.779668 
1 1:0.353752 2:0.122367 3:0.596341 4:0.00350936 5:0.0603644 6:0.283884 7:0.669933 
1 1:0.82113 2:0.0346958 3:0.181696 4:0.00526555 5:0.0880603 6:0.284831 7:0.684687 
1 1:0.885562 2:0.0477074 3:0.0995009 4:0.011125 5:0.170279 6:0.798795 7:0.642667 
1 1:0.527349 2:0.139542 3:0.392717 4:0.0134801 5:0.199528 6:0.43488 7:0.690993 
1 1:0.434482 2:0.302458 3:0.329978 4:0.0071251 5:0.115755 6:0.486995 7:0.997758 
1 1:0.081787 2:0.823548 3:0.189093 4:0.0024692 5:0.0432038 6:0.117645 7:0.99966 
1 1:0.908151 2:0.0374752 3:0.0854408 4:0.0125274 5:0.187932 6:0.744867 7:0.457439 
1 1:0.808734 2:0.144546 3:0.0854408 4:0.0110032 5:0.168713 6:0.568638 7:0.973274 
1 1:0.850643 2:0.140052 3:0.0449036 4:0.0141417 5:0.207402 6:0.391412 7:0.197209 
1 1:0.474808 2:0.404792 3:0.184581 4:0.0102085 5:0.158351 6:0.314574 7:0.46904 
1 1:0.673473 2:0.0925244 3:0.282639 4:0.0112785 5:0.172246 6:0.523967 7:0.427951 
1 1:0.632237 2:0.213191 3:0.206577 4:0.00604967 5:0.0999345 6:0.479994 7:0.456448 
1 1:0.666171 2:0.292375 3:0.0911373 4:0.00887385 5:0.140396 6:0.414829 7:0.606712 
1 1:0.411665 2:0.598041 3:0.0596527 4:0.00294401 5:0.0511113 6:0.172395 7:0.525414 
1 1:0.379272 2:0.632926 3:0.0596527 4:0.00923549 5:0.145331 6:0.443083 7:0.567325 
1 1:0.356557 2:0.664928 3:0.0521339 4:0.0130531 5:0.194369 6:0.24687 7:0.601277 
1 1:0.302636 2:0.673639 3:0.101371 4:0.00437941 5:0.0742798 6:0.306609 7:0.997878 
1 1:0.335223 2:0.176686 3:0.562063 4:0.00280212 5:0.04876 6:0.245147 7:0.87498 
1 1:0.33079 2:0.114607 3:0.628748 4:0.0162915 5:0.232017 6:0.194059 7:0.998919 
1 1:0.620136 2:0.327512 3:0.105545 4:0.00955577 5:0.149658 6:0.577189 7:0.318646 
1 1:0.840022 2:0.166276 3:0.0301558 4:0.0148025 5:0.215122 6:0.577189 7:0.394559 
1 1:0.39564 2:0.081215 3:0.592389 4:0.00204575 5:0.0360475 6:0.377234 7:0.535174 
1 1:0.367361 2:0.233494 3:0.470873 4:0.0107469 5:0.165398 6:0.339638 7:0.526345 
1 1:0.898532 2:0.0533964 3:0.0798933 4:0.0112083 5:0.171348 6:0.736913 7:0.479861 
1 1:0.873743 2:0.0978941 3:0.0621394 4:0.0207931 5:0.279208 6:0.443961 7:0.491872 
1 1:0.372594 2:0.268235 3:0.430601 4:0.00776777 5:0.124963 6:0.431845 7:0.619004 
1 1:0.485449 2:0.0461025 3:0.530934 4:0.0115711 5:0.175971 6:0.36976 7:0.457059 
1 1:0.429418 2:0.511826 3:0.126579 4:0.0155479 5:0.223664 6:0.519957 7:0.446869 
1 1:0.47262 2:0.465296 3:0.126579 4:0.0121356 5:0.183071 6:0.425969 7:0.290839 
1 1:0.805218 2:0.213934 3:0.0200054 4:0.0151772 5:0.219439 6:0.450285 7:0.54197 
1 1:0.916953 2:0.0802255 3:0.0333424 4:0.0127862 5:0.191113 6:0.747381 7:0.598825 
1 1:0.66202 2:0.329392 3:0.0586711 4:0.00364113 5:0.0624984 6:0.495291 7:0.519969 
1 1:0.643429 2:0.121498 3:0.286015 4:0.0144118 5:0.210575 6:0.526549 7:0.424077 
1 1:0.616353 2:0.0631791 3:0.373274 4:0.00823425 5:0.131535 6:0.302576 7:0.699461 
1 1:0.446239 2:0.139637 3:0.479757 4:0.00227659 5:0.0399606 6:0.223777 7:0.419643 
1 1:0.446239 2:0.532688 3:0.0876978 4:0.00927139 5:0.145818 6:0.368485 7:0.992893 
1 1:0.57986 2:0.417112 3:0.0594367 4:0.00892867 5:0.141148 6:0.558276 7:0.414348 
1 1:0.559742 2:0.444197 3:0.0540341 4:0.00437627 5:0.0742301 6:0.246219 7:0.902466 
1 1:0.738398 2:0.134117 3:0.171404 4:0.0124149 5:0.186541 6:0.538768 7:0.647381 
1 1:0.563279 2:0.385587 3:0.108696 4:0.00739376 5:0.119626 6:0.414599 7:0.517126 
1 1:0.576825 2:0.393226 3:0.0865221 4:0.00669697 5:0.109521 6:0.33361 7:0.721322 
1 1:0.308734 2:0.702955 3:0.0655775 4:0.00120219 5:0.0214852 6:0.267407 7:0.537566 
1 1:0.299343 2:0.713069 3:0.0655775 4:0.00403758 5:0.0688604 6:0.238274 7:0.351978 
1 1:0.477664 2:0.0377205 3:0.547657 4:0.00535692 5:0.0894585 6:0.328371 7:0.99991 
1 1:0.321665 2:0.680289 3:0.0742965 4:0.00526933 5:0.0881168 6:0.281883 7:0.845291 
1 1:0.381603 2:0.109243 3:0.579511 4:0.0120949 5:0.182563 6:0.371785 7:0.442295 
1 1:0.685504 2:0.210113 3:0.152424 4:0.0211617 5:0.282834 6:0.42985 7:0.443276 
1 1:0.734276 2:0.200562 3:0.109554 4:0.0146011 5:0.212784 6:0.626342 7:0.461523 
1 1:0.141496 2:0.910861 3:0.0378564 4:0.0017592 5:0.0311468 6:0.108666 7:0.539478 
1 1:0.145411 2:0.91297 3:0.0315475 4:0.00203915 5:0.0359346 6:0.212777 7:0.851638 
1 1:0.369088 2:0.235512 3:0.467006 4:0.00966124 5:0.151075 6:0.335591 7:0.549918 
1 1:0.366454 2:0.695185 3:0.0113219 4:0.0129774 5:0.193449 6:0.356606 7:0.66671 
1 1:0.317635 2:0.143616 3:0.613946 4:0.0104277 5:0.161233 6:0.313448 7:0.477278 
1 1:0.332874 2:0.677048 3:0.0654873 4:0.006958 5:0.113331 6:0.296564 7:0.340497 
1 1:0.434451 2:0.504664 3:0.128316 4:0.00557724 5:0.0928146 6:0.296931 7:0.998228 
1 1:0.365689 2:0.676753 3:0.0305304 4:0.0142692 5:0.208902 6:0.350024 7:0.25013 
1 1:0.381478 2:0.0510117 3:0.637731 4:0.00684592 5:0.111699 6:0.288454 7:0.658822 
1 1:0.665168 2:0.236295 3:0.148153 4:0.0105601 5:0.162966 6:0.616449 7:0.63515 
1 1:0.727855 2:0.121523 3:0.195293 4:0.00668241 5:0.109306 6:0.377543 7:0.738099 
1 1:0.328371 2:0.064603 3:0.681224 4:0.0104567 5:0.161614 6:0.227231 7:0.755345 
1 1:0.315517 2:0.0738321 3:0.685828 4:0.00432202 5:0.0733745 6:0.234826 7:0.790789 
1 1:0.538628 2:0.463784 3:0.057177 4:0.0129945 5:0.193656 6:0.616195 7:0.574632 
1 1:0.557982 2:0.416885 3:0.0831674 4:0.00992375 5:0.15458 6:0.444657 7:0.527186 
1 1:0.803764 2:0.187375 3:0.0480601 4:0.00743698 5:0.120246 6:0.489334 7:0.792731 
1 1:0.873355 2:0.0588894 3:0.101461 4:0.00719345 5:0.116743 6:0.815358 7:0.851397 
1 1:0.335497 2:0.139037 3:0.599324 4:0.0023602 5:0.0413712 6:0.216499 7:0.818256 
1 1:0.4231 2:0.0446909 3:0.599324 4:0.0208468 5:0.279739 6:0.40039 7:0.560558 
1 1:0.688351 2:0.290947 3:0.068734 4:0.00743916 5:0.120277 6:0.436392 7:0.936469 
1 1:0.533045 2:0.488782 3:0.0382392 4:0.00694396 5:0.113127 6:0.443398 7:0.37517 
1 1:0.510797 2:0.517534 3:0.03346 4:0.00579012 5:0.0960358 6:0.309316 7:0.568626 
1 1:0.833232 2:0.0843384 3:0.119178 4:0.0107289 5:0.165163 6:0.522796 7:0.912836 
1 1:0.761448 2:0.196791 3:0.0841257 4:0.0163419 5:0.232577 6:0.586419 7:0.610696 
1 1:0.536406 2:0.499971 3:0.0234682 4:0.0126256 5:0.189142 6:0.504972 7:0.331538 
1 1:0.569175 2:0.447033 3:0.0410703 4:0.021098 5:0.28221 6:0.693756 7:0.991932 
1 1:0.62713 2:0.219547 3:0.205721 4:0.00173067 5:0.0306559 6:0.195947 7:0.997327 
1 1:0.763033 2:0.126406 3:0.152631 4:0.0104274 5:0.161229 6:0.650379 7:0.490151 
1 1:0.390572 2:0.276918 3:0.402626 4:0.00305699 5:0.0529736 6:0.239898 7:0.712414 
1 1:0.390572 2:0.333241 3:0.346445 4:0.00474502 5:0.0800121 6:0.251486 7:0.998288 
1 1:0.765527 2:0.259167 3:0.017527 4:0.00627089 5:0.103232 6:0.697759 7:0.935868 
1 1:0.765527 2:0.232811 3:0.0438154 4:0.0108376 5:0.166573 6:0.329034 7:0.40628 
1 1:0.486255 2:0.38788 3:0.189152 4:0.0163067 5:0.232185 6:0.346495 7:0.690623 
1 1:0.422229 2:0.215489 3:0.42989 4:0.00485043 5:0.0816534 6:0.346495 7:0.57302 
1 1:0.518053 2:0.345714 3:0.197052 4:0.00729072 5:0.118145 6:0.212965 7:0.638453 
1 1:0.59257 2:0.290153 3:0.172421 4:0.0131665 5:0.195745 6:0.441586 7:0.997498 
1 1:0.585393 2:0.0357525 3:0.43389 4:0.00804683 5:0.128906 6:0.424092 7:0.56236 
1 1:0.447074 2:0.196638 3:0.422004 4:0.00633539 5:0.104189 6:0.51236 7:0.468139 
1 1:0.724923 2:0.136368 3:0.183633 4:0.00927966 5:0.145931 6:0.466079 7:0.516776 
1 1:0.579309 2:0.306831 3:0.170031 4:0.0117718 5:0.178508 6:0.409965 7:0.651235 
1 1:0.652493 2:0.211312 3:0.18669 4:0.0106849 5:0.164591 6:0.455351 7:0.362808 
1 1:0.708552 2:0.199236 3:0.138512 4:0.0112593 5:0.172001 6:0.375853 7:0.514244 
1 1:0.402021 2:0.0383057 3:0.628334 4:0.00276255 5:0.0481036 6:0.253861 7:0.840517 
1 1:0.334838 2:0.246862 3:0.492478 4:0.0197715 5:0.268977 6:0.355439 7:0.369375 
1 1:0.505514 2:0.282667 3:0.27341 4:0.0111903 5:0.171118 6:0.544847 7:0.865581 
1 1:0.418027 2:0.526789 3:0.123889 4:0.0110991 5:0.169947 6:0.379192 7:0.938531 
1 1:0.89919 2:0.0853608 3:0.0473027 4:0.0102276 5:0.158603 6:0.707441 7:0.497157 
1 1:0.819931 2:0.0995867 3:0.118257 4:0.00357701 5:0.0614611 6:0.367911 7:0.473284 
1 1:0.479979 2:0.0504923 3:0.532431 4:0.00213668 5:0.0375921 6:0.339308 7:0.663407 
1 1:0.352726 2:0.176723 3:0.543223 4:0.00621902 5:0.10246 6:0.294787 7:0.584231 
1 1:0.643122 2:0.33099 3:0.0773806 4:0.00526414 5:0.0880383 6:0.262082 7:0.842529 
1 1:0.904355 2:0.104089 3:0.0230731 4:0.00985033 5:0.153602 6:0.219396 7:0.341778 
1 1:0.444421 2:0.237786 3:0.383809 4:0.00501163 5:0.0841511 6:0.369129 7:0.322079 
1 1:0.440407 2:0.34587 3:0.28031 4:0.015413 5:0.222132 6:0.515005 7:0.629364 
1 1:0.741687 2:0.225201 3:0.077017 4:0.0169087 5:0.238822 6:0.394002 7:0.43796 
1 1:0.885071 2:0.00643454 3:0.141197 4:0.00379976 5:0.0650526 6:0.648168 7:0.630776 
1 1:0.653493 2:0.326069 3:0.0711482 4:0.0108371 5:0.166566 6:0.542383 7:0.370696 
1 1:0.658224 2:0.142655 3:0.249017 4:0.00405111 5:0.0690758 6:0.3579 7:0.725827 
1 1:0.619133 2:0.208024 3:0.225808 4:0.024354 5:0.312883 6:0.406885 7:0.879644 
1 1:0.391845 2:0.194054 3:0.483912 4:0.0247421 5:0.316378 6:0.322892 7:0.441574 
1 1:0.571673 2:0.307289 3:0.177778 4:0.0140324 5:0.206111 6:0.464619 7:0.677951 
1 1:0.668682 2:0.172082 3:0.208429 4:0.00749578 5:0.121089 6:0.429216 7:0.613539 
1 1:0.867294 2:0.103624 3:0.0633506 4:0.00773405 5:0.124485 6:0.799648 7:0.87467 
1 1:0.907642 2:0.113652 3:0.0100027 4:0.0104238 5:0.161182 6:0.71437 7:0.43747 
1 1:0.252151 2:0.682963 3:0.146306 4:0.0157421 5:0.225863 6:0.180035 7:0.890735 
1 1:0.272801 2:0.227728 3:0.57821 4:0.0255005 5:0.323114 6:0.224844 7:0.321629 
1 1:0.576517 2:0.0910909 3:0.388226 4:0.00712632 5:0.115774 6:0.494033 7:0.778357 
1 1:0.669743 2:0.346234 3:0.0335762 4:0.00354386 5:0.0609242 6:0.350191 7:0.373709 
1 1:0.589373 2:0.370277 3:0.0959329 4:0.00773366 5:0.124479 6:0.346234 7:0.315883 
1 1:0.617583 2:0.249183 3:0.186417 4:0.00560648 5:0.0932587 6:0.456982 7:0.948871 
1 1:0.572595 2:0.359931 3:0.124277 4:0.0151478 5:0.219102 6:0.519641 7:0.348074 
1 1:0.470397 2:0.231933 3:0.361742 4:0.00170239 5:0.0301688 6:0.226659 7:0.543682 
1 1:0.446904 2:0.417478 3:0.201903 4:0.00664574 5:0.108768 6:0.320359 7:0.757657 
1 1:0.740855 2:0.0786357 3:0.224106 4:0.0066265 5:0.108486 6:0.511797 7:0.466998 
1 1:0.688701 2:0.179739 3:0.179286 4:0.0133594 5:0.198077 6:0.470194 7:0.857083 
1 1:0.452349 2:0.196488 3:0.416485 4:0.00255006 5:0.0445589 6:0.32266 7:0.586753 
1 1:0.434104 2:0.157191 3:0.475283 4:0.00680681 5:0.111127 6:0.209468 7:0.559207 
1 1:0.694259 2:0.298441 3:0.0549131 4:0.00920721 5:0.144947 6:0.520435 7:0.212464 
1 1:0.764207 2:0.237594 3:0.040462 4:0.0125427 5:0.188121 6:0.608661 7:0.204666 
1 1:0.57806 2:0.448909 3:0.0296541 4:0.0153554 5:0.221475 6:0.457291 7:0.191644 
1 1:0.558738 2:0.469719 3:0.0296541 4:0.0160245 5:0.229037 6:0.496435 7:0.186109 
1 1:0.804137 2:0.20576 3:0.0293205 4:0.012288 5:0.184968 6:0.594776 7:0.23996 
1 1:0.706775 2:0.0549245 3:0.284367 4:0.00662586 5:0.108477 6:0.509009 7:0.300118 
1 1:0.711632 2:0.0444634 3:0.289585 4:0.0104706 5:0.161795 6:0.369102 7:0.300118 
1 1:0.762385 2:0.194464 3:0.0854408 4:0.0183909 5:0.254717 6:0.70831 7:0.544002 
1 1:0.664396 2:0.232667 3:0.152601 4:0.0138324 5:0.203739 6:0.350421 7:0.214616 
1 1:0.703748 2:0.206479 3:0.136448 4:0.023646 5:0.306421 6:0.427148 7:0.275535 
1 1:0.92523 2:0.0735401 3:0.0311196 4:0.0136785 5:0.201905 6:0.276062 7:0.259599 
1 1:0.662184 2:0.305475 3:0.0823526 4:0.0370625 5:0.412496 6:0.478772 7:0.409093 
1 1:0.750343 2:0.0949447 3:0.197646 4:0.0122876 5:0.184963 6:0.60107 7:0.498428 
1 1:0.605578 2:0.260938 3:0.187588 4:0.0109929 5:0.168581 6:0.36036 7:0.219771 
1 1:0.570299 2:0.401839 3:0.0849432 4:0.00811845 5:0.129912 6:0.381005 7:0.332429 
1 1:0.728439 2:0.276763 3:0.0398168 4:0.00860627 5:0.136709 6:0.575918 7:0.190393 
1 1:0.55717 2:0.193809 3:0.306551 4:0.0109726 5:0.168318 6:0.392044 7:0.164468 
1 1:0.575637 2:0.320134 3:0.160707 4:0.010805 5:0.166151 6:0.424204 7:0.173517 
1 1:0.639331 2:0.19029 3:0.221799 4:0.0104817 5:0.16194 6:0.501672 7:0.210472 
1 1:0.244535 2:0.630693 3:0.206626 4:0.0159475 5:0.228174 6:0.325229 7:0.203145 
1 1:0.586992 2:0.367499 3:0.101263 4:0.0118262 5:0.179194 6:0.438222 7:0.178491 
1 1:0.673712 2:0.330952 3:0.0445563 4:0.00601787 5:0.099458 6:0.426526 7:0.199411 
1 1:0.415541 2:0.260919 3:0.39176 4:0.0184903 5:0.255761 6:0.39067 7:0.253263 
1 1:0.62814 2:0.0442935 3:0.379449 4:0.0053691 5:0.0896451 6:0.316004 7:0.223945 
1 1:0.733594 2:0.107995 3:0.202622 4:0.0079493 5:0.127531 6:0.465521 7:0.211873 
1 1:0.716882 2:0.136279 3:0.192362 4:0.00674147 5:0.110172 6:0.524771 7:0.297355 
1 1:0.2306 2:0.831033 3:0.0217621 4:0.00986444 5:0.15379 6:0.252006 7:0.350817 
1 1:0.640721 2:0.207939 3:0.202701 4:0.0158392 5:0.226956 6:0.578391 7:0.40609 
1 1:0.403766 2:0.0661627 3:0.598675 4:0.00626454 5:0.103138 6:0.368374 7:0.233024 
1 1:0.515871 2:0.406899 3:0.138366 4:0.0109536 5:0.168073 6:0.37698 7:0.230962 
1 1:0.448896 2:0.210847 3:0.405872 4:0.00402976 5:0.0687351 6:0.386112 7:0.202044 
1 1:0.333049 2:0.463609 3:0.278201 4:0.0322448 5:0.378035 6:0.324708 7:0.147402 
1 1:0.492544 2:0.125599 3:0.444016 4:0.0404326 5:0.434596 6:0.304948 7:0.243404 
1 1:0.733185 2:0.11043 3:0.200633 4:0.00888424 5:0.140538 6:0.305378 7:0.25994 
1 1:0.437858 2:0.614059 3:0.0155352 4:0.00597619 5:0.098834 6:0.356076 7:0.213915 
1 1:0.783593 2:0.222646 3:0.0345468 4:0.0150625 5:0.218122 6:0.592129 7:0.175959 
1 1:0.826918 2:0.127559 3:0.0828516 4:0.0087088 5:0.138126 6:0.57579 7:0.150875 
1 1:0.832678 2:0.102207 3:0.101949 4:0.0245253 5:0.314429 6:0.374473 7:0.451714 
1 1:0.839149 2:0.0580726 3:0.139022 4:0.0136559 5:0.201636 6:0.663129 7:0.347023 
1 1:0.291985 2:0.0541241 3:0.730766 4:0.00634572 5:0.104342 6:0.30768 7:0.273773 
1 1:0.286601 2:0.0444593 3:0.74619 4:0.0025498 5:0.0445551 6:0.310862 7:0.193115 
1 1:0.686457 2:0.26807 3:0.0935884 4:0.0145313 5:0.211971 6:0.531506 7:0.189402 
1 1:0.456677 2:0.190286 3:0.418024 4:0.00519983 5:0.0870507 6:0.417728 7:0.169433 
1 1:0.547121 2:0.0770199 3:0.433841 4:0.00416076 5:0.0708203 6:0.397223 7:0.188841 
1 1:0.711038 2:0.317078 3:0.0182966 4:0.00876888 5:0.138953 6:0.512256 7:0.248899 
1 1:0.750474 2:0.0676031 3:0.224778 4:0.00501612 5:0.0842209 6:0.609606 7:0.27133 
1 1:0.437804 2:0.571046 3:0.0585003 4:0.0143439 5:0.20978 6:0.3857 7:0.237998 
1 1:0.420607 2:0.148163 3:0.498789 4:0.00495957 5:0.0833463 6:0.418724 7:0.183166 
1 1:0.524634 2:0.260572 3:0.27491 4:0.00441217 5:0.0747966 6:0.39224 7:0.226848 
1 1:0.546016 2:0.12248 3:0.389684 4:0.0189462 5:0.260515 6:0.439121 7:0.320027 
1 1:0.532555 2:0.491099 3:0.0364552 4:0.0126153 5:0.189015 6:0.389765 7:0.241732 
1 1:0.839835 2:0.125765 3:0.0707655 4:0.0168301 5:0.237961 6:0.657799 7:0.340337 
1 1:0.228027 2:0.77801 3:0.0774162 4:0.0126299 5:0.189195 6:0.323402 7:0.192184 
1 1:0.597345 2:0.374338 3:0.0833191 4:0.0163373 5:0.232525 6:0.41217 7:0.202635 
1 1:0.562247 2:0.171314 3:0.323536 4:0.00315907 5:0.0546512 6:0.312695 7:0.199151 
1 1:0.695955 2:0.170902 3:0.180306 4:0.00896214 5:0.141606 6:0.474152 7:0.35459 
1 1:0.649257 2:0.273674 3:0.127962 4:0.0180969 5:0.251614 6:0.271173 7:0.175569 
1 1:0.611101 2:0.381025 3:0.0618714 4:0.0129723 5:0.193387 6:0.478244 7:0.207729 
1 1:0.550143 2:0.227421 3:0.280574 4:0.00647152 5:0.106203 6:0.465613 7:0.261061 
1 1:0.589042 2:0.200489 3:0.26565 4:0.0107022 5:0.164817 6:0.458226 7:0.277536 
1 1:0.273489 2:0.706837 3:0.0995692 4:0.0171829 5:0.24181 6:0.251668 7:0.209902 
1 1:0.373688 2:0.596225 3:0.10226 4:0.00720454 5:0.116903 6:0.280532 7:0.392337 
1 1:0.438767 2:0.525564 3:0.102831 4:0.00327 5:0.0564676 6:0.339527 7:0.265275 
1 1:0.391042 2:0.0686296 3:0.609884 4:0.0295282 5:0.356931 6:0.333971 7:0.289078 
1 1:0.457846 2:0.535496 3:0.0724264 4:0.00573702 5:0.0952339 6:0.306483 7:0.379624 
1 1:0.491555 2:0.0794169 3:0.491144 4:0.00287124 5:0.0499065 6:0.377441 7:0.185548 
1 1:0.721904 2:0.187575 3:0.1358 4:0.0145114 5:0.211739 6:0.518736 7:0.133238 
1 1:0.417343 2:0.0804598 3:0.569828 4:0.0558648 5:0.519088 6:0.265281 7:0.200072 
1 1:0.71728 2:0.125351 3:0.202835 4:0.0145695 5:0.212416 6:0.518599 7:0.188391 
1 1:0.783881 2:0.237935 3:0.018987 4:0.00985053 5:0.153605 6:0.561294 7:0.214166 
1 1:0.923064 2:0.102313 3:0.0047464 4:0.0112696 5:0.172133 6:0.526049 7:0.247117 
1 1:0.588763 2:0.403091 3:0.0638591 4:0.00949427 5:0.148831 6:0.401083 7:0.190973 
1 1:0.593166 2:0.419688 3:0.0425727 4:0.0055932 5:0.0930577 6:0.434255 7:0.17715 
1 1:0.541337 2:0.47005 3:0.0480163 4:0.0135534 5:0.200408 6:0.430312 7:0.192685 
1 1:0.794193 2:0.138754 3:0.106839 4:0.0162482 5:0.231535 6:0.637775 7:0.319737 
1 1:0.785152 2:0.0925039 3:0.162686 4:0.0062705 5:0.103226 6:0.365324 7:0.209912 
1 1:0.802983 2:0.0389005 3:0.196999 4:0.00925434 5:0.145587 6:0.502552 7:0.203736 
1 1:0.541476 2:0.310386 3:0.207129 4:0.00919817 5:0.144825 6:0.478268 7:0.215227 
1 1:0.469681 2:0.477467 3:0.117597 4:0.0177726 5:0.248162 6:0.41402 7:0.184247 
1 1:0.722728 2:0.112686 3:0.209614 4:0.022582 5:0.296497 6:0.487514 7:0.205738 
1 1:0.611315 2:0.131726 3:0.310313 4:0.0100196 5:0.155853 6:0.427592 7:0.194977 
1 1:0.626929 2:0.400783 3:0.0251606 4:0.011526 5:0.175399 6:0.459882 7:0.128253 
1 1:0.510442 2:0.276893 3:0.273875 4:0.0166435 5:0.235913 6:0.419254 7:0.249399 
1 1:0.205485 2:0.170648 3:0.707463 4:0.0196323 5:0.267562 6:0.210711 7:0.202675 
1 1:0.788689 2:0.0892421 3:0.162139 4:0.00666407 5:0.109037 6:0.555011 7:0.221633 
1 1:0.806446 2:0.17211 3:0.0604046 4:0.0170251 5:0.240094 6:0.596978 7:0.188911 
1 1:0.644322 2:0.239192 3:0.167658 4:0.0195853 5:0.267084 6:0.481271 7:0.299167 
1 1:0.716352 2:0.122829 3:0.206347 4:0.00716703 5:0.116361 6:0.43871 7:0.361817 
1 1:0.377615 2:0.671364 3:0.0230922 4:0.00506113 5:0.0849157 6:0.281551 7:0.226848 
1 1:0.484919 2:0.500448 3:0.0783034 4:0.0135957 5:0.200915 6:0.439294 7:0.215217 
1 1:0.788219 2:0.109017 3:0.142918 4:0.00576857 5:0.0957104 6:0.499988 7:0.382277 
1 1:0.481198 2:0.154147 3:0.427727 4:0.00158313 5:0.0281132 6:0.335332 7:0.318386 
1 1:0.696105 2:0.110067 3:0.240828 4:0.0151733 5:0.219394 6:0.546381 7:0.268888 
1 1:0.72516 2:0.184442 3:0.135427 4:0.00405009 5:0.0690595 6:0.343386 7:0.394399 
1 1:0.535632 2:0.170515 3:0.352925 4:0.00786402 5:0.126327 6:0.29294 7:0.382297 
1 1:0.517821 2:0.468914 3:0.0744114 4:0.0111253 5:0.170283 6:0.433266 7:0.270089 
1 1:0.801607 2:0.191925 3:0.0458386 4:0.0100097 5:0.155723 6:0.712776 7:0.491782 
1 1:0.677609 2:0.228027 3:0.143036 4:0.00456196 5:0.0771508 6:0.532538 7:0.314522 
1 1:0.701619 2:0.202168 3:0.143036 4:0.00528119 5:0.0882996 6:0.317798 7:0.375961 
1 1:0.763836 2:0.0612823 3:0.216728 4:0.0158912 5:0.227542 6:0.555277 7:0.451503 
1 1:0.799626 2:0.142617 3:0.0971509 4:0.00605705 5:0.100045 6:0.525453 7:0.234305 
1 1:0.799626 2:0.055655 3:0.183893 4:0.0125545 5:0.188266 6:0.413811 7:0.230902 
1 1:0.698814 2:0.113216 3:0.234776 4:0.00710195 5:0.11542 6:0.514812 7:0.3647 
1 1:0.875863 2:0.107257 3:0.0505221 4:0.0177488 5:0.247908 6:0.603078 7:0.252062 
1 1:0.673841 2:0.15645 3:0.218478 4:0.00596177 5:0.0986177 6:0.543753 7:0.193506 
1 1:0.775528 2:0.209644 3:0.0561804 4:0.0102244 5:0.158561 6:0.44075 7:0.367343 
1 1:0.515207 2:0.134241 3:0.411049 4:0.0276691 5:0.341716 6:0.349687 7:0.488339 
1 1:0.557974 2:0.402543 3:0.0974804 4:0.0155649 5:0.223858 6:0.442234 7:0.442765 
1 1:0.250087 2:0.0564704 3:0.773436 4:0.000686984 5:0.0123852 6:0.263931 7:0.37531 
1 1:0.822828 2:0.0412674 3:0.173319 4:0.0022644 5:0.0397549 6:0.138811 7:0.314352 
1 1:0.774046 2:0.0475663 3:0.219441 4:0.0166024 5:0.235459 6:0.327622 7:0.1767 
1 1:0.461181 2:0.0724588 3:0.530714 4:0.0118862 5:0.17995 6:0.362847 7:0.426119 
1 1:0.368914 2:0.676974 3:0.0268448 4:0.0146252 5:0.213065 6:0.344106 7:0.709231 
1 1:0.652631 2:0.205913 3:0.191926 4:0.011666 5:0.177172 6:0.433102 7:0.241622 
1 1:0.686967 2:0.214855 3:0.146121 4:0.0112216 5:0.171519 6:0.58962 7:0.34379 
1 1:0.641628 2:0.22462 3:0.185088 4:0.00612219 5:0.101018 6:0.482459 7:0.352929 
1 1:0.513467 2:0.291233 3:0.256322 4:0.00748943 5:0.120998 6:0.399164 7:0.316444 
1 1:0.948607 2:0.0718613 3:0.0076801 4:0.00271126 5:0.0472499 6:0.337808 7:0.207719 
1 1:0.989119 2:0.0256655 3:0.0102406 4:0.00849945 5:0.135229 6:0.760228 7:0.290309 
1 1:0.64015 2:0.162863 3:0.248276 4:0.00711843 5:0.115659 6:0.482321 7:0.199942 
1 1:0.565967 2:0.242758 3:0.248276 4:0.0088246 5:0.13972 6:0.454504 7:0.222213 
1 1:0.838351 2:0.12339 3:0.0747258 4:0.00855447 5:0.135993 6:0.471726 7:0.371597 
1 1:0.4223 2:0.259783 3:0.385632 4:0.0098654 5:0.153803 6:0.406599 7:0.177731 
1 1:0.314041 2:0.51343 3:0.248927 4:0.00750963 5:0.121287 6:0.415016 7:0.242263 
1 1:0.306922 2:0.0604024 3:0.708457 4:0.0206652 5:0.277941 6:0.283149 7:0.304693 
1 1:0.340498 2:0.121069 3:0.611872 4:0.00442461 5:0.0749928 6:0.305275 7:0.199401 
1 1:0.331505 2:0.0661846 3:0.676281 4:0.0018273 5:0.0323163 6:0.226896 7:0.231552 
1 1:0.551564 2:0.287778 3:0.218842 4:0.0214129 5:0.285286 6:0.527173 7:0.43758 
1 1:0.302546 2:0.123639 3:0.650081 4:0.021988 5:0.290842 6:0.297329 7:0.194657 
1 1:0.224715 2:0.836136 3:0.0229938 4:0.00805503 5:0.129021 6:0.264562 7:0.312 
1 1:0.518543 2:0.134709 3:0.407 4:0.00351968 5:0.0605328 6:0.419006 7:0.294943 
1 1:0.540296 2:0.113233 3:0.405052 4:0.0252541 5:0.320938 6:0.317787 7:0.367893 
1 1:0.436712 2:0.147445 3:0.482206 4:0.00590496 5:0.0977641 6:0.400109 7:0.284093 
1 1:0.797299 2:0.107159 3:0.135017 4:0.00758118 5:0.122309 6:0.525759 7:0.567054 
1 1:0.792063 2:0.0648593 3:0.182836 4:0.00577665 5:0.0958329 6:0.490948 7:0.345782 
1 1:0.516503 2:0.441397 3:0.103277 4:0.00580223 5:0.0962186 6:0.411739 7:0.21863 
1 1:0.804636 2:0.103003 3:0.131282 4:0.04422 5:0.457696 6:0.353033 7:0.251592 
1 1:0.295318 2:0.14486 3:0.636679 4:0.0103873 5:0.160705 6:0.2916 7:0.380415 
1 1:0.263795 2:0.714113 3:0.102727 4:0.00266439 5:0.046469 6:0.24969 7:0.262692 
1 1:0.627924 2:0.241179 3:0.183292 4:0.0102679 5:0.159135 6:0.4931 7:0.658852 
1 1:0.527183 2:0.50334 3:0.030015 4:0.0144213 5:0.210686 6:0.485668 7:0.460282 
1 1:0.666883 2:0.339208 3:0.0436582 4:0.00663176 5:0.108564 6:0.476663 7:0.542851 
1 1:0.491337 2:0.517218 3:0.0546821 4:0.00519207 5:0.0869321 6:0.346612 7:0.288037 
1 1:0.513467 2:0.0762716 3:0.470742 4:0.0108666 5:0.166949 6:0.354459 7:0.263533 
1 1:0.767408 2:0.158723 3:0.115698 4:0.013331 5:0.197734 6:0.57163 7:0.419943 
1 1:0.8581 2:0.0915705 3:0.0852507 4:0.00710984 5:0.115534 6:0.566607 7:0.659513 
1 1:0.461786 2:0.493593 3:0.109993 4:0.0112494 5:0.171875 6:0.375073 7:0.286996 
1 1:0.560674 2:0.395126 3:0.101978 4:0.0100321 5:0.156018 6:0.359295 7:0.38544 
1 1:0.531036 2:0.501157 3:0.0280546 4:0.00985841 5:0.15371 6:0.28792 7:0.369244 
1 1:0.797581 2:0.101179 3:0.140681 4:0.00701924 5:0.114221 6:0.50886 7:0.244435 
0.04952865706084937 1:0.717869 2:0.174763 3:0.152914 4:0.00909372 5:0.143402 6:0.589602 7:0.220322 
1 1:0.153705 2:0.868189 3:0.0673054 4:0.00791211 5:0.127007 6:0.249584 7:0.184537 
1 1:0.879078 2:0.0929671 3:0.0613232 4:0.00891957 5:0.141023 6:0.240947 7:0.183346 
1 1:0.353436 2:0.0643728 3:0.654528 4:0.00827259 5:0.13207 6:0.297486 7:0.349536 
1 1:0.332228 2:0.548204 3:0.194701 4:0.00233506 5:0.0409473 6:0.280396 7:0.280599 
1 1:0.644233 2:0.133851 3:0.272829 4:0.00958789 5:0.15009 6:0.424727 7:0.345291 
1 1:0.558306 2:0.190443 3:0.308689 4:0.0154768 5:0.222859 6:0.422789 7:0.240301 
1 1:0.555148 2:0.278863 3:0.223885 4:0.00999044 5:0.155465 6:0.489958 7:0.20805 
1 1:0.517508 2:0.348065 3:0.195293 4:0.0124573 5:0.187066 6:0.410801 7:0.48972 
1 1:0.482159 2:0.345346 3:0.235979 4:0.00973947 5:0.152122 6:0.477936 7:0.326153 
1 1:0.711881 2:0.152279 3:0.181776 4:0.00967227 5:0.151223 6:0.53645 7:0.140415 
1 1:0.334679 2:0.134489 3:0.60474 4:0.0154014 5:0.222 6:0.346197 7:0.436869 
1 1:0.690515 2:0.300916 3:0.0564647 4:0.0201325 5:0.272623 6:0.455966 7:0.293462 
1 1:0.615823 2:0.110237 3:0.326903 4:0.0122621 5:0.184646 6:0.463321 7:0.506987 
1 1:0.547029 2:0.313762 3:0.197797 4:0.00516719 5:0.0865493 6:0.492223 7:0.159553 
1 1:0.663561 2:0.0953833 3:0.290436 4:0.0170213 5:0.240052 6:0.446778 7:0.262992 
1 1:0.622691 2:0.250463 3:0.179654 4:0.0136569 5:0.201647 6:0.485183 7:0.141306 
1 1:0.758567 2:0.205435 3:0.0785987 4:0.010818 5:0.166319 6:0.471286 7:0.370616 
1 1:0.666979 2:0.200138 3:0.182273 4:0.0266303 5:0.332925 6:0.547309 7:0.487908 
1 1:0.707377 2:0.204488 3:0.134536 4:0.00992971 5:0.154659 6:0.565211 7:0.279048 
1 1:0.439421 2:0.238765 3:0.388205 4:0.006201 5:0.102193 6:0.329639 7:0.650845 
1 1:0.417869 2:0.0323879 3:0.617214 4:0.0279713 5:0.344234 6:0.251447 7:0.273733 
1 1:0.604326 2:0.183476 3:0.266201 4:0.00747808 5:0.120835 6:0.526573 7:0.330217 
1 1:0.710155 2:0.291894 3:0.0443663 4:0.0113052 5:0.172588 6:0.533436 7:0.398953 
1 1:0.656966 2:0.303262 3:0.0901667 4:0.00636021 5:0.104558 6:0.485753 7:0.223324 
1 1:0.71653 2:0.262437 3:0.0668981 4:0.0092939 5:0.146124 6:0.502552 7:0.504084 
1 1:0.665056 2:0.199297 3:0.185178 4:0.0225345 5:0.296048 6:0.507045 7:0.252362 
1 1:0.649846 2:0.185646 3:0.215134 4:0.006379 5:0.104835 6:0.592421 7:0.326503 
1 1:0.728327 2:0.158401 3:0.158001 4:0.00897368 5:0.141763 6:0.482715 7:0.295874 
1 1:0.317071 2:0.714539 3:0.0450676 4:0.00193649 5:0.0341843 6:0.204404 7:0.582079 
1 1:0.256474 2:0.133871 3:0.689369 4:0.0123919 5:0.186257 6:0.271883 7:0.212824 
1 1:0.535986 2:0.134991 3:0.387978 4:0.0148329 5:0.215475 6:0.512908 7:0.451533 
1 1:0.799313 2:0.130403 3:0.10967 4:0.0228785 5:0.299288 6:0.372089 7:0.184457 
1 1:0.750062 2:0.0602859 3:0.232519 4:0.00678725 5:0.110842 6:0.596816 7:0.27035 
