svm_type c_svc
kernel_type rbf
gamma 0.142857
nr_class 2
total_sv 14516
rho 1.30686
label 1 -1
probA -1.42046
probB 0.0652511
nr_sv 7260 7256
SV
1 1:0.374593 2:0.0876125 3:0.608618 4:0.00318203 5:0.0550273 6:0.278524 7:0.341778 
1 1:0.304865 2:0.240934 3:0.530591 4:0.00225376 5:0.0395749 6:0.237323 7:0.342078 
1 1:0.805218 2:0.206134 3:0.0277853 4:0.0188913 5:0.259945 6:0.56674 7:0.417531 
1 1:0.856948 2:0.14485 3:0.0333424 4:0.00753463 5:0.121644 6:0.30082 7:0.35385 
1 1:0.764373 2:0.116364 3:0.16121 4:0.010726 5:0.165125 6:0.518512 7:0.369955 
1 1:0.638777 2:0.408014 3:0.00521804 4:0.00892463 5:0.141092 6:0.459503 7:0.313591 
1 1:0.507639 2:0.49171 3:0.0626137 4:0.00545637 5:0.0909763 6:0.446589 7:0.345271 
1 1:0.475796 2:0.494769 3:0.0937688 4:0.00736241 5:0.119177 6:0.386508 7:0.455047 
1 1:0.494173 2:0.499716 3:0.0690935 4:0.00601499 5:0.0994159 6:0.39058 7:0.292711 
1 1:0.705869 2:0.314758 3:0.026164 4:0.00839699 5:0.133805 6:0.543025 7:0.432575 
1 1:0.74849 2:0.144264 3:0.150441 4:0.0081725 5:0.13067 6:0.575404 7:0.554322 
1 1:0.736313 2:0.150822 3:0.156983 4:0.00555832 5:0.0925275 6:0.570008 7:0.418592 
1 1:0.800663 2:0.192794 3:0.0459863 4:0.010221 5:0.158517 6:0.424947 7:0.282051 
1 1:0.48934 2:0.528086 3:0.0459863 4:0.00938194 5:0.147316 6:0.431845 7:0.428912 
1 1:0.595763 2:0.381609 3:0.0777661 4:0.00747173 5:0.120744 6:0.428262 7:0.606432 
1 1:0.477653 2:0.155926 3:0.429762 4:0.00481998 5:0.0811797 6:0.357347 7:0.268248 
1 1:0.664581 2:0.032122 3:0.352442 4:0.0033247 5:0.0573604 6:0.445278 7:0.45854 
1 1:0.530368 2:0.155253 3:0.373804 4:0.00415281 5:0.070694 6:0.418843 7:0.545464 
1 1:0.669551 2:0.0267674 3:0.352442 4:0.00732163 5:0.118591 6:0.423249 7:0.464055 
1 1:0.676032 2:0.208087 3:0.164619 4:0.0131389 5:0.195411 6:0.481884 7:0.962714 
1 1:0.676032 2:0.150685 3:0.221878 4:0.0099535 5:0.154975 6:0.475979 7:0.582749 
1 1:0.682694 2:0.265491 3:0.100202 4:0.00922067 5:0.145131 6:0.576365 7:0.716828 
1 1:0.820891 2:0.196756 3:0.0203021 4:0.022778 5:0.298345 6:0.480218 7:0.356682 
1 1:0.814592 2:0.217111 3:0.00676691 4:0.0249524 5:0.318258 6:0.491385 7:0.421935 
1 1:0.548281 2:0.213333 3:0.296624 4:0.0219656 5:0.290626 6:0.486591 7:0.686239 
1 1:0.56525 2:0.397506 3:0.0946875 4:0.0051443 5:0.0861971 6:0.417107 7:0.454096 
1 1:0.52118 2:0.183921 3:0.355078 4:0.00822893 5:0.13146 6:0.412224 7:0.428511 
1 1:0.84069 2:0.0415305 3:0.153867 4:0.00854138 5:0.135811 6:0.617292 7:0.397001 
1 1:0.440893 2:0.310505 3:0.315063 4:0.00777842 5:0.125115 6:0.321917 7:0.226117 
1 1:0.727484 2:0.267873 3:0.0497115 4:0.0139893 5:0.2056 6:0.487172 7:0.359615 
1 1:0.721699 2:0.286561 3:0.0372836 4:0.0136567 5:0.201645 6:0.543565 7:0.359615 
1 1:0.543409 2:0.0644948 3:0.450323 4:0.0122261 5:0.184199 6:0.420726 7:0.456328 
1 1:0.622841 2:0.373775 3:0.0564893 4:0.00845598 5:0.134625 6:0.48857 7:0.453235 
1 1:0.749044 2:0.237857 3:0.0564893 4:0.009701 5:0.151607 6:0.535176 7:0.401736 
1 1:0.706976 2:0.334133 3:0.00564866 4:0.00817301 5:0.130678 6:0.539837 7:0.445658 
1 1:0.75956 2:0.22653 3:0.0564893 4:0.00729579 5:0.118219 6:0.446624 7:0.400815 
1 1:0.858003 2:0.153833 3:0.0232495 4:0.024384 5:0.313153 6:0.314574 7:0.294413 
1 1:0.442483 2:0.610669 3:0.0139494 4:0.00467205 5:0.0788743 6:0.406645 7:0.26054 
1 1:0.546632 2:0.108709 3:0.402758 4:0.00832267 5:0.132769 6:0.363566 7:0.401616 
1 1:0.564657 2:0.0892969 3:0.402758 4:0.0106638 5:0.164316 6:0.392321 7:0.457449 
1 1:0.575471 2:0.0815316 3:0.398885 4:0.0100515 5:0.156275 6:0.462613 7:0.42735 
1 1:0.650032 2:0.113652 3:0.286747 4:0.00607045 5:0.100245 6:0.384264 7:0.311329 
1 1:0.643824 2:0.17382 3:0.2334 4:0.00940399 5:0.147613 6:0.417274 7:0.311329 
1 1:0.664409 2:0.154256 3:0.230801 4:0.00669492 5:0.10949 6:0.548936 7:0.448921 
1 1:0.406186 2:0.614577 3:0.0490416 4:0.0087885 5:0.139223 6:0.348293 7:0.336923 
1 1:0.636007 2:0.269025 3:0.146831 4:0.00975992 5:0.152395 6:0.35217 7:0.315333 
1 1:0.537033 2:0.436533 3:0.0860737 4:0.00836711 5:0.13339 6:0.419006 7:0.30219 
1 1:0.855774 2:0.11371 3:0.0656663 4:0.00552998 5:0.0920969 6:0.450837 7:0.351347 
1 1:0.605712 2:0.400978 3:0.0477566 4:0.00477785 5:0.0805241 6:0.465613 7:0.402446 
1 1:0.544586 2:0.460827 3:0.0537265 4:0.0143937 5:0.210362 6:0.431137 7:0.527586 
1 1:0.589042 2:0.0658324 3:0.399967 4:0.00841898 5:0.134111 6:0.436062 7:0.33329 
1 1:0.411497 2:0.585416 3:0.0724264 4:0.0172657 5:0.242708 6:0.315819 7:0.283432 
1 1:0.428351 2:0.562725 3:0.0769527 4:0.0167418 5:0.236992 6:0.375573 7:0.259599 
1 1:0.411497 2:0.653487 3:0.00452631 4:0.00579973 5:0.0961803 6:0.259799 7:0.283432 
1 1:0.436778 2:0.608107 3:0.0226329 4:0.00540847 5:0.0902461 6:0.312085 7:0.259599 
1 1:0.665891 2:0.28615 3:0.0976472 4:0.0109697 5:0.168282 6:0.52734 7:0.394389 
1 1:0.8521 2:0.0974843 3:0.0857989 4:0.0218666 5:0.289675 6:0.462439 7:0.289017 
1 1:0.814829 2:0.0573435 3:0.165877 4:0.0202978 5:0.274281 6:0.382214 7:0.361087 
1 1:0.9392 2:0.089693 4:0.00601935 5:0.09948 6:0.425786 7:0.288257 
1 1:0.935868 2:0.0502278 3:0.0429446 4:0.00703956 5:0.114516 6:0.499599 7:0.361387 
1 1:0.487085 2:0.242346 3:0.333427 4:0.0168605 5:0.238295 6:0.399394 7:0.382207 
1 1:0.417251 2:0.405303 3:0.245903 4:0.0171743 5:0.241717 6:0.378762 7:0.499329 
1 1:0.494845 2:0.338449 3:0.229231 4:0.0117516 5:0.178254 6:0.316867 7:0.394038 
1 1:0.452168 2:0.384411 3:0.229231 4:0.0115085 5:0.175177 6:0.296235 7:0.526916 
1 1:0.909247 2:0.0929164 3:0.0289624 4:0.0194251 5:0.265447 6:0.435645 7:0.318366 
1 1:0.925423 2:0.0929164 3:0.0115858 4:0.0194254 5:0.26545 6:0.330505 7:0.616342 
1 1:0.746406 2:0.102207 3:0.194631 4:0.0189878 5:0.260945 6:0.454761 7:0.486607 
1 1:0.35855 2:0.0893805 3:0.624089 4:0.00377976 5:0.064732 6:0.31691 7:0.249249 
1 1:0.342743 2:0.106406 3:0.624089 4:0.0067775 5:0.110699 6:0.31691 7:0.249249 
1 1:0.876644 2:0.0937318 3:0.0631728 4:0.00932487 5:0.146543 6:0.161691 7:0.466438 
1 1:0.890758 2:0.0785315 3:0.0631728 4:0.00734804 5:0.11897 6:0.163775 7:0.466438 
1 1:0.458517 2:0.565854 3:0.0414258 4:0.00505331 5:0.0847942 6:0.412836 7:0.39583 
1 1:0.581797 2:0.447948 3:0.026596 4:0.00467353 5:0.0788973 6:0.329203 7:0.295293 
1 1:0.571894 2:0.0746585 3:0.409584 4:0.00708034 5:0.115107 6:0.329203 7:0.384809 
1 1:0.354794 2:0.156509 3:0.561167 4:0.0163342 5:0.232492 6:0.335461 7:0.42719 
1 1:0.370503 2:0.473756 3:0.227842 4:0.0123623 5:0.18589 6:0.356347 7:0.501381 
1 1:0.370503 2:0.0676798 3:0.632895 4:0.00254499 5:0.0444747 6:0.325018 7:0.501381 
1 1:0.804533 2:0.0340736 3:0.200149 4:0.0508563 5:0.494293 6:0.293803 7:0.378293 
1 1:0.762349 2:0.0795046 3:0.200149 4:0.0269663 5:0.335791 6:0.243953 7:0.264794 
1 1:0.473639 2:0.591098 4:0.00594824 5:0.0984149 6:0.390626 7:0.330918 
1 1:0.400784 2:0.10985 3:0.5583 4:0.0180208 5:0.250806 6:0.360493 7:0.899974 
1 1:0.386214 2:0.120311 3:0.563518 4:0.00425867 5:0.0723726 6:0.351883 7:0.899974 
1 1:0.342633 2:0.638319 3:0.0936335 4:0.00317478 5:0.0549096 6:0.297064 7:0.495316 
1 1:0.314743 2:0.649584 3:0.112361 4:0.00438691 5:0.0743985 6:0.235264 7:0.495316 
1 1:0.482023 2:0.433906 3:0.147789 4:0.0128594 5:0.192008 6:0.404571 7:0.451443 
1 1:0.575375 2:0.333367 3:0.147789 4:0.00644074 5:0.105748 6:0.509084 7:0.4476 
1 1:0.43289 2:0.238119 3:0.395864 4:0.00565828 5:0.0940443 6:0.313122 7:0.461483 
1 1:0.526242 2:0.13758 3:0.395864 4:0.0032884 5:0.056768 6:0.417635 7:0.379584 
1 1:0.377615 2:0.162053 3:0.531119 4:0.0155504 5:0.223693 6:0.346327 7:0.442905 
1 1:0.429205 2:0.064821 3:0.572684 4:0.0066492 5:0.108819 6:0.319655 7:0.713655 
1 1:0.420607 2:0.115752 3:0.531119 4:0.0103317 5:0.159975 6:0.373 7:0.413567 
1 1:0.84069 2:0.083908 3:0.111597 4:0.0162906 5:0.232006 6:0.445008 7:0.266176 
1 1:0.458559 2:0.511444 3:0.095654 4:0.0122362 5:0.184326 6:0.336496 7:0.488759 
1 1:0.530543 2:0.293368 3:0.235849 4:0.0110989 5:0.169943 6:0.453906 7:0.577294 
1 1:0.502768 2:0.214013 3:0.344842 4:0.0180137 5:0.250731 6:0.37554 7:0.513823 
1 1:0.510411 2:0.242823 3:0.307894 4:0.0191002 5:0.262107 6:0.395861 7:0.518137 
1 1:0.699599 2:0.0818207 3:0.265249 4:0.0483595 5:0.481059 6:0.372089 7:0.217048 
1 1:0.527027 2:0.511133 3:0.0224101 4:0.0153313 5:0.221201 6:0.451705 7:0.445678 
1 1:0.532242 2:0.151655 3:0.375379 4:0.00704161 5:0.114546 6:0.396237 7:0.390105 
1 1:0.565805 2:0.326048 3:0.16537 4:0.0139146 5:0.204715 6:0.429786 7:0.459691 
1 1:0.565805 2:0.138156 3:0.352788 4:0.0102611 5:0.159044 6:0.306995 7:0.433556 
1 1:0.458622 2:0.0597323 3:0.546159 4:0.00244234 5:0.0427531 6:0.198055 7:0.603069 
1 1:0.461703 2:0.0564129 3:0.546159 4:0.0030879 5:0.0534818 6:0.236289 7:0.603069 
1 1:0.776318 2:0.247141 3:0.0179289 4:0.0155556 5:0.223752 6:0.423046 7:0.322119 
1 1:0.79718 2:0.224673 3:0.0179289 4:0.0146059 5:0.212841 6:0.493307 7:0.254064 
1 1:0.805381 2:0.187051 3:0.0466452 4:0.006196 5:0.102118 6:0.450747 7:0.363018 
1 1:0.536406 2:0.182342 3:0.340296 4:0.0291402 5:0.353809 6:0.413 7:0.546004 
1 1:0.574637 2:0.14705 3:0.334429 4:0.00666625 5:0.109069 6:0.456565 7:0.546004 
1 1:0.374729 2:0.608565 3:0.0888338 4:0.00494847 5:0.083174 6:0.309146 7:0.404508 
1 1:0.342571 2:0.643199 3:0.0888338 4:0.00429778 5:0.0729917 6:0.313217 7:0.363679 
1 1:0.400628 2:0.0931412 3:0.575135 4:0.00771263 5:0.124181 6:0.289024 7:0.278788 
1 1:0.425169 2:0.111879 3:0.530081 4:0.0293987 5:0.355892 6:0.348333 7:0.669563 
1 1:0.425169 2:0.111879 3:0.530081 4:0.0183219 5:0.253991 6:0.34373 7:0.669563 
1 1:0.339262 2:0.136005 3:0.598303 4:0.00360221 5:0.0618697 6:0.363362 7:0.944527 
1 1:0.732837 2:0.0971636 3:0.214239 4:0.00755368 5:0.121916 6:0.405757 7:0.422325 
1 1:0.780319 2:0.030683 3:0.229542 4:0.00470277 5:0.0793537 6:0.342631 7:0.422325 
1 1:0.766074 2:0.0357963 3:0.239744 4:0.00540514 5:0.0901954 6:0.540428 7:0.422325 
1 1:0.593312 2:0.204233 3:0.257327 4:0.0069462 5:0.11316 6:0.447264 7:0.266176 
1 1:0.56836 2:0.209607 3:0.278772 4:0.00736561 5:0.119222 6:0.42515 7:0.824371 
1 1:0.744499 2:0.226201 3:0.0729978 4:0.0188086 5:0.259085 6:0.513502 7:0.410624 
1 1:0.617805 2:0.0840163 3:0.350929 4:0.00480754 5:0.0809863 6:0.413965 7:0.779689 
1 1:0.549546 2:0.162781 3:0.345692 4:0.0055823 5:0.0928921 6:0.409644 7:0.428521 
1 1:0.661686 2:0.0472593 3:0.340453 4:0.014499 5:0.211595 6:0.556569 7:0.890645 
1 1:0.47198 2:0.56281 3:0.0299986 4:0.00922625 5:0.145206 6:0.369966 7:0.358384 
1 1:0.460013 2:0.0859254 3:0.518537 4:0.00748327 5:0.120909 6:0.384108 7:0.324522 
1 1:0.623694 2:0.39571 3:0.0336951 4:0.006409 5:0.105279 6:0.486666 7:0.369835 
1 1:0.905981 2:0.048257 3:0.077017 4:0.0185225 5:0.256098 6:0.355611 7:0.330427 
1 1:0.538918 2:0.239839 3:0.280246 4:0.015186 5:0.219539 6:0.446159 7:0.423136 
1 1:0.868047 2:0.139712 3:0.0265441 4:0.0146654 5:0.213532 6:0.617529 7:0.363959 
1 1:0.920678 2:0.0931946 3:0.0164046 4:0.0116983 5:0.177582 6:0.655941 7:0.418672 
1 1:0.549098 2:0.498865 3:0.0109364 4:0.00314163 5:0.0543651 6:0.389765 7:0.418672 
1 1:0.920678 2:0.0931946 3:0.0164046 4:0.0100724 5:0.156552 6:0.68301 7:0.418672 
1 1:0.559278 2:0.487901 3:0.0109364 4:0.00282295 5:0.0491065 6:0.452926 7:0.418672 
1 1:0.499145 2:0.0533964 3:0.508945 4:0.0183848 5:0.254652 6:0.373164 7:0.378133 
1 1:0.471601 2:0.498366 3:0.0946875 4:0.0120549 5:0.182064 6:0.382929 7:0.446168 
1 1:0.70032 2:0.323833 3:0.0230731 4:0.0131909 5:0.196042 6:0.485895 7:0.342289 
1 1:0.437456 2:0.584075 3:0.0458742 4:0.0043696 5:0.0741258 6:0.347376 7:0.37465 
1 1:0.394754 2:0.61167 3:0.0642241 4:0.0127012 5:0.190072 6:0.328452 7:0.383838 
1 1:0.441727 2:0.0643865 3:0.559666 4:0.0117657 5:0.178432 6:0.343591 7:0.37465 
1 1:0.705962 2:0.27132 3:0.0693929 4:0.0150922 5:0.218464 6:0.39091 7:0.618484 
1 1:0.74472 2:0.229578 3:0.0693929 4:0.0102419 5:0.158792 6:0.505414 7:0.546855 
1 1:0.832484 2:0.142762 3:0.0617074 4:0.0065668 5:0.107608 6:0.655284 7:0.41671 
1 1:0.523913 2:0.388652 3:0.147927 4:0.0214694 5:0.285836 6:0.401549 7:0.384379 
1 1:0.53341 2:0.383538 3:0.142827 4:0.0227875 5:0.298434 6:0.363673 7:0.447069 
1 1:0.397644 2:0.619602 3:0.0532084 4:0.010013 5:0.155765 6:0.256042 7:0.360566 
1 1:0.412884 2:0.603188 3:0.0532084 4:0.00821194 5:0.131223 6:0.384363 7:0.360566 
1 1:0.542368 2:0.351412 3:0.165248 4:0.0158343 5:0.226902 6:0.426121 7:0.440453 
1 1:0.716352 2:0.0775763 3:0.251486 4:0.0104981 5:0.162155 6:0.529152 7:0.621397 
1 1:0.644322 2:0.342627 3:0.0644838 4:0.00781368 5:0.125614 6:0.513192 7:0.449522 
1 1:0.596302 2:0.394345 3:0.0644838 4:0.00704007 5:0.114524 6:0.42275 7:0.621397 
1 1:0.962781 2:0.0338392 3:0.0303786 4:0.00953666 5:0.149401 6:0.211534 7:0.47925 
1 1:0.893656 2:0.108287 3:0.0303786 4:0.0173096 5:0.243183 6:0.161408 7:0.326243 
1 1:0.848756 2:0.051453 3:0.135305 4:0.0175808 5:0.246107 6:0.277363 7:0.373919 
1 1:0.892187 2:0.00467755 3:0.135305 4:0.011818 5:0.179091 6:0.315857 7:0.421765 
1 1:0.80481 2:0.0661216 3:0.167884 4:0.00960136 5:0.150271 6:0.547073 7:0.367763 
1 1:0.637371 2:0.294539 3:0.119916 4:0.00946561 5:0.148445 6:0.487711 7:0.505275 
1 1:0.354922 2:0.679638 3:0.0392194 4:0.0134912 5:0.199662 6:0.313033 7:0.49008 
1 1:0.417505 2:0.617853 3:0.0336158 4:0.0126481 5:0.189419 6:0.345391 7:0.792641 
1 1:0.365353 2:0.117954 3:0.588281 4:0.0354074 5:0.401058 6:0.229831 7:0.416059 
1 1:0.412291 2:0.0898697 3:0.565869 4:0.0363202 5:0.407415 6:0.206718 7:0.710482 
1 1:0.638617 2:0.317143 3:0.0960327 4:0.00564046 5:0.0937735 6:0.497891 7:0.835932 
1 1:0.628101 2:0.305815 3:0.118629 4:0.00621536 5:0.102406 6:0.469927 7:0.647081 
1 1:0.507157 2:0.447397 3:0.10733 4:0.0108673 5:0.166958 6:0.483909 7:0.804072 
1 1:0.762909 2:0.170461 3:0.10882 4:0.00892033 5:0.141033 6:0.60636 7:0.47892 
1 1:0.740287 2:0.240842 3:0.0629186 4:0.0071662 5:0.11635 6:0.462439 7:0.716077 
1 1:0.516661 2:0.378467 3:0.165877 4:0.00461697 5:0.078013 6:0.424686 7:0.807525 
1 1:0.639124 2:0.26378 3:0.148718 4:0.0143 5:0.209264 6:0.443563 7:0.996377 
1 1:0.49004 2:0.447279 3:0.125837 4:0.00444423 5:0.0753019 6:0.377495 7:0.815793 
1 1:0.6589 2:0.0870163 3:0.303789 4:0.00981545 5:0.153137 6:0.505536 7:0.419202 
1 1:0.645434 2:0.333563 3:0.0723307 4:0.0168776 5:0.238483 6:0.571179 7:0.813141 
1 1:0.598303 2:0.414007 3:0.0427204 4:0.0107292 5:0.165167 6:0.49472 7:0.548206 
1 1:0.527606 2:0.152279 3:0.379737 4:0.00904928 5:0.142797 6:0.396814 7:0.328876 
1 1:0.338732 2:0.225009 3:0.510094 4:0.0290449 5:0.353039 6:0.342631 7:0.547406 
1 1:0.217229 2:0.0727987 3:0.792449 4:0.0053886 5:0.0899427 6:0.165234 7:0.328946 
1 1:0.208412 2:0.11078 3:0.764033 4:0.00128484 5:0.0229302 6:0.118348 7:0.793712 
1 1:0.246617 2:0.822938 3:0.0126288 4:0.0044175 5:0.0748808 6:0.308497 7:0.793712 
1 1:0.391683 2:0.188494 3:0.489632 4:0.00583795 5:0.0967564 6:0.290875 7:0.492663 
1 1:0.457315 2:0.161006 3:0.446545 4:0.0030609 5:0.0530377 6:0.410448 7:0.492663 
1 1:0.748127 2:0.213749 3:0.0815214 4:0.0153249 5:0.221127 6:0.533594 7:0.491272 
1 1:0.701428 2:0.182316 3:0.163043 4:0.0247794 5:0.316713 6:0.502552 7:0.491272 
1 1:0.803369 2:0.186063 3:0.0497935 4:0.00515828 5:0.0864115 6:0.375573 7:0.793342 
1 1:0.57583 2:0.422044 3:0.0588461 4:0.00340555 5:0.0586782 6:0.3569 7:0.685908 
1 1:0.807583 2:0.136144 3:0.0950593 4:0.00807119 5:0.129249 6:0.360635 7:0.793342 
1 1:0.542121 2:0.440196 3:0.0769527 4:0.00629776 5:0.103631 6:0.431593 7:0.685908 
1 1:0.423411 2:0.113858 3:0.529995 4:0.00306385 5:0.0530865 6:0.372413 7:0.493974 
1 1:0.431242 2:0.0716886 3:0.563647 4:0.0136886 5:0.202026 6:0.233599 7:0.304042 
1 1:0.609407 2:0.0932809 3:0.35071 4:0.0218091 5:0.289123 6:0.434644 7:0.605782 
1 1:0.596081 2:0.107632 3:0.35071 4:0.0132937 5:0.197284 6:0.470074 7:0.605782 
1 1:0.858636 2:0.111758 3:0.0645385 4:0.00991939 5:0.154522 6:0.737323 7:0.766045 
1 1:0.40133 2:0.0947213 3:0.572803 4:0.00650602 5:0.106712 6:0.316198 7:0.529358 
1 1:0.332619 2:0.654174 3:0.0885781 4:0.0125529 5:0.188247 6:0.308891 7:0.549037 
1 1:0.368349 2:0.124323 3:0.578709 4:0.0166622 5:0.236118 6:0.306454 7:0.529358 
1 1:0.178989 2:0.0251475 3:0.881058 4:0.101454 5:0.673169 6:0.0938305 7:0.598945 
1 1:0.708871 2:0.181868 3:0.155494 4:0.00534025 5:0.089203 6:0.537297 7:0.859255 
1 1:0.690777 2:0.201354 3:0.155494 4:0.00526414 5:0.0880383 6:0.457117 7:0.494234 
1 1:0.660623 2:0.0649525 3:0.323946 4:0.00408048 5:0.0695437 6:0.553333 7:0.650595 
1 1:0.648561 2:0.0779436 3:0.323946 4:0.00337926 5:0.0582514 6:0.409009 7:0.696939 
1 1:0.3106 2:0.0834229 3:0.681545 4:0.0486866 5:0.482829 6:0.294959 7:0.679823 
1 1:0.820997 2:0.148471 3:0.0683526 4:0.0124264 5:0.186684 6:0.43676 7:0.430754 
1 1:0.826298 2:0.137051 3:0.0740491 4:0.00783318 5:0.12589 6:0.455557 7:0.474986 
1 1:0.59669 2:0.0573215 3:0.40024 4:0.00384497 5:0.065779 6:0.470388 7:0.522231 
1 1:0.409211 2:0.235299 3:0.424116 4:0.00396981 5:0.0677781 6:0.322501 7:0.401846 
1 1:0.447541 2:0.194017 3:0.424116 4:0.00419179 5:0.0713122 6:0.308912 7:0.300148 
1 1:0.413044 2:0.222915 3:0.432351 4:0.00356624 5:0.0612869 6:0.356473 7:0.408252 
1 1:0.451374 2:0.181634 3:0.432351 4:0.0047379 5:0.0799011 6:0.342884 7:0.320047 
1 1:0.734123 2:0.175533 3:0.134685 4:0.0153724 5:0.22167 6:0.510886 7:0.647832 
1 1:0.815615 2:0.087766 3:0.134685 4:0.0101356 5:0.157389 6:0.538666 7:0.587094 
1 1:0.771736 2:0.135025 3:0.134685 4:0.00927171 5:0.145823 6:0.577557 7:0.526465 
1 1:0.778004 2:0.128274 3:0.134685 4:0.00654782 5:0.107328 6:0.583114 7:0.320758 
1 1:0.529733 2:0.319442 3:0.210711 4:0.00662746 5:0.1085 6:0.299027 7:0.37486 
1 1:0.756662 2:0.0974583 3:0.18835 4:0.0082933 5:0.13236 6:0.43488 7:0.790098 
1 1:0.722728 2:0.164461 3:0.157971 4:0.0114978 5:0.175042 6:0.605313 7:0.578245 
1 1:0.745351 2:0.140096 3:0.157971 4:0.00742935 5:0.120137 6:0.530121 7:0.332429 
1 1:0.790597 2:0.140096 3:0.109364 4:0.00556627 5:0.0926481 6:0.469969 7:0.578766 
1 1:0.748469 2:0.280105 3:0.0149679 4:0.0147281 5:0.214261 6:0.342016 7:0.3122 
1 1:0.734536 2:0.285106 3:0.024946 4:0.0106226 5:0.16378 6:0.38318 7:0.329847 
1 1:0.316209 2:0.0804215 3:0.678513 4:0.00332239 5:0.0573231 6:0.233685 7:0.310548 
1 1:0.337989 2:0.0536143 3:0.681856 4:0.0222268 5:0.293126 6:0.219896 7:0.48987 
1 1:0.255819 2:0.115056 3:0.708843 4:0.00494931 5:0.0831864 6:0.314574 7:0.580017 
1 1:0.246392 2:0.72417 3:0.111389 4:0.0250569 5:0.319189 6:0.253307 7:0.35464 
1 1:0.270165 2:0.736972 3:0.0730812 4:0.00323275 5:0.0558589 6:0.289747 7:0.524273 
1 1:0.314183 2:0.0517175 3:0.70932 4:0.00306886 5:0.0531688 6:0.307481 7:0.341968 
1 1:0.254158 2:0.142223 3:0.683526 4:0.0107899 5:0.165955 6:0.257827 7:0.490541 
1 1:0.788499 2:0.141472 3:0.110246 4:0.00852343 5:0.135562 6:0.404318 7:0.559387 
1 1:0.800813 2:0.128208 3:0.110246 4:0.00533384 5:0.0891054 6:0.418871 7:0.620155 
1 1:0.754014 2:0.202395 3:0.0865221 4:0.0142633 5:0.208834 6:0.533485 7:0.450382 
1 1:0.732536 2:0.133002 3:0.178813 4:0.019584 5:0.267071 6:0.409753 7:0.481742 
1 1:0.748644 2:0.225527 3:0.069218 4:0.00633424 5:0.104172 6:0.51445 7:0.388263 
1 1:0.727166 2:0.115655 3:0.201885 4:0.0140019 5:0.205751 6:0.390717 7:0.481742 
1 1:0.724369 2:0.196472 3:0.124277 4:0.00656123 5:0.107526 6:0.467059 7:0.641526 
1 1:0.49196 2:0.555925 3:0.0154039 4:0.00411767 5:0.0701351 6:0.380234 7:0.355011 
1 1:0.49196 2:0.555925 3:0.0154039 4:0.0049177 5:0.0826965 6:0.399297 7:0.327024 
1 1:0.492258 2:0.183728 3:0.386341 4:0.00673262 5:0.110043 6:0.355439 7:0.824832 
1 1:0.542975 2:0.129106 3:0.386341 4:0.00159595 5:0.0283333 6:0.359525 7:0.698921 
1 1:0.478427 2:0.198625 3:0.386341 4:0.0111665 5:0.170813 6:0.363612 7:0.47873 
1 1:0.332152 2:0.129884 3:0.612046 4:0.00281443 5:0.0489658 6:0.288774 7:0.374219 
1 1:0.340469 2:0.156757 3:0.576307 4:0.00167623 5:0.029719 6:0.292459 7:0.330667 
1 1:0.816741 2:0.155926 3:0.0654873 4:0.0106279 5:0.16385 6:0.465407 7:0.737418 
1 1:0.786261 2:0.106686 3:0.147346 4:0.00699776 5:0.113909 6:0.465407 7:0.827294 
1 1:0.732922 2:0.147719 3:0.163718 4:0.0118465 5:0.179449 6:0.566712 7:0.898082 
1 1:0.384314 2:0.286375 3:0.399913 4:0.00274146 5:0.0477523 6:0.325797 7:0.360246 
1 1:0.471682 2:0.192281 3:0.399913 4:0.0031324 5:0.0542139 6:0.288763 7:0.429072 
1 1:0.424065 2:0.166946 3:0.476338 4:0.00447238 5:0.075745 6:0.360371 7:0.686769 
1 1:0.409646 2:0.174711 3:0.484084 4:0.00313298 5:0.0542225 6:0.302859 7:0.830707 
1 1:0.44209 2:0.155298 3:0.468593 4:0.0060398 5:0.0997872 6:0.414687 7:0.4474 
1 1:0.671963 2:0.0902727 3:0.286508 4:0.00550959 5:0.0917868 6:0.539697 7:0.581738 
1 1:0.617851 2:0.258944 3:0.176393 4:0.00593112 5:0.0981574 6:0.390805 7:0.822049 
1 1:0.682357 2:0.202102 3:0.163795 4:0.00856601 5:0.136152 6:0.458372 7:0.516396 
1 1:0.776184 2:0.0821044 3:0.182694 4:0.00770539 5:0.124077 6:0.583114 7:0.63515 
1 1:0.739078 2:0.12568 3:0.179089 4:0.00767127 5:0.123592 6:0.554267 7:0.987268 
1 1:0.750192 2:0.161588 3:0.131333 4:0.00858838 5:0.136462 6:0.534565 7:0.279779 
1 1:0.728253 2:0.174285 3:0.142236 4:0.0100541 5:0.15631 6:0.447136 7:0.370756 
1 1:0.706186 2:0.23766 3:0.102727 4:0.00940842 5:0.147673 6:0.557967 7:0.505185 
1 1:0.737585 2:0.184098 3:0.122422 4:0.0065332 5:0.107113 6:0.387521 7:0.314802 
1 1:0.788233 2:0.136368 3:0.115621 4:0.00838019 5:0.133571 6:0.623194 7:0.483264 
1 1:0.750248 2:0.163643 3:0.129223 4:0.00641715 5:0.1054 6:0.505358 7:0.310348 
1 1:0.249101 2:0.789785 3:0.0430307 4:0.00261694 5:0.0456767 6:0.244481 7:0.566414 
1 1:0.323049 2:0.716779 3:0.0364101 4:0.00250479 5:0.043801 6:0.228096 7:0.999169 
1 1:0.233694 2:0.806377 3:0.0430307 4:0.00365241 5:0.0626803 6:0.2991 7:0.446909 
1 1:0.295318 2:0.746645 3:0.0364101 4:0.00313496 5:0.054255 6:0.244481 7:0.589316 
1 1:0.531647 2:0.469889 3:0.0585878 4:0.011373 5:0.173453 6:0.379024 7:0.330988 
1 1:0.663008 2:0.0696863 3:0.316661 4:0.0358385 5:0.404076 6:0.429272 7:0.518197 
1 1:0.942947 2:0.0263563 3:0.059151 4:0.0185376 5:0.256256 6:0.442905 7:0.371717 
1 1:0.936829 2:0.0527125 3:0.039434 4:0.0155689 5:0.223904 6:0.442905 7:0.506236 
1 1:0.661211 2:0.121952 3:0.266459 4:0.0084184 5:0.134104 6:0.473877 7:0.357653 
1 1:0.673029 2:0.156224 3:0.219579 4:0.00388139 5:0.0663627 6:0.435348 7:0.401505 
1 1:0.692809 2:0.234335 3:0.120414 4:0.00715639 5:0.116208 6:0.441191 7:0.323761 
1 1:0.679622 2:0.32665 3:0.0424989 4:0.0085117 5:0.135399 6:0.517161 7:0.366141 
1 1:0.73237 2:0.191729 3:0.120414 4:0.00572747 5:0.0950903 6:0.523006 7:0.366141 
1 1:0.658224 2:0.280216 3:0.111803 4:0.0111829 5:0.171023 6:0.529806 7:0.952985 
1 1:0.511564 2:0.4819 3:0.0681817 4:0.0031442 5:0.0544062 6:0.447706 7:0.636611 
1 1:0.800342 2:0.0922791 3:0.146592 4:0.0364573 5:0.40836 6:0.219883 7:0.207539 
1 1:0.841596 2:0.164051 3:0.0306821 4:0.0132777 5:0.197092 6:0.565836 7:0.406921 
1 1:0.553879 2:0.111122 3:0.392565 4:0.00534275 5:0.0892412 6:0.388242 7:0.409123 
1 1:0.476495 2:0.180574 3:0.40642 4:0.0156187 5:0.224467 6:0.380621 7:0.453055 
1 1:0.497991 2:0.157423 3:0.40642 4:0.00464615 5:0.0784695 6:0.399672 7:0.664238 
1 1:0.695801 2:0.0572749 3:0.293814 4:0.00516629 5:0.0865349 6:0.19786 7:0.742383 
1 1:0.699599 2:0.200463 3:0.146908 4:0.00964874 5:0.150907 6:0.234895 7:0.559137 
1 1:0.313266 2:0.157129 3:0.60516 4:0.00630026 5:0.103669 6:0.269077 7:0.509459 
1 1:0.301108 2:0.680889 3:0.0957811 4:0.00626114 5:0.103087 6:0.358874 7:0.737248 
1 1:0.407661 2:0.150141 3:0.510725 4:0.0226204 5:0.29686 6:0.312463 7:0.380005 
1 1:0.418385 2:0.146291 3:0.503045 4:0.00324506 5:0.0560599 6:0.36632 7:0.99957 
1 1:0.45413 2:0.58901 3:0.0230403 4:0.0144411 5:0.210917 6:0.353649 7:0.505515 
1 1:0.337674 2:0.675365 3:0.0620109 4:0.0113448 5:0.173094 6:0.333953 7:0.310838 
1 1:0.403268 2:0.556682 3:0.109927 4:0.0111034 5:0.170003 6:0.413021 7:0.682075 
1 1:0.369159 2:0.211934 3:0.490448 4:0.0422292 5:0.445772 6:0.233958 7:0.310838 
1 1:0.610938 2:0.110807 3:0.331583 4:0.0257167 5:0.325011 6:0.447359 7:0.438411 
1 1:0.610938 2:0.110807 3:0.331583 4:0.0188358 5:0.259368 6:0.447359 7:0.438411 
1 1:0.671238 2:0.167438 3:0.210316 4:0.00720371 5:0.116892 6:0.591863 7:0.623449 
1 1:0.510455 2:0.429804 3:0.121335 4:0.00832992 5:0.132871 6:0.359066 7:0.855271 
1 1:0.807882 2:0.113533 3:0.117292 4:0.00713395 5:0.115884 6:0.402446 7:0.4375 
1 1:0.610598 2:0.125795 3:0.316998 4:0.0123292 5:0.185479 6:0.467136 7:0.401375 
1 1:0.573713 2:0.172141 3:0.310393 4:0.00655231 5:0.107394 6:0.379957 7:0.694026 
1 1:0.678405 2:0.205871 3:0.164281 4:0.00924869 5:0.145511 6:0.534016 7:0.396511 
1 1:0.601944 2:0.288218 3:0.164281 4:0.00798784 5:0.128075 6:0.432363 7:0.42734 
1 1:0.414039 2:0.135852 3:0.518125 4:0.0162218 5:0.231241 6:0.270732 7:0.253433 
1 1:0.789789 2:0.0626514 3:0.187482 4:0.00212783 5:0.0374428 6:0.164192 7:0.471633 
1 1:0.266232 2:0.693086 3:0.121081 4:0.00687933 5:0.112187 6:0.267312 7:0.634839 
1 1:0.266232 2:0.133135 3:0.67962 4:0.0195045 5:0.26626 6:0.247977 7:0.764884 
1 1:0.288047 2:0.105725 3:0.683526 4:0.0046373 5:0.0783307 6:0.209307 7:0.722814 
1 1:0.304385 2:0.643887 3:0.12917 4:0.0118981 5:0.180098 6:0.38562 7:0.529809 
1 1:0.297704 2:0.633096 3:0.147111 4:0.0177918 5:0.248368 6:0.282011 7:0.865151 
1 1:0.342029 2:0.228419 3:0.503152 4:0.00871175 5:0.138166 6:0.314574 7:0.440253 
1 1:0.151459 2:0.0976446 3:0.83832 4:0.0112279 5:0.171599 6:0.188299 7:0.472484 
1 1:0.135269 2:0.0697466 3:0.883539 4:0.00261957 5:0.0457207 6:0.17682 7:0.449161 
1 1:0.157935 2:0.903211 3:0.0278277 4:0.00213783 5:0.0376122 6:0.16821 7:0.637692 
1 1:0.128793 2:0.11508 3:0.845277 4:0.00354629 5:0.0609644 6:0.231348 7:0.449161 
1 1:0.769554 2:0.212813 3:0.0594367 4:0.00927742 5:0.1459 6:0.506055 7:0.367293 
1 1:0.761651 2:0.221325 3:0.0594367 4:0.00890289 5:0.140795 6:0.520065 7:0.357453 
1 1:0.720368 2:0.182407 3:0.142607 4:0.00467616 5:0.0789384 6:0.551236 7:0.460682 
1 1:0.711214 2:0.0936674 3:0.240955 4:0.00465083 5:0.0785422 6:0.567465 7:0.460682 
1 1:0.706637 2:0.197196 3:0.142607 4:0.00590675 5:0.0977919 6:0.522838 7:0.613159 
1 1:0.706637 2:0.202125 3:0.137688 4:0.00676186 5:0.110471 6:0.539065 7:0.525945 
1 1:0.545281 2:0.167135 3:0.345931 4:0.00796456 5:0.127746 6:0.450972 7:0.356242 
1 1:0.564679 2:0.0919241 3:0.400113 4:0.00524926 5:0.0878106 6:0.33406 7:0.436529 
1 1:0.365689 2:0.671992 3:0.0352781 4:0.0032741 5:0.0565345 6:0.309723 7:0.661035 
1 1:0.406739 2:0.605676 3:0.0573273 4:0.00404964 5:0.0690528 6:0.386127 7:0.478239 
1 1:0.423158 2:0.092841 3:0.551231 4:0.00319338 5:0.055213 6:0.317 7:0.661035 
1 1:0.394424 2:0.123788 3:0.551231 4:0.00363074 5:0.06233 6:0.349744 7:0.52094 
1 1:0.587958 2:0.155993 3:0.311198 4:0.00868758 5:0.137833 6:0.429194 7:0.232423 
1 1:0.686242 2:0.289701 3:0.0722432 4:0.00943977 5:0.148096 6:0.497967 7:0.580067 
1 1:0.572438 2:0.116995 3:0.366771 4:0.00610867 5:0.100816 6:0.41544 7:0.588555 
1 1:0.598303 2:0.0668534 3:0.388999 4:0.0190381 5:0.261466 6:0.254972 7:0.659063 
1 1:0.642305 2:0.216096 3:0.192862 4:0.00714132 5:0.11599 6:0.490852 7:0.998418 
1 1:0.689826 2:0.0284339 3:0.329 4:0.0186716 5:0.257658 6:0.579771 7:0.998418 
1 1:0.721507 2:0.181976 3:0.14181 4:0.0212154 5:0.28336 6:0.603171 7:0.935888 
1 1:0.725208 2:0.258375 3:0.0616294 4:0.0124968 5:0.187555 6:0.525664 7:0.311929 
1 1:0.876452 2:0.146037 3:0.0112057 4:0.00733368 5:0.118764 6:0.618112 7:0.363819 
1 1:0.866021 2:0.0561689 3:0.112053 4:0.00749911 5:0.121136 6:0.521041 7:0.493374 
1 1:0.378211 2:0.120673 3:0.571755 4:0.0123782 5:0.186088 6:0.250733 7:0.556094 
1 1:0.406222 2:0.594749 3:0.0687819 4:0.00406047 5:0.0692241 6:0.406789 7:0.431184 
1 1:0.794385 2:0.18963 3:0.0558865 4:0.00937629 5:0.147239 6:0.616048 7:0.665189 
1 1:0.398855 2:0.612645 3:0.0588461 4:0.01222 5:0.184122 6:0.360635 7:0.561689 
1 1:0.394642 2:0.617183 3:0.0588461 4:0.00397539 5:0.0678681 6:0.278473 7:0.692685 
1 1:0.360931 2:0.653487 3:0.0588461 4:0.0148501 5:0.215674 6:0.327023 7:0.501291 
1 1:0.339863 2:0.685254 3:0.0497935 4:0.00553453 5:0.0921658 6:0.207515 7:0.567475 
1 1:0.855326 2:0.0580726 3:0.121644 4:0.0296307 5:0.357751 6:0.445203 7:0.769689 
1 1:0.839149 2:0.0754945 3:0.121644 4:0.0193717 5:0.2649 6:0.588575 7:0.750591 
1 1:0.844541 2:0.0696863 3:0.121644 4:0.029077 5:0.353298 6:0.607691 7:0.619415 
1 1:0.623466 2:0.354242 3:0.0753041 4:0.0178906 5:0.249421 6:0.40697 7:0.888463 
1 1:0.329945 2:0.191126 3:0.553331 4:0.0198575 5:0.269849 6:0.372119 7:0.975797 
1 1:0.273677 2:0.102555 3:0.702125 4:0.00227556 5:0.0399434 6:0.207158 7:0.798396 
1 1:0.351587 2:0.633977 3:0.0883471 4:0.00646293 5:0.106076 6:0.207158 7:0.913727 
1 1:0.354664 2:0.611632 3:0.10733 4:0.00443096 5:0.0750923 6:0.218255 7:0.997648 
1 1:0.544047 2:0.393092 3:0.121869 4:0.00531069 5:0.0887513 6:0.336432 7:0.341848 
1 1:0.677219 2:0.212482 3:0.158959 4:0.0242957 5:0.312354 6:0.485065 7:0.466808 
1 1:0.558844 2:0.403716 3:0.0953751 4:0.00376315 5:0.064465 6:0.415121 7:0.554672 
1 1:0.755749 2:0.197497 3:0.0895446 4:0.00475432 5:0.0801576 6:0.534565 7:0.651566 
1 1:0.766863 2:0.161588 3:0.113423 4:0.0235925 5:0.305928 6:0.455762 7:0.382998 
1 1:0.783533 2:0.167573 3:0.0895446 4:0.0112777 5:0.172236 6:0.509939 7:0.689942 
1 1:0.781608 2:0.0538418 3:0.205058 4:0.00564084 5:0.0937802 6:0.466299 7:0.527086 
1 1:0.731616 2:0.102788 3:0.20994 4:0.00766448 5:0.123495 6:0.192389 7:0.467108 
1 1:0.568004 2:0.278996 3:0.20994 4:0.00444225 5:0.0752703 6:0.458242 7:0.556965 
1 1:0.422571 2:0.513941 3:0.131823 4:0.00367203 5:0.062997 6:0.248782 7:0.657471 
1 1:0.93223 2:0.0615591 3:0.0355502 4:0.00154254 5:0.0274098 6:0.194588 7:0.753794 
1 1:0.270392 2:0.764634 3:0.0452453 4:0.00661092 5:0.108256 6:0.221252 7:0.721933 
1 1:0.342593 2:0.686874 3:0.0452453 4:0.0100796 5:0.156648 6:0.269246 7:0.753794 
1 1:0.213233 2:0.145799 3:0.723924 4:0.000923395 5:0.0165806 6:0.173258 7:0.482653 
1 1:0.494615 2:0.106595 3:0.460747 4:0.0286315 5:0.349674 6:0.285333 7:0.78103 
1 1:0.400353 2:0.208115 3:0.460747 4:0.0115677 5:0.175929 6:0.373056 7:0.400394 
1 1:0.466336 2:0.228419 3:0.36961 4:0.0160006 5:0.228769 6:0.339638 7:0.623439 
1 1:0.456911 2:0.167506 3:0.440494 4:0.00362337 5:0.0622114 6:0.360524 7:0.542371 
1 1:0.441946 2:0.100038 3:0.523871 4:0.0103747 5:0.160538 6:0.3379 7:0.454656 
1 1:0.428013 2:0.220082 3:0.419096 4:0.00487955 5:0.082105 6:0.263806 7:0.985176 
1 1:0.441946 2:0.37514 3:0.249462 4:0.0178489 5:0.248977 6:0.399644 7:0.89633 
1 1:0.339772 2:0.650242 3:0.0848174 4:0.0059717 5:0.0987661 6:0.267923 7:0.985176 
1 1:0.265403 2:0.315738 3:0.498368 4:0.0128336 5:0.191693 6:0.312671 7:0.351357 
1 1:0.291176 2:0.333086 3:0.453377 4:0.0056284 5:0.0935907 6:0.212733 7:0.351357 
1 1:0.68464 2:0.23044 3:0.133076 4:0.0057369 5:0.0952319 6:0.48259 7:0.639234 
1 1:0.611441 2:0.351723 3:0.090734 4:0.00393435 5:0.0672116 6:0.437675 7:0.485116 
1 1:0.577656 2:0.388109 3:0.090734 4:0.00911802 5:0.143734 6:0.507543 7:0.456098 
1 1:0.617072 2:0.345659 3:0.090734 4:0.00496252 5:0.0833912 6:0.442666 7:0.507888 
1 1:0.601388 2:0.219281 3:0.233642 4:0.0129972 5:0.193689 6:0.336448 7:0.419273 
1 1:0.70319 2:0.184395 3:0.159076 4:0.00365927 5:0.0627913 6:0.385664 7:0.901045 
1 1:0.596761 2:0.18938 3:0.26844 4:0.0092233 5:0.145166 6:0.43488 7:0.647462 
1 1:0.564369 2:0.184395 3:0.308209 4:0.00265637 5:0.046336 6:0.295435 7:0.904348 
1 1:0.875177 2:0.141017 3:0.017583 4:0.00418538 5:0.0712108 6:0.257758 7:0.633458 
1 1:0.392351 2:0.149831 3:0.52748 4:0.0173437 5:0.243551 6:0.315783 7:0.622217 
1 1:0.445544 2:0.603728 3:0.017583 4:0.00765319 5:0.123335 6:0.359302 7:0.621026 
1 1:0.565967 2:0.245831 3:0.245211 4:0.00922632 5:0.145206 6:0.469677 7:0.715737 
1 1:0.554554 2:0.417913 3:0.0858235 4:0.0134388 5:0.199033 6:0.398869 7:0.97885 
1 1:0.526021 2:0.294998 3:0.239081 4:0.0300874 5:0.361381 6:0.515196 7:0.951523 
1 1:0.380775 2:0.28113 3:0.408947 4:0.00956333 5:0.14976 6:0.324214 7:0.991322 
1 1:0.522169 2:0.0937099 3:0.443999 4:0.00321601 5:0.0555843 6:0.382053 7:0.877112 
1 1:0.473225 2:0.146422 3:0.443999 4:0.011839 5:0.179354 6:0.507372 7:0.991322 
1 1:0.484101 2:0.134709 3:0.443999 4:0.0046473 5:0.0784867 6:0.391693 7:0.877112 
1 1:0.438058 2:0.0862913 3:0.541757 4:0.00500234 5:0.0840075 6:0.410652 7:0.56251 
1 1:0.609956 2:0.391574 3:0.0525796 4:0.0327301 5:0.381672 6:0.514946 7:0.945558 
1 1:0.62394 2:0.316271 3:0.11267 4:0.01938 5:0.264985 6:0.57072 7:0.886641 
1 1:0.80573 2:0.165666 3:0.0676021 4:0.013717 5:0.202365 6:0.614099 7:0.586403 
1 1:0.296205 2:0.0869108 3:0.693529 4:0.00198811 5:0.0350657 6:0.265975 7:0.256827 
1 1:0.296205 2:0.0935962 3:0.68686 4:0.00334752 5:0.0577336 6:0.252221 7:0.256827 
1 1:0.450268 2:0.202357 3:0.412868 4:0.00581935 5:0.096477 6:0.373869 7:0.428101 
1 1:0.411835 2:0.243748 3:0.412868 4:0.00710073 5:0.115403 6:0.313313 7:0.443916 
1 1:0.377674 2:0.33113 3:0.362407 4:0.00496271 5:0.0833941 6:0.332236 7:0.704066 
1 1:0.420376 2:0.28514 3:0.362407 4:0.00719037 5:0.116699 6:0.347376 7:0.443916 
1 1:0.808353 2:0.118601 3:0.111731 4:0.00428778 5:0.0728329 6:0.377836 7:0.534073 
1 1:0.759408 2:0.171314 3:0.111731 4:0.013767 5:0.20296 6:0.605578 7:0.514404 
1 1:0.3942 2:0.510357 3:0.165877 4:0.0180783 5:0.251416 6:0.495473 7:0.992643 
1 1:0.388876 2:0.544764 3:0.137277 4:0.0135798 5:0.200724 6:0.368057 7:0.992643 
1 1:0.574472 2:0.0872603 3:0.394244 4:0.00363747 5:0.0624391 6:0.386386 7:0.448481 
1 1:0.607834 2:0.0872603 3:0.358403 4:0.00249678 5:0.043666 6:0.432852 7:0.290839 
1 1:0.56494 2:0.395241 3:0.0972808 4:0.0140229 5:0.205999 6:0.403283 7:0.448481 
1 1:0.584005 2:0.441437 3:0.0307204 4:0.00762979 5:0.123002 6:0.407507 7:0.993784 
1 1:0.280645 2:0.190519 3:0.606897 4:0.00820136 5:0.131074 6:0.323004 7:0.823941 
1 1:0.751478 2:0.272833 3:0.018987 4:0.00485742 5:0.0817615 6:0.439892 7:0.473114 
1 1:0.574737 2:0.272833 3:0.208855 4:0.0097564 5:0.152348 6:0.434671 7:0.493594 
1 1:0.775044 2:0.247454 3:0.018987 4:0.0048387 5:0.0814706 6:0.486887 7:0.473114 
1 1:0.62776 2:0.355317 3:0.0696185 4:0.0132706 5:0.197006 6:0.481665 7:0.388523 
1 1:0.718486 2:0.144665 3:0.182273 4:0.0196721 5:0.267968 6:0.396032 7:0.846743 
1 1:0.612442 2:0.258874 3:0.182273 4:0.0185982 5:0.256891 6:0.32084 7:0.607113 
1 1:0.591233 2:0.289329 3:0.174679 4:0.0100813 5:0.15667 6:0.527615 7:0.5936 
1 1:0.598303 2:0.228419 3:0.227842 4:0.00698365 5:0.113705 6:0.49002 7:0.408092 
1 1:0.702395 2:0.180773 3:0.163543 4:0.0113082 5:0.172627 6:0.64094 7:0.759149 
1 1:0.845582 2:0.0737498 3:0.116476 4:0.00671819 5:0.109832 6:0.43933 7:0.673076 
1 1:0.828462 2:0.141353 3:0.0674326 4:0.0114027 5:0.173832 6:0.555657 7:0.630806 
1 1:0.302933 2:0.0968689 3:0.676368 4:0.00449329 5:0.0760732 6:0.275207 7:0.330287 
1 1:0.309596 2:0.089693 3:0.676368 4:0.00521162 5:0.0872316 6:0.301781 7:0.455277 
1 1:0.810391 2:0.163156 3:0.0650977 4:0.00875369 5:0.138744 6:0.62608 7:0.566444 
1 1:0.864928 2:0.0978941 3:0.0716076 4:0.00810748 5:0.129758 6:0.663675 7:0.462174 
1 1:0.485547 2:0.433706 3:0.144203 4:0.0130549 5:0.194391 6:0.376441 7:0.415329 
1 1:0.694951 2:0.104089 3:0.248031 4:0.0148168 5:0.215287 6:0.495414 7:0.397221 
1 1:0.582194 2:0.329616 3:0.144203 4:0.0122443 5:0.184425 6:0.504932 7:0.564482 
1 1:0.512596 2:0.483433 3:0.0655433 4:0.0112612 5:0.172025 6:0.375087 7:0.394999 
1 1:0.739211 2:0.201821 3:0.102996 4:0.00344973 5:0.0593969 6:0.340324 7:0.997357 
1 1:0.482089 2:0.520981 3:0.0608625 4:0.00601479 5:0.099412 6:0.413713 7:0.997357 
1 1:0.59104 2:0.333241 3:0.131087 4:0.00443314 5:0.0751268 6:0.487101 7:0.431164 
1 1:0.425169 2:0.545406 3:0.0976472 4:0.0085453 5:0.135865 6:0.291556 7:0.99957 
1 1:0.446811 2:0.522098 3:0.0976472 4:0.0121159 5:0.182825 6:0.42199 7:0.383668 
1 1:0.429498 2:0.559391 3:0.0790471 4:0.0130573 5:0.19442 6:0.3913 7:0.69743 
1 1:0.672534 2:0.23005 3:0.14647 4:0.00504966 5:0.0847377 6:0.526721 7:0.735476 
1 1:0.686168 2:0.21047 3:0.151352 4:0.00482049 5:0.0811883 6:0.510608 7:0.585412 
1 1:0.489297 2:0.122503 3:0.450593 4:0.0116385 5:0.176826 6:0.373383 7:0.505896 
1 1:0.485741 2:0.206725 3:0.370403 4:0.0123129 5:0.185278 6:0.379683 7:0.331558 
1 1:0.567496 2:0.13016 3:0.358947 4:0.0141077 5:0.207 6:0.266267 7:0.504865 
1 1:0.549724 2:0.149302 3:0.358947 4:0.0115381 5:0.175554 6:0.278869 7:0.590797 
1 1:0.427341 2:0.495051 3:0.145542 4:0.0274066 5:0.339514 6:0.3546 7:0.329897 
1 1:0.741846 2:0.0521109 3:0.249501 4:0.0454911 5:0.465068 6:0.358889 7:0.297776 
1 1:0.533045 2:0.0737964 3:0.452178 4:0.00497226 5:0.0835415 6:0.350724 7:0.571829 
1 1:0.513467 2:0.0579835 3:0.488984 4:0.00323493 5:0.0558943 6:0.33771 7:0.548266 
1 1:0.518361 2:0.100153 3:0.441663 4:0.00518816 5:0.0868718 6:0.368075 7:0.759149 
1 1:0.498785 2:0.0843384 3:0.478468 4:0.00297344 5:0.0515965 6:0.355062 7:0.652176 
1 1:0.473225 2:0.515405 3:0.0759479 4:0.00498336 5:0.0837137 6:0.406153 7:0.425148 
1 1:0.728819 2:0.26356 3:0.0525796 4:0.00370845 5:0.0635846 6:0.319394 7:0.442985 
1 1:0.734257 2:0.257702 3:0.0525796 4:0.00502888 5:0.0844181 6:0.497731 7:0.464736 
1 1:0.358175 2:0.0464575 3:0.667307 4:0.0201039 5:0.272335 6:0.217719 7:0.480681 
1 1:0.375429 2:0.0371668 3:0.658039 4:0.0021999 5:0.0386639 6:0.240658 7:0.684187 
1 1:0.651325 2:0.235556 3:0.163762 4:0.00892405 5:0.141085 6:0.567169 7:0.591388 
1 1:0.657953 2:0.228419 3:0.163762 4:0.0121847 5:0.183684 6:0.561294 7:0.565503 
1 1:0.598303 2:0.152279 3:0.303789 4:0.0116493 5:0.176962 6:0.469969 7:0.415669 
1 1:0.581335 2:0.243646 3:0.23088 4:0.00884935 5:0.14006 6:0.485007 7:0.434617 
1 1:0.564369 2:0.286284 3:0.206577 4:0.0275144 5:0.340421 6:0.394778 7:0.304522 
1 1:0.863414 2:0.125191 3:0.0460068 4:0.00881883 5:0.13964 6:0.551353 7:0.370796 
1 1:0.863414 2:0.0922462 3:0.078868 4:0.0131839 5:0.195956 6:0.437483 7:0.45875 
1 1:0.747173 2:0.250381 3:0.0460068 4:0.0139445 5:0.20507 6:0.529663 7:0.369044 
1 1:0.917358 2:0.059587 3:0.0534927 4:0.0122161 5:0.184075 6:0.644761 7:0.742132 
1 1:0.533339 2:0.423911 3:0.102631 4:0.00348108 5:0.059906 6:0.345057 7:0.566564 
1 1:0.72441 2:0.214013 3:0.106737 4:0.00422776 5:0.0718835 6:0.334896 7:0.514314 
1 1:0.594482 2:0.370407 3:0.0903157 4:0.00408388 5:0.0695983 6:0.351831 7:0.535484 
1 1:0.422518 2:0.563842 3:0.0821052 4:0.00913732 5:0.143997 6:0.355218 7:0.580828 
1 1:0.493249 2:0.236957 3:0.332181 4:0.00286694 5:0.0498357 6:0.365522 7:0.591718 
1 1:0.653802 2:0.134489 3:0.261912 4:0.00894868 5:0.141422 6:0.560526 7:0.591718 
1 1:0.178973 2:0.0509048 3:0.855384 4:0.00167129 5:0.0296338 6:0.13519 7:0.887482 
1 1:0.193515 2:0.0352413 3:0.855384 4:0.0115486 5:0.175687 6:0.209307 7:0.42737 
1 1:0.168065 2:0.105725 3:0.81242 4:0.000548292 5:0.00990857 6:0.141635 7:0.55259 
1 1:0.178973 2:0.0939772 3:0.81242 4:0.00562834 5:0.0935898 6:0.189972 7:0.6148 
1 1:0.701198 2:0.0882005 3:0.257168 4:0.0104371 5:0.161356 6:0.502552 7:0.387242 
1 1:0.669699 2:0.128909 3:0.2504 4:0.00407432 5:0.0694452 6:0.457884 7:0.366502 
1 1:0.707497 2:0.0814164 3:0.257168 4:0.00827522 5:0.132107 6:0.530469 7:0.460502 
1 1:0.682298 2:0.0882005 3:0.277471 4:0.00248459 5:0.0434622 6:0.496969 7:0.460502 
1 1:0.77595 2:0.132756 3:0.132421 4:0.00334816 5:0.0577442 6:0.581278 7:0.993744 
1 1:0.29739 2:0.609114 3:0.171368 4:0.00790781 5:0.126945 6:0.272801 7:0.448921 
1 1:0.319142 2:0.613019 3:0.144105 4:0.0054052 5:0.0901954 6:0.269588 7:0.456638 
1 1:0.121598 2:0.349032 3:0.619645 4:0.00443917 5:0.0752224 6:0.154706 7:0.998068 
1 1:0.130517 2:0.579584 3:0.380091 4:0.0145878 5:0.212629 6:0.167882 7:0.998068 
1 1:0.335669 2:0.0512337 3:0.686719 4:0.00347717 5:0.0598428 6:0.328628 7:0.850867 
1 1:0.344589 2:0.281786 3:0.447167 4:0.00850618 5:0.135323 6:0.39978 7:0.635 
1 1:0.491382 2:0.560663 3:0.0112973 4:0.0103049 5:0.159621 6:0.367394 7:0.522522 
1 1:0.475607 2:0.549336 3:0.0395433 4:0.00662111 5:0.108407 6:0.339431 7:0.542191 
1 1:0.412506 2:0.571989 3:0.084734 4:0.00639156 5:0.105021 6:0.306806 7:0.524323 
1 1:0.444057 2:0.509694 3:0.11298 4:0.00510692 5:0.085622 6:0.372056 7:0.501792 
1 1:0.68249 2:0.298164 3:0.0678304 4:0.0328098 5:0.382266 6:0.571429 7:0.753303 
1 1:0.745632 2:0.224931 3:0.0730484 4:0.0231646 5:0.301964 6:0.618782 7:0.6977 
1 1:0.701919 2:0.282471 3:0.0626137 4:0.0310306 5:0.368762 6:0.584343 7:0.753303 
1 1:0.392124 2:0.0933467 3:0.584066 4:0.00307597 5:0.0532866 6:0.322722 7:0.433576 
1 1:0.427581 2:0.0763757 3:0.562904 4:0.0094181 5:0.147804 6:0.336689 7:0.602739 
1 1:0.407883 2:0.0763757 3:0.584066 4:0.0073944 5:0.119636 6:0.249393 7:0.766596 
1 1:0.415762 2:0.0806188 3:0.571369 4:0.0220681 5:0.29161 6:0.24241 7:0.576163 
1 1:0.530014 2:0.042431 3:0.486721 4:0.00595369 5:0.0984962 6:0.259869 7:0.472183 
1 1:0.549713 2:0.182452 3:0.325892 4:0.00819417 5:0.130973 6:0.476363 7:0.514494 
1 1:0.530014 2:0.042431 3:0.486721 4:0.005538 5:0.0922184 6:0.252885 7:0.456859 
1 1:0.541833 2:0.190938 3:0.325892 4:0.00737876 5:0.119412 6:0.448428 7:0.732253 
1 1:0.623627 2:0.317058 3:0.112221 4:0.0086359 5:0.137119 6:0.367881 7:0.876251 
1 1:0.64262 2:0.168756 3:0.239744 4:0.00632366 5:0.104015 6:0.494135 7:0.488759 
1 1:0.193774 2:0.067218 3:0.823211 4:0.00518296 5:0.0867923 6:0.16911 7:0.384169 
1 1:0.172969 2:0.881308 3:0.0335242 4:0.00194964 5:0.0344092 6:0.162963 7:0.678001 
1 1:0.784345 2:0.0721326 3:0.183873 4:0.00771423 5:0.124203 6:0.459679 7:0.759689 
1 1:0.776905 2:0.0561031 3:0.207856 4:0.0104965 5:0.162134 6:0.617976 7:0.866662 
1 1:0.635511 2:0.232426 3:0.183873 4:0.0230159 5:0.300576 6:0.387127 7:0.974706 
1 1:0.784345 2:0.0721326 3:0.183873 4:0.0332734 5:0.385698 6:0.400319 7:0.573661 
1 1:0.871288 2:0.140217 3:0.0225591 4:0.00638246 5:0.104887 6:0.694252 7:0.996647 
1 1:0.896487 2:0.0768938 3:0.058652 4:0.0108584 5:0.166842 6:0.381576 7:0.613159 
1 1:0.896487 2:0.113078 3:0.0225591 4:0.00568996 5:0.0945228 6:0.634695 7:0.996647 
1 1:0.896487 2:0.0723697 3:0.0631646 4:0.0053339 5:0.0891063 6:0.210349 7:0.595452 
1 1:0.528292 2:0.153017 3:0.378262 4:0.00555351 5:0.0924548 6:0.436851 7:0.620295 
1 1:0.515938 2:0.465707 3:0.0796335 4:0.00507434 5:0.0851186 6:0.261649 7:0.719661 
1 1:0.503583 2:0.199589 3:0.358354 4:0.0068513 5:0.111777 6:0.420425 7:0.620295 
1 1:0.491228 2:0.133059 3:0.437987 4:0.0133074 5:0.197449 6:0.310924 7:0.838305 
1 1:0.668621 2:0.322473 3:0.0584839 4:0.00842725 5:0.134227 6:0.421128 7:0.703065 
1 1:0.76389 2:0.219868 3:0.0584839 4:0.00677648 5:0.110684 6:0.409065 7:0.703065 
1 1:0.838746 2:0.124592 3:0.0731045 4:0.00614393 5:0.101342 6:0.644288 7:0.407661 
1 1:0.737759 2:0.0813548 3:0.224721 4:0.00363145 5:0.0623415 6:0.469077 7:0.529889 
1 1:0.737759 2:0.131418 3:0.174783 4:0.00531306 5:0.0887876 6:0.520577 7:0.529889 
1 1:0.679652 2:0.131418 3:0.237205 4:0.015925 5:0.227921 6:0.438176 7:0.529889 
1 1:0.650599 2:0.162708 3:0.237205 4:0.0147711 5:0.21476 6:0.469077 7:0.529889 
1 1:0.892288 2:0.0452309 3:0.0947463 4:0.0029955 5:0.0519602 6:0.232683 7:0.935458 
1 1:0.522707 2:0.0949859 3:0.442148 4:0.02975 5:0.358703 6:0.19546 7:0.617953 
1 1:0.556305 2:0.456836 3:0.0451168 4:0.00608892 5:0.100521 6:0.51558 7:0.776065 
1 1:0.613955 2:0.156774 3:0.28249 4:0.00574683 5:0.0953822 6:0.417233 7:0.363829 
1 1:0.60926 2:0.177003 3:0.267357 4:0.00617766 5:0.101846 6:0.438042 7:0.434207 
1 1:0.339745 2:0.0654459 3:0.668166 4:0.0131199 5:0.195181 6:0.255435 7:0.430173 
1 1:0.393363 2:0.0346478 3:0.641286 4:0.0101834 5:0.158021 6:0.321967 7:0.644248 
1 1:0.33617 2:0.0692957 3:0.668166 4:0.00850407 5:0.135294 6:0.239595 7:0.241742 
1 1:0.791493 2:0.217111 3:0.0315816 4:0.0125342 5:0.188016 6:0.504413 7:0.278457 
1 1:0.640301 2:0.370897 3:0.0406055 4:0.00734112 5:0.11887 6:0.482079 7:0.608094 
1 1:0.900686 2:0.104033 3:0.0270704 4:0.0117702 5:0.178489 6:0.374132 7:0.534643 
1 1:0.871288 2:0.15831 3:0.00451127 4:0.00832626 5:0.13282 6:0.604916 7:0.528467 
1 1:0.749084 2:0.0428284 3:0.250983 4:0.00869264 5:0.137903 6:0.365974 7:0.557515 
1 1:0.679493 2:0.112424 3:0.256322 4:0.0169515 5:0.23929 6:0.321917 7:0.76036 
1 1:0.629784 2:0.342627 3:0.0801011 4:0.00501106 5:0.0841425 6:0.383597 7:0.796595 
1 1:0.65464 2:0.299799 3:0.0961202 4:0.0117233 5:0.177898 6:0.52458 7:0.546304 
1 1:0.598303 2:0.291233 3:0.165185 4:0.0122554 5:0.184564 6:0.493153 7:0.401235 
1 1:0.571791 2:0.342627 3:0.142402 4:0.0153633 5:0.221566 6:0.413262 7:0.899874 
1 1:0.593907 2:0.255638 3:0.205412 4:0.0144216 5:0.21069 6:0.493786 7:0.714636 
1 1:0.633468 2:0.312447 3:0.106247 4:0.00730585 5:0.118363 6:0.458723 7:0.698871 
1 1:0.587314 2:0.362156 3:0.106247 4:0.00404887 5:0.0690394 6:0.347689 7:0.921755 
1 1:0.573642 2:0.228419 3:0.254336 4:0.00262399 5:0.0457953 6:0.415121 7:0.464116 
1 1:0.509521 2:0.297474 3:0.254336 4:0.00270299 5:0.0471121 6:0.402006 7:0.610256 
1 1:0.692016 2:0.100928 3:0.254336 4:0.00489949 5:0.0824142 6:0.353918 7:0.67743 
1 1:0.499656 2:0.297474 3:0.264932 4:0.00521579 5:0.0872967 6:0.402006 7:0.681534 
1 1:0.927369 2:0.0353221 3:0.0669432 4:0.00481934 5:0.0811691 6:0.147914 7:0.664138 
1 1:0.884733 2:0.113031 3:0.035233 4:0.0126425 5:0.18935 6:0.174076 7:0.662406 
1 1:0.989119 2:0.0102665 3:0.0256008 4:0.00528793 5:0.088402 6:0.31035 7:0.755065 
1 1:0.979586 2:0.015399 3:0.0307204 4:0.00844623 5:0.13449 6:0.373714 7:0.786155 
1 1:0.715318 2:0.153592 3:0.176774 4:0.00517431 5:0.0866584 6:0.478244 7:0.340827 
1 1:0.547197 2:0.137602 3:0.373331 4:0.00634142 5:0.104279 6:0.368929 7:0.601628 
1 1:0.93049 2:0.0715529 3:0.0274504 4:0.00733721 5:0.118815 6:0.658822 7:0.710082 
1 1:0.390572 2:0.553836 3:0.126406 4:0.00787235 5:0.126444 6:0.170372 7:0.809187 
1 1:0.4603 2:0.145499 3:0.458805 4:0.0183664 5:0.254459 6:0.297836 7:0.996567 
1 1:0.37314 2:0.553836 3:0.145132 4:0.00784356 5:0.126037 6:0.212861 7:0.799167 
1 1:0.802098 2:0.145473 3:0.0916458 4:0.00952448 5:0.149238 6:0.663225 7:0.648593 
1 1:0.62437 2:0.336885 3:0.0916458 4:0.00311227 5:0.0538828 6:0.455295 7:0.538597 
1 1:0.802098 2:0.191412 3:0.0458236 4:0.0136896 5:0.202037 6:0.650624 7:0.722173 
1 1:0.638588 2:0.306259 3:0.10692 4:0.00729438 5:0.118199 6:0.35448 7:0.550518 
1 1:0.763801 2:0.238153 3:0.040339 4:0.0139568 5:0.205217 6:0.360181 7:0.267997 
1 1:0.859763 2:0.0988562 3:0.0761968 4:0.0105225 5:0.162474 6:0.637526 7:0.591808 
1 1:0.805524 2:0.148285 3:0.0851605 4:0.00979 5:0.152797 6:0.197473 7:0.855061 
1 1:0.560765 2:0.173841 3:0.322608 4:0.00554101 5:0.0922643 6:0.524177 7:0.997277 
1 1:0.489443 2:0.250654 3:0.322608 4:0.00837012 5:0.133431 6:0.480926 7:0.747377 
1 1:0.655096 2:0.217905 3:0.177316 4:0.00306821 5:0.0531583 6:0.462439 7:0.610346 
1 1:0.607177 2:0.200703 3:0.245955 4:0.0326403 5:0.381002 6:0.471877 7:0.660654 
1 1:0.581459 2:0.286965 3:0.187538 4:0.0150608 5:0.218102 6:0.374293 7:0.392006 
1 1:0.774405 2:0.0494767 3:0.217149 4:0.0115127 5:0.175231 6:0.529018 7:0.299718 
1 1:0.654961 2:0.267175 3:0.128316 4:0.00557025 5:0.0927093 6:0.280643 7:0.611177 
1 1:0.873383 2:0.134437 3:0.0260752 4:0.0108838 5:0.167171 6:0.627016 7:0.439842 
1 1:0.349807 2:0.601231 3:0.122923 4:0.0148872 5:0.216102 6:0.252086 7:0.439842 
1 1:0.387947 2:0.567622 3:0.115474 4:0.00844033 5:0.134409 6:0.359648 7:0.439842 
1 1:0.709095 2:0.322172 3:0.0153028 4:0.00529793 5:0.0885561 6:0.595138 7:0.863419 
1 1:0.746453 2:0.25697 3:0.0402077 4:0.00434183 5:0.0736875 6:0.378155 7:0.536115 
1 1:0.718382 2:0.206584 3:0.120622 4:0.00542066 5:0.0904317 6:0.411328 7:0.340337 
1 1:0.743667 2:0.215585 3:0.0844811 4:0.00410074 5:0.0698662 6:0.458197 7:0.596743 
1 1:0.707922 2:0.177088 3:0.161282 4:0.00606853 5:0.100216 6:0.331472 7:0.908772 
1 1:0.729369 2:0.223285 3:0.0921612 4:0.00633898 5:0.104243 6:0.47087 7:0.602378 
1 1:0.707922 2:0.192487 3:0.145922 4:0.0149367 5:0.216674 6:0.356817 7:0.721282 
1 1:0.341823 2:0.119521 3:0.611994 4:0.00306924 5:0.0531746 6:0.404192 7:0.866522 
1 1:0.375116 2:0.613541 3:0.0834544 4:0.0104134 5:0.161045 6:0.394356 7:0.464866 
1 1:0.256741 2:0.776887 3:0.0476882 4:0.00788364 5:0.126605 6:0.253373 7:0.444427 
1 1:0.782032 2:0.175298 3:0.0834544 4:0.00631616 5:0.103904 6:0.243536 7:0.444427 
1 1:0.551587 2:0.247537 3:0.258957 4:0.00885468 5:0.140132 6:0.321199 7:0.455898 
1 1:0.579616 2:0.416587 3:0.0602227 4:0.00790506 5:0.126907 6:0.450381 7:0.428321 
1 1:0.644322 2:0.174545 3:0.23214 4:0.0249009 5:0.317798 6:0.42275 7:0.401776 
1 1:0.668332 2:0.310304 3:0.0709322 4:0.0119245 5:0.18043 6:0.311028 7:0.474435 
1 1:0.578294 2:0.407274 3:0.0709322 4:0.013291 5:0.197251 6:0.42275 7:0.527937 
1 1:0.28017 2:0.258212 3:0.539887 4:0.00667158 5:0.109147 6:0.183807 7:0.990721 
1 1:0.318927 2:0.23647 3:0.519936 4:0.00292067 5:0.0507247 6:0.325734 7:0.453465 
1 1:0.304763 2:0.0610246 3:0.710158 4:0.0059474 5:0.0984015 6:0.0955584 7:0.759549 
1 1:0.500718 2:0.533964 3:0.0278988 4:0.00762466 5:0.122928 6:0.308994 7:0.639494 
1 1:0.307123 2:0.162731 3:0.60617 4:0.0238599 5:0.308385 6:0.120668 7:0.998859 
1 1:0.33727 2:0.667683 3:0.0701052 4:0.00365164 5:0.0626678 6:0.285654 7:0.392397 
1 1:0.357663 2:0.636936 3:0.078868 4:0.00408779 5:0.0696595 6:0.25312 7:0.636992 
1 1:0.789999 2:0.0702824 3:0.179644 4:0.00733939 5:0.118845 6:0.64715 7:0.722343 
1 1:0.426655 2:0.171314 3:0.4692 4:0.00562873 5:0.0935955 6:0.337674 7:0.528397 
1 1:0.283765 2:0.316494 3:0.477889 4:0.00756285 5:0.122047 6:0.254039 7:0.892086 
1 1:0.334989 2:0.26423 3:0.474993 4:0.0232227 5:0.302504 6:0.294661 7:0.98994 
1 1:0.346003 2:0.173224 3:0.553935 4:0.018006 5:0.250649 6:0.303393 7:0.362908 
1 1:0.822581 2:0.147028 3:0.0680901 4:0.00385676 5:0.0659675 6:0.340502 7:0.652236 
1 1:0.817705 2:0.136526 3:0.0838044 4:0.00707374 5:0.115012 6:0.569532 7:0.81285 
1 1:0.793327 2:0.178533 3:0.0680901 4:0.00302622 5:0.0524664 6:0.275683 7:0.607974 
1 1:0.783576 2:0.189036 3:0.0680901 4:0.00765383 5:0.123343 6:0.539283 7:0.578305 
1 1:0.749121 2:0.167506 3:0.126579 4:0.00701161 5:0.11411 6:0.527615 7:0.351087 
1 1:0.659573 2:0.253798 3:0.136705 4:0.0059667 5:0.0986914 6:0.506729 7:0.325973 
1 1:0.668999 2:0.137051 3:0.243032 4:0.00460697 5:0.0778561 6:0.448247 7:0.498128 
1 1:0.498725 2:0.250703 3:0.312589 4:0.0130806 5:0.194704 6:0.296235 7:0.751261 
1 1:0.522002 2:0.133708 3:0.404281 4:0.0126735 5:0.189731 6:0.299674 7:0.700402 
1 1:0.518123 2:0.384411 3:0.158378 4:0.00473778 5:0.0798992 6:0.430341 7:0.844331 
1 1:0.487085 2:0.484693 3:0.0916923 4:0.00778137 5:0.125157 6:0.454411 7:0.700402 
1 1:0.414285 2:0.357743 3:0.29653 4:0.0108303 5:0.16648 6:0.378155 7:0.494625 
1 1:0.451712 2:0.171314 3:0.442281 4:0.00550581 5:0.0917294 6:0.374008 7:0.494625 
1 1:0.535924 2:0.0957342 3:0.427204 4:0.00547695 5:0.0912901 6:0.440353 7:0.511151 
1 1:0.397782 2:0.0415305 3:0.629672 4:0.00326436 5:0.0563757 6:0.266725 7:0.384809 
1 1:0.332228 2:0.240878 3:0.501253 4:0.00351962 5:0.0605319 6:0.335081 7:0.34418 
1 1:0.77183 2:0.193809 3:0.0759479 4:0.00860108 5:0.136638 6:0.491159 7:0.460042 
1 1:0.739696 2:0.173045 3:0.131182 4:0.00597388 5:0.0987996 6:0.439892 7:0.405629 
1 1:0.643291 2:0.242262 3:0.165703 4:0.0170692 5:0.240573 6:0.479767 7:0.686649 
1 1:0.739696 2:0.124592 3:0.179512 4:0.00729745 5:0.118243 6:0.542426 7:0.686649 
1 1:0.676549 2:0.24616 3:0.126087 4:0.0128138 5:0.191451 6:0.579203 7:0.755445 
1 1:0.730975 2:0.138863 3:0.174645 4:0.0104249 5:0.161196 6:0.460319 7:0.550508 
1 1:0.798246 2:0.0482995 3:0.192712 4:0.00789634 5:0.126784 6:0.420571 7:0.576664 
1 1:0.759005 2:0.181125 3:0.102379 4:0.00606622 5:0.100181 6:0.405665 7:0.569857 
1 1:0.585047 2:0.0489464 3:0.421101 4:0.00511782 5:0.0857885 6:0.401849 7:0.637862 
1 1:0.590728 2:0.0489464 3:0.414997 4:0.009632 5:0.150683 6:0.477377 7:0.557816 
1 1:0.528238 2:0.116248 3:0.414997 4:0.00591201 5:0.0978703 6:0.371639 7:0.435438 
1 1:0.545281 2:0.0978941 3:0.414997 4:0.0102229 5:0.158541 6:0.416955 7:0.560378 
1 1:0.420376 2:0.413911 3:0.233959 4:0.0239965 5:0.309634 6:0.389009 7:0.422856 
1 1:0.463079 2:0.390917 3:0.211021 4:0.0139427 5:0.205048 6:0.283034 7:0.688651 
1 1:0.565565 2:0.441507 3:0.050462 4:0.0104747 5:0.161848 6:0.354946 7:0.647902 
1 1:0.565565 2:0.28054 3:0.211021 4:0.00703232 5:0.114412 6:0.347376 7:0.457039 
1 1:0.640721 2:0.260046 3:0.150726 4:0.0037182 5:0.0637416 6:0.540147 7:0.706909 
1 1:0.21328 2:0.68174 3:0.189285 4:0.0107026 5:0.164821 6:0.184436 7:0.798266 
1 1:0.311167 2:0.667683 3:0.0981475 4:0.00402309 5:0.0686289 6:0.248059 7:0.394208 
1 1:0.253042 2:0.737616 3:0.0908338 4:0.0173091 5:0.243178 6:0.227143 7:0.632437 
1 1:0.299547 2:0.687531 3:0.0908338 4:0.0165579 5:0.234967 6:0.298337 7:0.632357 
1 1:0.354506 2:0.569148 3:0.149877 4:0.0211793 5:0.283006 6:0.317072 7:0.304092 
1 1:0.760203 2:0.240624 3:0.0417416 4:0.0147036 5:0.213976 6:0.524076 7:0.573821 
1 1:0.745632 2:0.256317 3:0.0417416 4:0.00799886 5:0.128231 6:0.407846 7:0.417681 
1 1:0.57078 2:0.418477 3:0.0678304 4:0.0123682 5:0.185963 6:0.524076 7:0.602679 
1 1:0.61935 2:0.371397 3:0.0626137 4:0.00722955 5:0.117264 6:0.442284 7:0.417681 
1 1:0.438711 2:0.44779 3:0.180469 4:0.00410542 5:0.0699409 6:0.303407 7:0.515315 
1 1:0.430311 2:0.560868 3:0.0766998 4:0.00411286 5:0.0700595 6:0.281073 7:0.838885 
1 1:0.774694 2:0.0859391 3:0.180469 4:0.00455003 5:0.0769642 6:0.608638 7:0.999299 
1 1:0.766294 2:0.0904632 3:0.184981 4:0.0108567 5:0.16682 6:0.601194 7:0.838885 
1 1:0.718424 2:0.266824 3:0.0604893 4:0.0067523 5:0.11033 6:0.487581 7:0.608354 
1 1:0.836668 2:0.103091 3:0.0967818 4:0.00829215 5:0.132345 6:0.552458 7:0.589336 
1 1:0.60018 2:0.406301 3:0.0483909 4:0.00797091 5:0.127836 6:0.31291 7:0.573881 
1 1:0.825407 2:0.145541 3:0.0665385 4:0.0102834 5:0.159338 6:0.587391 7:0.585452 
1 1:0.536513 2:0.45324 3:0.0699671 4:0.00691594 5:0.112719 6:0.475909 7:0.54195 
1 1:0.471383 2:0.447844 3:0.145316 4:0.00518315 5:0.0867943 6:0.489231 7:0.55172 
1 1:0.526493 2:0.383096 3:0.150698 4:0.0173034 5:0.243116 6:0.351578 7:0.54195 
1 1:0.471383 2:0.442448 3:0.150698 4:0.0104319 5:0.161288 6:0.382661 7:0.977298 
1 1:0.603293 2:0.386967 3:0.0643321 4:0.00971087 5:0.15174 6:0.442841 7:0.996276 
1 1:0.625749 2:0.249916 3:0.176913 4:0.00732175 5:0.118593 6:0.462745 7:0.636221 
1 1:0.805402 2:0.12899 3:0.10454 4:0.00468981 5:0.0791509 6:0.542359 7:0.705878 
1 1:0.685633 2:0.298287 3:0.0643321 4:0.0118146 5:0.179048 6:0.668414 7:0.998999 
1 1:0.785228 2:0.195123 3:0.0602433 4:0.00729951 5:0.118272 6:0.69945 7:0.994475 
1 1:0.625623 2:0.376309 3:0.0509746 4:0.00287028 5:0.0498912 6:0.12596 7:0.847934 
1 1:0.616995 2:0.0882704 3:0.347555 4:0.00233654 5:0.0409731 6:0.175662 7:0.619355 
1 1:0.884796 2:0.107844 3:0.040339 4:0.00486416 5:0.0818658 6:0.511797 7:0.451714 
1 1:0.500951 2:0.485294 3:0.0761968 4:0.0129157 5:0.192697 6:0.456327 7:0.995376 
1 1:0.863936 2:0.143791 3:0.0268926 4:0.0089985 5:0.142104 6:0.545078 7:0.607373 
1 1:0.908677 2:0.0835681 3:0.0388995 4:0.00600043 5:0.0991967 6:0.585079 7:0.295804 
1 1:0.774181 2:0.228419 3:0.0388995 4:0.00719967 5:0.116833 6:0.56674 7:0.73975 
1 1:0.939714 2:0.0501401 3:0.0388995 4:0.00598382 5:0.0989489 6:0.511721 7:0.475006 
1 1:0.748317 2:0.256274 3:0.0388995 4:0.00625672 5:0.103022 6:0.410855 7:0.995906 
1 1:0.663858 2:0.330168 3:0.0559247 4:0.00595862 5:0.0985699 6:0.435905 7:0.519969 
1 1:0.480883 2:0.441028 3:0.141908 4:0.0159703 5:0.22843 6:0.313274 7:0.579616 
1 1:0.48969 2:0.403091 3:0.17029 4:0.00552947 5:0.0920892 6:0.258636 7:0.714356 
1 1:0.428045 2:0.497936 3:0.141908 4:0.0118609 5:0.179631 6:0.3523 7:0.452705 
1 1:0.458867 2:0.459998 3:0.146638 4:0.00456292 5:0.0771661 6:0.328884 7:0.988459 
1 1:0.675858 2:0.214781 3:0.15813 4:0.00841096 5:0.134 6:0.515177 7:0.766596 
1 1:0.571395 2:0.37331 3:0.112221 4:0.0134132 5:0.198725 6:0.346839 7:0.990761 
1 1:0.604634 2:0.245464 3:0.204038 4:0.00974922 5:0.152253 6:0.481509 7:0.557095 
1 1:0.599885 2:0.286375 3:0.168331 4:0.011055 5:0.16938 6:0.456259 7:0.990761 
1 1:0.675426 2:0.0778696 3:0.295159 4:0.00995119 5:0.154945 6:0.412836 7:0.681785 
1 1:0.689886 2:0.0545092 3:0.302926 4:0.0295575 5:0.357166 6:0.47051 7:0.77091 
1 1:0.682657 2:0.101231 3:0.26409 4:0.00365248 5:0.0626812 6:0.400019 7:0.992142 
1 1:0.697117 2:0.0778696 3:0.271857 4:0.013906 5:0.204614 6:0.380793 7:0.811929 
1 1:0.419091 2:0.162461 3:0.486155 4:0.00509871 5:0.0854947 6:0.298576 7:0.773593 
1 1:0.392015 2:0.195787 3:0.482001 4:0.00872708 5:0.138377 6:0.23687 7:0.975056 
1 1:0.345601 2:0.245775 3:0.482001 4:0.00547747 5:0.0912978 6:0.319145 7:0.773593 
1 1:0.40362 2:0.145799 3:0.519396 4:0.00925581 5:0.145607 6:0.319145 7:0.975056 
1 1:0.724923 2:0.238645 3:0.0816144 4:0.00425893 5:0.0723764 6:0.443633 7:0.491192 
1 1:0.579309 2:0.354559 3:0.122422 4:0.00547388 5:0.0912433 6:0.359464 7:0.746166 
1 1:0.930086 2:0.0407082 3:0.058652 4:0.00589726 5:0.0976493 6:0.750087 7:0.534853 
1 1:0.904887 2:0.0814164 3:0.0451168 4:0.0120762 5:0.18233 6:0.724031 7:0.998328 
1 1:0.797376 2:0.202854 3:0.0394818 4:0.00482729 5:0.0812935 6:0.305074 7:0.826133 
1 1:0.880068 2:0.0643194 3:0.0888338 4:0.0147326 5:0.214312 6:0.663384 7:0.734735 
1 1:0.811157 2:0.138535 3:0.0888338 4:0.00535218 5:0.0893858 6:0.358006 7:0.410344 
1 1:0.875474 2:0.0940059 3:0.0641571 4:0.008573 5:0.136249 6:0.6756 7:0.734735 
1 1:0.496641 2:0.24352 3:0.321991 4:0.00689831 5:0.112462 6:0.404679 7:0.369495 
1 1:0.543966 2:0.158571 3:0.355886 4:0.0197969 5:0.269235 6:0.367394 7:0.44784 
1 1:0.559742 2:0.181224 3:0.316343 4:0.0174971 5:0.245207 6:0.525855 7:0.995846 
1 1:0.52819 2:0.164235 3:0.367183 4:0.0396545 5:0.429629 6:0.339431 7:0.423727 
1 1:0.815324 2:0.143425 3:0.0794804 4:0.0212986 5:0.284172 6:0.535339 7:0.407521 
1 1:0.78573 2:0.111553 3:0.143063 4:0.0079693 5:0.127813 6:0.548454 7:0.445518 
1 1:0.852316 2:0.159361 3:0.0238441 4:0.00794366 5:0.127452 6:0.391077 7:0.587934 
1 1:0.748738 2:0.183266 3:0.111271 4:0.0136418 5:0.201466 6:0.417307 7:0.487848 
1 1:0.576268 2:0.320378 3:0.159785 4:0.00322178 5:0.055679 6:0.353634 7:0.635961 
1 1:0.493636 2:0.456836 3:0.112441 4:0.00982199 5:0.153225 6:0.368282 7:0.557725 
1 1:0.356388 2:0.101718 3:0.614106 4:0.00253781 5:0.0443541 6:0.321917 7:0.548206 
1 1:0.326564 2:0.556769 3:0.192242 4:0.0017878 5:0.0316378 6:0.242614 7:0.548206 
1 1:0.351418 2:0.690608 3:0.032041 4:0.00515597 5:0.086377 6:0.273454 7:0.548206 
1 1:0.430951 2:0.465759 3:0.170882 4:0.00455856 5:0.0770981 6:0.388004 7:0.548206 
1 1:0.719065 2:0.180459 3:0.145949 4:0.00596561 5:0.0986752 6:0.504558 7:0.998408 
1 1:0.633022 2:0.234109 3:0.184868 4:0.00642042 5:0.105449 6:0.360063 7:0.71884 
1 1:0.587736 2:0.165826 3:0.301628 4:0.00523964 5:0.0876622 6:0.35605 7:0.71884 
1 1:0.816366 2:0.207506 3:0.0144402 4:0.010569 5:0.163081 6:0.26427 7:0.453135 
1 1:0.807405 2:0.20268 3:0.0288817 4:0.0212206 5:0.283411 6:0.403268 7:0.453135 
1 1:0.426484 2:0.12722 3:0.513365 4:0.00655616 5:0.107451 6:0.357405 7:0.747488 
1 1:0.464069 2:0.0867409 3:0.513365 4:0.00626691 5:0.103173 6:0.381199 7:0.776025 
1 1:0.472059 2:0.413328 3:0.179018 4:0.0039423 5:0.0673379 6:0.413039 7:0.457049 
1 1:0.411462 2:0.250173 3:0.406861 4:0.01298 5:0.193479 6:0.234013 7:0.877713 
1 1:0.431661 2:0.467714 3:0.168169 4:0.0095634 5:0.149761 6:0.332477 7:0.36475 
1 1:0.401363 2:0.261049 3:0.406861 4:0.00715992 5:0.11626 6:0.278769 7:0.907681 
1 1:0.46126 2:0.337356 3:0.2664 4:0.0087417 5:0.138578 6:0.545932 7:0.987388 
1 1:0.389477 2:0.569289 3:0.112168 4:0.00899888 5:0.142109 6:0.389765 7:0.823881 
1 1:0.604829 2:0.147593 3:0.301453 4:0.0100472 5:0.156219 6:0.580635 7:0.899463 
1 1:0.546096 2:0.435752 3:0.0771154 4:0.010596 5:0.163433 6:0.424469 7:0.790719 
1 1:0.788851 2:0.18202 3:0.0694203 4:0.0139331 5:0.204935 6:0.643535 7:0.774994 
1 1:0.639727 2:0.224848 3:0.186902 4:0.00480632 5:0.0809672 6:0.374786 7:0.788677 
1 1:0.729201 2:0.101718 3:0.213602 4:0.00472636 5:0.0797212 6:0.533392 7:0.750581 
1 1:0.435852 2:0.500576 3:0.130888 4:0.00511051 5:0.0856765 6:0.398564 7:0.484845 
1 1:0.323039 2:0.311037 3:0.441141 4:0.00203562 5:0.0358743 6:0.178591 7:0.809317 
1 1:0.318527 2:0.490856 3:0.266623 4:0.0165291 5:0.23465 6:0.206588 7:0.809317 
1 1:0.502133 2:0.166458 3:0.392958 4:0.00617311 5:0.101778 6:0.41351 7:0.558036 
1 1:0.569109 2:0.127618 3:0.359751 4:0.00909872 5:0.143471 6:0.349582 7:0.494745 
1 1:0.784755 2:0.0753026 3:0.18027 4:0.00537154 5:0.0896824 6:0.539734 7:0.847393 
1 1:0.784755 2:0.128015 3:0.127692 4:0.00408163 5:0.0695619 6:0.285654 7:0.659163 
1 1:0.819714 2:0.030121 3:0.187782 4:0.00705912 5:0.1148 6:0.682267 7:0.643207 
1 1:0.819714 2:0.030121 3:0.187782 4:0.00529485 5:0.0885082 6:0.428187 7:0.915058 
1 1:0.75566 2:0.0810519 3:0.205793 4:0.0242213 5:0.31168 6:0.363085 7:0.544653 
1 1:0.741976 2:0.235786 3:0.0661476 4:0.0234684 5:0.304783 6:0.350957 7:0.681204 
1 1:0.728292 2:0.13263 3:0.183744 4:0.00826118 5:0.131911 6:0.466169 7:0.991802 
1 1:0.728292 2:0.272628 3:0.0440984 4:0.0110566 5:0.169401 6:0.551062 7:0.700893 
1 1:0.90076 2:0.101298 3:0.0297183 4:0.00487435 5:0.0820247 6:0.566301 7:0.99983 
1 1:0.762441 2:0.256226 3:0.0237744 4:0.00653641 5:0.107161 6:0.286787 7:0.814472 
1 1:0.790105 2:0.101298 3:0.148593 4:0.0144924 5:0.211517 6:0.52707 7:0.567715 
1 1:0.812236 2:0.0715049 3:0.154536 4:0.011073 5:0.169611 6:0.316209 7:0.525294 
1 1:0.536513 2:0.172662 3:0.349837 4:0.0129352 5:0.192935 6:0.431505 7:0.517897 
1 1:0.526493 2:0.253598 3:0.279868 4:0.0126229 5:0.189109 6:0.364899 7:0.578245 
1 1:0.506453 2:0.107914 3:0.446714 4:0.0163578 5:0.232754 6:0.209484 7:0.516746 
1 1:0.703311 2:0.165175 3:0.178117 4:0.0106286 5:0.163859 6:0.647667 7:0.992353 
1 1:0.765487 2:0.129462 3:0.146947 4:0.0114869 5:0.174902 6:0.36111 7:0.600416 
1 1:0.761341 2:0.133926 3:0.146947 4:0.012958 5:0.193213 6:0.294981 7:0.51078 
1 1:0.340469 2:0.412049 3:0.321659 4:0.00821033 5:0.1312 6:0.329317 7:0.564192 
1 1:0.282249 2:0.474751 3:0.321659 4:0.0027605 5:0.0480691 6:0.24823 7:0.585122 
1 1:0.311358 2:0.322473 3:0.442281 4:0.00563341 5:0.0936663 6:0.347747 7:0.425879 
1 1:0.311358 2:0.317994 3:0.446749 4:0.00909173 5:0.143376 6:0.222428 7:0.998729 
1 1:0.720898 2:0.261426 3:0.0632166 4:0.0107642 5:0.165622 6:0.551448 7:0.756987 
1 1:0.801811 2:0.142596 3:0.0948242 4:0.00597632 5:0.0988359 6:0.473214 7:0.504865 
1 1:0.567092 2:0.137509 3:0.35205 4:0.00214354 5:0.0377088 6:0.353553 7:0.589025 
1 1:0.469205 2:0.242934 3:0.35205 4:0.00396859 5:0.067759 6:0.357325 7:0.485766 
1 1:0.588372 2:0.2521 3:0.214888 4:0.0111412 5:0.170488 6:0.485577 7:0.472664 
1 1:0.641857 2:0.33039 3:0.0793382 4:0.00328282 5:0.0566771 6:0.427025 7:0.413857 
1 1:0.641857 2:0.281444 3:0.128161 4:0.0100933 5:0.156829 6:0.532763 7:0.456508 
1 1:0.641857 2:0.159076 3:0.25022 4:0.00710253 5:0.115429 6:0.386744 7:0.449772 
1 1:0.664581 2:0.312036 3:0.0732343 4:0.0159995 5:0.228756 6:0.492481 7:0.998449 
1 1:0.666919 2:0.282163 3:0.100518 4:0.0129089 5:0.192613 6:0.469379 7:0.815032 
1 1:0.69499 2:0.231778 3:0.120622 4:0.00551517 5:0.091871 6:0.527431 7:0.535784 
1 1:0.657563 2:0.211623 3:0.180933 4:0.0290194 5:0.352831 6:0.577189 7:0.920073 
1 1:0.676276 2:0.2217 3:0.150778 4:0.0135017 5:0.199788 6:0.535725 7:0.771931 
1 1:0.438367 2:0.314543 3:0.313749 4:0.00504953 5:0.0847358 6:0.314574 7:0.412026 
1 1:0.452275 2:0.396923 3:0.216637 4:0.00356341 5:0.0612419 6:0.376206 7:0.589996 
1 1:0.598303 2:0.0898697 3:0.366042 4:0.00371628 5:0.06371 6:0.437838 7:0.387322 
1 1:0.541557 2:0.453781 3:0.0640095 4:0.00303667 5:0.0526387 6:0.31206 7:0.63512 
1 1:0.873522 2:0.0962563 3:0.0640095 4:0.00515488 5:0.0863598 6:0.466716 7:0.450372 
1 1:0.533045 2:0.467531 3:0.0594367 4:0.00198401 5:0.0349948 6:0.281883 7:0.585562 
1 1:0.571348 2:0.421695 3:0.0640095 4:0.00546746 5:0.0911447 6:0.43654 7:0.469361 
1 1:0.567692 2:0.108322 3:0.38052 4:0.00609026 5:0.100541 6:0.29132 7:0.784273 
1 1:0.554573 2:0.122451 3:0.38052 4:0.0103239 5:0.15987 6:0.341705 7:0.99956 
1 1:0.580811 2:0.386192 3:0.0892576 4:0.00362491 5:0.0622353 6:0.434725 7:0.599105 
1 1:0.567692 2:0.40032 3:0.0892576 4:0.00211962 5:0.0373031 6:0.469607 7:0.399974 
1 1:0.573662 2:0.187662 3:0.294966 4:0.0226802 5:0.297424 6:0.313014 7:0.483404 
1 1:0.584223 2:0.216096 3:0.255259 4:0.0103064 5:0.15964 6:0.547011 7:0.664888 
1 1:0.663425 2:0.0909881 3:0.294966 4:0.014096 5:0.206862 6:0.242816 7:0.672055 
1 1:0.665499 2:0.343758 3:0.0406055 4:0.00341959 5:0.0589069 6:0.295963 7:0.722023 
1 1:0.913286 2:0.067847 3:0.0496295 4:0.00915232 5:0.144202 6:0.303407 7:0.560608 
1 1:0.858689 2:0.149263 3:0.0270704 4:0.0130654 5:0.19452 6:0.69053 7:0.636791 
1 1:0.519675 2:0.0869108 3:0.453461 4:0.00631885 5:0.103944 6:0.395267 7:0.323551 
1 1:0.476223 2:0.133708 3:0.453461 4:0.0107362 5:0.165259 6:0.389765 7:0.507577 
1 1:0.494845 2:0.113652 3:0.453461 4:0.0106071 5:0.163578 6:0.40627 7:0.724816 
1 1:0.627862 2:0.152809 3:0.271505 4:0.00615483 5:0.101504 6:0.547745 7:0.734265 
1 1:0.556919 2:0.210113 3:0.290559 4:0.00430952 5:0.0731774 6:0.390551 7:0.539408 
1 1:0.596825 2:0.167135 3:0.290559 4:0.011082 5:0.169726 6:0.449499 7:0.590517 
1 1:0.583523 2:0.181461 3:0.290559 4:0.00352962 5:0.0606936 6:0.347323 7:0.960372 
1 1:0.704347 2:0.205576 3:0.136705 4:0.0121052 5:0.182692 6:0.344651 7:0.768077 
1 1:0.532555 2:0.390595 3:0.136705 4:0.00697057 5:0.113514 6:0.395405 7:0.768077 
1 1:0.704347 2:0.308364 3:0.0341763 4:0.00671139 5:0.109731 6:0.361569 7:0.994925 
1 1:0.729798 2:0.191871 3:0.123035 4:0.00577197 5:0.0957621 6:0.446159 7:0.994925 
1 1:0.657563 2:0.226738 3:0.165856 4:0.00793718 5:0.127361 6:0.440353 7:0.893107 
1 1:0.699669 2:0.171314 3:0.175907 4:0.0126126 5:0.188982 6:0.162533 7:0.997267 
1 1:0.676276 2:0.302318 3:0.0703635 4:0.00325737 5:0.0562618 6:0.390594 7:0.767677 
1 1:0.699669 2:0.29224 3:0.055285 4:0.00628609 5:0.103458 6:0.461086 7:0.997267 
1 1:0.433097 2:0.365469 3:0.268613 4:0.00694107 5:0.113085 6:0.282915 7:0.582379 
1 1:0.482213 2:0.153882 3:0.426904 4:0.00354668 5:0.0609701 6:0.263128 7:0.582379 
1 1:0.620629 2:0.12022 3:0.311784 4:0.0147634 5:0.214669 6:0.409553 7:0.592199 
1 1:0.642953 2:0.0432793 3:0.364548 4:0.00549811 5:0.0916117 6:0.421424 7:0.691404 
1 1:0.616163 2:0.370277 3:0.0671537 4:0.0114771 5:0.174778 6:0.611381 7:0.997448 
1 1:0.665278 2:0.250058 3:0.134307 4:0.00468462 5:0.0790695 6:0.42934 7:0.39576 
1 1:0.783093 2:0.149263 3:0.108281 4:0.00964214 5:0.150818 6:0.530469 7:0.472404 
1 1:0.581503 2:0.441005 3:0.0338373 4:0.00244971 5:0.0428765 6:0.402049 7:0.621427 
1 1:0.505907 2:0.359589 3:0.196259 4:0.0121713 5:0.183516 6:0.357381 7:0.779058 
1 1:0.567659 2:0.302241 3:0.187125 4:0.00912154 5:0.143782 6:0.418927 7:0.487448 
1 1:0.557982 2:0.333508 3:0.166333 4:0.00924626 5:0.145477 6:0.41035 7:0.487448 
1 1:0.52895 2:0.44294 3:0.0883649 4:0.006033 5:0.0996857 6:0.388908 7:0.316164 
1 1:0.548304 2:0.427307 3:0.0831674 4:0.00710657 5:0.115487 6:0.474677 7:0.394859 
1 1:0.612325 2:0.0169902 3:0.423673 4:0.0020564 5:0.0362284 6:0.269521 7:0.752172 
1 1:0.533449 2:0.130255 3:0.395428 4:0.00463159 5:0.0782408 6:0.283504 7:0.996076 
1 1:0.591292 2:0.0396433 3:0.423673 4:0.00191809 5:0.0338694 6:0.386037 7:0.752172 
1 1:0.512416 2:0.209541 3:0.338939 4:0.00742749 5:0.120111 6:0.372056 7:0.996076 
1 1:0.659778 2:0.198625 3:0.19152 4:0.0163505 5:0.232671 6:0.390855 7:0.545554 
1 1:0.616745 2:0.231728 3:0.204727 4:0.0054633 5:0.0910825 6:0.270985 7:0.79124 
1 1:0.62904 2:0.238349 3:0.184916 4:0.0139675 5:0.205343 6:0.423547 7:0.483114 
1 1:0.684368 2:0.1589 3:0.204727 4:0.00586199 5:0.0971182 6:0.456238 7:0.648763 
1 1:0.465447 2:0.548204 3:0.0515871 4:0.00315882 5:0.0546464 6:0.287619 7:0.878363 
1 1:0.355001 2:0.232727 3:0.484917 4:0.0639326 5:0.554746 6:0.364228 7:0.950202 
1 1:0.441437 2:0.563719 3:0.0619042 4:0.00218772 5:0.0384572 6:0.287619 7:0.986827 
1 1:0.276183 2:0.42764 3:0.375168 4:0.00983988 5:0.153463 6:0.290547 7:0.433696 
1 1:0.395782 2:0.206092 3:0.467675 4:0.00579839 5:0.0961612 6:0.388069 7:0.923527 
1 1:0.38143 2:0.267919 3:0.421423 4:0.00250152 5:0.0437455 6:0.311748 7:0.560868 
1 1:0.393105 2:0.153378 3:0.523131 4:0.0305816 5:0.365268 6:0.292858 7:0.924888 
1 1:0.420669 2:0.0742158 3:0.572485 4:0.0196835 5:0.268084 6:0.296931 7:0.446328 
1 1:0.388511 2:0.0544243 3:0.626772 4:0.0328099 5:0.382267 6:0.227711 7:0.394148 
1 1:0.795765 2:0.196912 3:0.0471401 4:0.0054338 5:0.0906317 6:0.476623 7:0.575352 
1 1:0.693377 2:0.259924 3:0.0942801 4:0.0128954 5:0.192449 6:0.49607 7:0.713065 
1 1:0.781138 2:0.236295 3:0.0235693 4:0.00799585 5:0.128188 6:0.256236 7:0.654638 
1 1:0.128444 2:0.11948 3:0.841263 4:0.00237334 5:0.0415923 6:0.184436 7:0.338715 
1 1:0.144758 2:0.0913677 3:0.851779 4:0.0120025 5:0.181407 6:0.149732 7:0.503323 
1 1:0.161073 2:0.0632545 3:0.862294 4:0.0052408 5:0.0876795 6:0.19022 7:0.657001 
1 1:0.151285 2:0.0773104 3:0.858789 4:0.00572298 5:0.0950224 6:0.149732 7:0.657001 
1 1:0.616948 2:0.150605 3:0.285428 4:0.00458889 5:0.0775737 6:0.277392 7:0.776455 
1 1:0.626271 2:0.311251 3:0.115173 4:0.00817224 5:0.130666 6:0.426121 7:0.961283 
1 1:0.789294 2:0.086105 3:0.164619 4:0.00768609 5:0.123804 6:0.393308 7:0.8962 
1 1:0.762645 2:0.136333 3:0.143147 4:0.0111011 5:0.169973 6:0.60589 7:0.8962 
1 1:0.822606 2:0.0215266 3:0.193248 4:0.00318934 5:0.0551479 6:0.263397 7:0.704596 
1 1:0.822606 2:0.0287012 3:0.186091 4:0.00703822 5:0.114497 6:0.52322 7:0.6668 
1 1:0.685504 2:0.0334267 3:0.328664 4:0.00543637 5:0.0906719 6:0.390551 7:0.560298 
1 1:0.857875 2:0.136368 3:0.0408079 4:0.0137377 5:0.202612 6:0.60636 7:0.579026 
1 1:0.712261 2:0.286375 3:0.047609 4:0.0127195 5:0.190295 6:0.4268 7:0.331608 
1 1:0.800896 2:0.150006 3:0.0884168 4:0.00540668 5:0.0902183 6:0.438022 7:0.858074 
1 1:0.547655 2:0.368197 3:0.142827 4:0.00396974 5:0.0677771 6:0.292129 7:0.689652 
1 1:0.375429 2:0.44135 3:0.254875 4:0.00465852 5:0.0786628 6:0.254039 7:0.998799 
1 1:0.386214 2:0.29617 3:0.388103 4:0.00169726 5:0.0300817 6:0.30183 7:0.580327 
1 1:0.677387 2:0.0638794 3:0.307007 4:0.00773405 5:0.124485 6:0.258818 7:0.998799 
1 1:0.380822 2:0.545881 3:0.144815 4:0.00729425 5:0.118197 6:0.306609 7:0.580327 
1 1:0.465747 2:0.536783 3:0.0626561 4:0.00228435 5:0.0400927 6:0.300476 7:0.725296 
1 1:0.497561 2:0.154182 3:0.410116 4:0.00327462 5:0.0565432 6:0.403864 7:0.997808 
1 1:0.529374 2:0.0970773 3:0.4329 4:0.00886647 5:0.140294 6:0.26758 7:0.785995 
1 1:0.715318 2:0.283554 3:0.0471401 4:0.00961065 5:0.150396 6:0.327539 7:0.999279 
1 1:0.726287 2:0.271739 3:0.0471401 4:0.011813 5:0.179028 6:0.507413 7:0.58306 
1 1:0.704347 2:0.318998 3:0.0235693 4:0.00512372 5:0.0858803 6:0.346984 7:0.727168 
1 1:0.797593 2:0.218573 3:0.0235693 4:0.00772462 5:0.124351 6:0.614366 7:0.412916 
1 1:0.867648 2:0.151121 3:0.015594 4:0.00672787 5:0.109973 6:0.749138 7:0.732483 
1 1:0.901517 2:0.114643 3:0.015594 4:0.00569746 5:0.0946367 6:0.684811 7:0.474115 
1 1:0.911195 2:0.0521109 3:0.0675734 4:0.00703155 5:0.114399 6:0.731984 7:0.977619 
1 1:0.916033 2:0.0521109 3:0.0623745 4:0.00970087 5:0.151606 6:0.684811 7:0.888353 
1 1:0.549466 2:0.0766402 3:0.4317 4:0.00287714 5:0.0500041 6:0.42093 7:0.384809 
1 1:0.515979 2:0.117214 3:0.427204 4:0.00641362 5:0.105348 6:0.235426 7:0.44749 
1 1:0.45319 2:0.15328 3:0.458682 4:0.0297578 5:0.358765 6:0.257687 7:0.80191 
1 1:0.604173 2:0.384122 3:0.0662241 4:0.00339831 5:0.0585605 6:0.383521 7:0.454396 
1 1:0.780303 2:0.194433 3:0.0662241 4:0.00956981 5:0.149847 6:0.551335 7:0.724255 
1 1:0.696642 2:0.251339 3:0.0993355 4:0.0224183 5:0.294947 6:0.563043 7:0.724255 
1 1:0.285751 2:0.662714 3:0.13041 4:0.0129398 5:0.192989 6:0.142674 7:0.535164 
1 1:0.662487 2:0.261478 3:0.125912 4:0.0072216 5:0.11715 6:0.235426 7:0.686689 
1 1:0.796369 2:0.135919 3:0.10733 4:0.00429836 5:0.0730003 6:0.553819 7:0.606432 
1 1:0.633359 2:0.31148 3:0.10733 4:0.00249896 5:0.0437024 6:0.241558 7:0.998769 
1 1:0.796369 2:0.141582 3:0.101681 4:0.00345646 5:0.059506 6:0.595764 7:0.632177 
1 1:0.643875 2:0.31148 3:0.0960327 4:0.00250428 5:0.0437924 6:0.274183 7:0.635991 
1 1:0.701718 2:0.118929 3:0.225959 4:0.00588873 5:0.0975201 6:0.530515 7:0.798176 
1 1:0.479652 2:0.297103 3:0.286794 4:0.00762447 5:0.122926 6:0.281711 7:0.741061 
1 1:0.555292 2:0.210847 3:0.291574 4:0.00269606 5:0.0469963 6:0.352696 7:0.480701 
1 1:0.546393 2:0.191679 3:0.320254 4:0.00823938 5:0.131606 6:0.3803 7:0.741061 
1 1:0.559742 2:0.177304 3:0.320254 4:0.00231538 5:0.0406152 6:0.364526 7:0.480701 
1 1:0.284588 2:0.751876 3:0.0427204 4:0.00422956 5:0.0719113 6:0.224502 7:0.641756 
1 1:0.240403 2:0.818498 3:0.0237334 4:0.00782298 5:0.125746 6:0.232335 7:0.997287 
1 1:0.857875 2:0.0681842 3:0.10882 4:0.00415653 5:0.0707534 6:0.583915 7:0.999139 
0.9321608524774329 1:0.788233 2:0.12955 3:0.122422 4:0.0298463 5:0.359469 6:0.56147 7:0.496126 
1 1:0.883198 2:0.0613659 3:0.0884168 4:0.0117199 5:0.177855 6:0.589526 7:0.999139 
1 1:0.697941 2:0.147169 3:0.201847 4:0.00601646 5:0.0994369 6:0.521476 7:0.970201 
1 1:0.469015 2:0.136112 3:0.458805 4:0.00351347 5:0.0604314 6:0.371225 7:0.496857 
1 1:0.43851 2:0.201821 3:0.426034 4:0.0215351 5:0.286474 6:0.382813 7:0.496857 
1 1:0.442868 2:0.164273 3:0.458805 4:0.003191 5:0.0551747 6:0.359638 7:0.567385 
1 1:0.381855 2:0.323853 3:0.365171 4:0.018443 5:0.255265 6:0.317149 7:0.400965 
1 1:0.55169 2:0.401614 3:0.105158 4:0.00333983 5:0.0576083 6:0.376544 7:0.693576 
1 1:0.444481 2:0.517078 3:0.105158 4:0.00465724 5:0.0786417 6:0.372413 7:0.709661 
1 1:0.598303 2:0.391574 3:0.0650977 4:0.0141372 5:0.207349 6:0.319945 7:0.545273 
1 1:0.864928 2:0.0913677 3:0.0781175 4:0.006703 5:0.109608 6:0.438102 7:0.553331 
1 1:0.586184 2:0.3981 3:0.0716076 4:0.0155002 5:0.223124 6:0.309203 7:0.725436 
1 1:0.792213 2:0.20884 3:0.039058 4:0.00819026 5:0.130919 6:0.42736 7:0.601938 
1 1:0.784527 2:0.105853 3:0.150042 4:0.0105822 5:0.163254 6:0.534645 7:0.712464 
1 1:0.675896 2:0.194991 3:0.177828 4:0.00574029 5:0.0952836 6:0.479628 7:0.38562 
1 1:0.433229 2:0.276802 3:0.356915 4:0.00768185 5:0.123742 6:0.36643 7:0.982493 
1 1:0.489647 2:0.21604 3:0.356915 4:0.00403547 5:0.068827 6:0.410878 7:0.653427 
1 1:0.42696 2:0.290305 3:0.350181 4:0.00891783 5:0.141 6:0.260866 7:0.930133 
1 1:0.483378 2:0.229544 3:0.350181 4:0.00410946 5:0.070005 6:0.305314 7:0.601067 
1 1:0.809315 2:0.222621 3:0.00693916 4:0.0108228 5:0.166381 6:0.637094 7:0.746967 
1 1:0.809315 2:0.194793 3:0.0346972 4:0.00800188 5:0.128273 6:0.528316 7:0.348465 
1 1:0.88037 2:0.146095 3:0.00693916 4:0.00917194 5:0.144468 6:0.648545 7:0.487928 
1 1:0.809315 2:0.194793 3:0.0346972 4:0.00758914 5:0.122423 6:0.631369 7:0.390965 
1 1:0.323425 2:0.063116 3:0.688022 4:0.0057317 5:0.0951544 6:0.253976 7:0.51013 
1 1:0.340169 2:0.644681 3:0.089937 4:0.0117964 5:0.178819 6:0.328178 7:0.99949 
1 1:0.315053 2:0.0901644 3:0.670036 4:0.00563898 5:0.0937515 6:0.198325 7:0.756226 
1 1:0.310866 2:0.644681 3:0.121416 4:0.0129516 5:0.193135 6:0.287368 7:0.514634 
1 1:0.542099 2:0.133625 3:0.382775 4:0.0168788 5:0.238496 6:0.0852418 7:0.99985 
1 1:0.586638 2:0.441989 3:0.027341 4:0.00413729 5:0.0704481 6:0.539207 7:0.498569 
1 1:0.538918 2:0.0719517 3:0.44771 4:0.00982629 5:0.153281 6:0.119078 7:0.91624 
1 1:0.450556 2:0.0230986 3:0.591365 4:0.00232808 5:0.0408295 6:0.268108 7:0.998208 
1 1:0.446981 2:0.0269483 3:0.591365 4:0.00578518 5:0.0959612 6:0.176231 7:0.998208 
1 1:0.388208 2:0.0859254 3:0.595675 4:0.013932 5:0.204921 6:0.235612 7:0.99975 
1 1:0.388208 2:0.597181 3:0.0857087 4:0.00625845 5:0.103048 6:0.398251 7:0.498619 
1 1:0.404166 2:0.0257779 3:0.63853 4:0.0259796 5:0.327306 6:0.217934 7:0.786085 
1 1:0.850948 2:0.0988137 3:0.0857087 4:0.00755746 5:0.12197 6:0.36643 7:0.496056 
1 1:0.393416 2:0.589578 3:0.0876978 4:0.00601826 5:0.0994637 6:0.245058 7:0.530589 
1 1:0.451041 2:0.527517 3:0.0876978 4:0.00590925 5:0.0978292 6:0.296131 7:0.664658 
1 1:0.407823 2:0.175839 3:0.484917 4:0.0067986 5:0.111008 6:0.291876 7:0.542611 
1 1:0.369406 2:0.279274 3:0.423012 4:0.00532127 5:0.088913 6:0.274851 7:0.685108 
1 1:0.476018 2:0.22636 3:0.361263 4:0.0333165 5:0.386015 6:0.294252 7:0.443556 
1 1:0.588393 2:0.224148 3:0.242747 4:0.00338824 5:0.0583968 6:0.318088 7:0.997087 
1 1:0.612178 2:0.198532 3:0.242747 4:0.00397141 5:0.0678039 6:0.423496 7:0.650254 
1 1:0.594338 2:0.365042 3:0.0958208 4:0.00668587 5:0.109358 6:0.360251 7:0.37503 
1 1:0.588393 2:0.371446 3:0.0958208 4:0.00789916 5:0.126824 6:0.381332 7:0.51084 
1 1:0.705585 2:0.239972 3:0.101066 4:0.00886987 5:0.140341 6:0.329203 7:0.846002 
1 1:0.700634 2:0.245305 3:0.101066 4:0.00878402 5:0.139161 6:0.689067 7:0.846002 
1 1:0.814518 2:0.17598 3:0.0478728 4:0.0053382 5:0.0891723 6:0.166826 7:0.98934 
1 1:0.814518 2:0.101322 3:0.122343 4:0.00604204 5:0.0998197 6:0.579352 7:0.98934 
1 1:0.731801 2:0.20175 3:0.111029 4:0.00652577 5:0.107004 6:0.562666 7:0.330717 
1 1:0.764098 2:0.118267 3:0.159605 4:0.00662034 5:0.108395 6:0.430987 7:0.570267 
1 1:0.764098 2:0.173923 3:0.10409 4:0.0105806 5:0.163233 6:0.562666 7:0.673567 
1 1:0.943841 2:0.0846947 4:0.0149131 5:0.216401 6:0.654623 7:0.673817 
1 1:0.579238 2:0.45427 3:0.0230403 4:0.0189896 5:0.260964 6:0.521561 7:0.673817 
1 1:0.958139 2:0.0692957 4:0.0167295 5:0.236857 6:0.616606 7:0.482884 
1 1:0.600685 2:0.423472 3:0.0307204 4:0.0204141 5:0.275444 6:0.420179 7:0.481052 
1 1:0.465381 2:0.58736 3:0.0126001 4:0.0042856 5:0.0727984 6:0.292052 7:0.959591 
1 1:0.488837 2:0.549467 3:0.0251989 4:0.00415467 5:0.0707227 6:0.38041 7:0.560358 
1 1:0.441924 2:0.593677 3:0.0314982 4:0.00239713 5:0.0419932 6:0.240076 7:0.894869 
1 1:0.465381 2:0.57473 3:0.0251989 4:0.00192232 5:0.0339422 6:0.307644 7:0.560358 
1 1:0.367389 2:0.214903 3:0.489388 4:0.00591913 5:0.0979775 6:0.165527 7:0.691554 
1 1:0.386214 2:0.194629 3:0.489388 4:0.00579236 5:0.0960703 6:0.175538 7:0.527246 
1 1:0.457747 2:0.0527125 3:0.5541 4:0.00315035 5:0.0545086 6:0.409119 7:0.52056 
1 1:0.676997 2:0.291466 3:0.0804155 4:0.0413551 5:0.440385 6:0.464275 7:0.42692 
1 1:0.845822 2:0.0870671 3:0.102931 4:0.0377268 5:0.416976 6:0.288921 7:0.4375 
1 1:0.797915 2:0.193483 3:0.0482487 4:0.0382674 5:0.420575 6:0.307498 7:0.4375 
1 1:0.607882 2:0.101684 3:0.343968 4:0.0105812 5:0.163241 6:0.466169 7:0.366542 
1 1:0.599671 2:0.128208 3:0.326329 4:0.00774835 5:0.124687 6:0.480722 7:0.366542 
1 1:0.770591 2:0.229005 3:0.0421708 4:0.0171051 5:0.240965 6:0.614179 7:0.58341 
1 1:0.599387 2:0.368039 3:0.0874079 4:0.0127764 5:0.190993 6:0.645337 7:0.998609 
1 1:0.220288 2:0.810486 3:0.0533342 4:0.00542437 5:0.0904882 6:0.283695 7:0.365171 
1 1:0.222901 2:0.754202 3:0.10667 4:0.0110667 5:0.169531 6:0.255904 7:0.496527 
1 1:0.831732 2:0.137895 3:0.0673697 4:0.00722897 5:0.117256 6:0.221164 7:0.508848 
1 1:0.836957 2:0.0787974 3:0.120705 4:0.0151078 5:0.218642 6:0.211901 7:0.532021 
1 1:0.419702 2:0.0721326 3:0.575601 4:0.00289041 5:0.0502242 6:0.373936 7:0.50039 
1 1:0.352726 2:0.130525 3:0.589306 4:0.00516911 5:0.0865789 6:0.28348 7:0.497007 
1 1:0.317643 2:0.226701 3:0.53106 4:0.00591194 5:0.0978694 6:0.260866 7:0.501772 
1 1:0.540407 2:0.263413 3:0.255133 4:0.0278187 5:0.342965 6:0.321905 7:0.381326 
1 1:0.529772 2:0.366486 3:0.163741 4:0.0209193 5:0.280453 6:0.318763 7:0.540509 
1 1:0.626733 2:0.349058 3:0.076965 4:0.0137225 5:0.20243 6:0.455683 7:0.237888 
1 1:0.531208 2:0.496028 3:0.0329856 4:0.0104266 5:0.161219 6:0.552444 7:0.99984 
1 1:0.736953 2:0.227785 3:0.0795242 4:0.00865161 5:0.137336 6:0.554102 7:0.8751 
1 1:0.733428 2:0.197414 3:0.113605 4:0.00626243 5:0.103106 6:0.591593 7:0.607063 
1 1:0.801588 2:0.144808 3:0.092857 4:0.0102842 5:0.159348 6:0.4834 7:0.565163 
1 1:0.883222 2:0.0568885 3:0.092857 4:0.0207939 5:0.279215 6:0.60257 7:0.446599 
1 1:0.762543 2:0.146243 3:0.133371 4:0.0374784 5:0.415307 6:0.519745 7:0.547836 
1 1:0.696587 2:0.242346 3:0.108363 4:0.0278963 5:0.343611 6:0.468165 7:0.368464 
1 1:0.719866 2:0.221454 3:0.104197 4:0.0190758 5:0.261856 6:0.591955 7:0.669182 
1 1:0.693293 2:0.322784 3:0.0316691 4:0.0169643 5:0.23943 6:0.622306 7:0.719951 
1 1:0.751577 2:0.095974 3:0.195293 4:0.0147912 5:0.214991 6:0.365123 7:0.264244 
1 1:0.740883 2:0.188109 3:0.114879 4:0.0306874 5:0.366095 6:0.355645 7:0.305403 
1 1:0.508441 2:0.105802 3:0.446684 4:0.00587892 5:0.0973737 6:0.414469 7:0.310308 
1 1:0.563163 2:0.190573 3:0.303339 4:0.00543168 5:0.0906002 6:0.399109 7:0.620015 
1 1:0.653521 2:0.101368 3:0.29525 4:0.0104582 5:0.161633 6:0.479194 7:0.831158 
1 1:0.762645 2:0.132746 3:0.146726 4:0.0173953 5:0.244109 6:0.679703 7:0.850326 
1 1:0.666038 2:0.240378 3:0.143147 4:0.00724077 5:0.117426 6:0.59408 7:0.850326 
1 1:0.606076 2:0.301368 3:0.146726 4:0.0115823 5:0.176114 6:0.55865 7:0.685148 
1 1:0.709241 2:0.247746 3:0.0893847 4:0.00734073 5:0.118866 6:0.641366 7:0.621016 
1 1:0.750816 2:0.230984 3:0.0614408 4:0.0161424 5:0.230357 6:0.451861 7:0.297546 
1 1:0.754391 2:0.150141 3:0.138242 4:0.0234584 5:0.30469 6:0.43602 7:0.297546 
1 1:0.437204 2:0.176686 3:0.452508 4:0.0236763 5:0.3067 6:0.42592 7:0.71896 
1 1:0.693308 2:0.168611 3:0.185437 4:0.0133739 5:0.198251 6:0.443846 7:0.297416 
1 1:0.728819 2:0.110973 3:0.204782 4:0.00854613 5:0.135877 6:0.395244 7:0.310358 
1 1:0.754579 2:0.0998745 3:0.188177 4:0.00603781 5:0.0997565 6:0.354148 7:0.51004 
1 1:0.772965 2:0.123614 3:0.144746 4:0.0112518 5:0.171905 6:0.487072 7:0.404048 
1 1:0.71807 2:0.182734 3:0.144746 4:0.0193136 5:0.264304 6:0.42515 7:0.310678 
1 1:0.696307 2:0.158325 3:0.192473 4:0.0120772 5:0.182343 6:0.565664 7:0.644158 
1 1:0.459172 2:0.131569 3:0.473912 4:0.00342498 5:0.0589949 6:0.38375 7:0.670814 
1 1:0.503287 2:0.4678 3:0.0911373 4:0.0108897 5:0.167247 6:0.344651 7:0.696529 
1 1:0.782791 2:0.197129 3:0.0608625 4:0.00946869 5:0.148486 6:0.518002 7:0.423457 
1 1:0.686915 2:0.244063 3:0.117042 4:0.00851503 5:0.135445 6:0.610703 7:0.617483 
1 1:0.852518 2:0.126725 3:0.0561804 4:0.0103142 5:0.159744 6:0.59139 7:0.272522 
1 1:0.752285 2:0.234676 3:0.0561804 4:0.0110791 5:0.16969 6:0.521864 7:0.429292 
1 1:0.51827 2:0.232727 3:0.309521 4:0.00395609 5:0.067559 6:0.459991 7:0.510981 
1 1:0.322268 2:0.595723 3:0.158001 4:0.011464 5:0.174612 6:0.309852 7:0.428081 
1 1:0.325464 2:0.337462 3:0.412177 4:0.00798745 5:0.12807 6:0.335356 7:0.579486 
1 1:0.765709 2:0.117936 3:0.158205 4:0.0114628 5:0.174597 6:0.564467 7:0.459631 
0.006536564864312762 1:0.807246 2:0.0854033 3:0.146035 4:0.00828805 5:0.132286 6:0.591241 7:0.332499 
1 1:0.543766 2:0.15663 3:0.358038 4:0.00866225 5:0.137483 6:0.373653 7:0.366131 
1 1:0.561944 2:0.140314 3:0.354783 4:0.00841879 5:0.134108 6:0.357541 7:0.558186 
1 1:0.72161 2:0.233731 3:0.0900764 4:0.00850157 5:0.13526 6:0.415121 7:0.329817 
1 1:0.770934 2:0.18061 3:0.0900764 4:0.0122201 5:0.184124 6:0.49818 7:0.358274 
1 1:0.692016 2:0.239043 3:0.11657 4:0.0129677 5:0.19333 6:0.572497 7:0.657942 
1 1:0.761069 2:0.196546 3:0.0847791 4:0.0137503 5:0.202761 6:0.550639 7:0.622698 
1 1:0.668999 2:0.23567 3:0.144661 4:0.0120976 5:0.182597 6:0.439892 7:0.365421 
1 1:0.746429 2:0.0652623 3:0.231458 4:0.00646844 5:0.106158 6:0.574162 7:0.403818 
1 1:0.618502 2:0.286429 3:0.148279 4:0.0121708 5:0.183511 6:0.424974 7:0.27032 
1 1:0.762501 2:0.122806 3:0.156794 4:0.0179864 5:0.250441 6:0.213512 7:0.542721 
1 1:0.780745 2:0.108069 3:0.151895 4:0.00507793 5:0.0851741 6:0.225638 7:0.841638 
1 1:0.889925 2:0.0856568 3:0.056961 4:0.00945561 5:0.14831 6:0.541714 7:0.411755 
1 1:0.854577 2:0.152279 3:0.0284798 4:0.00891001 5:0.140892 6:0.545629 7:0.685748 
1 1:0.716051 2:0.105424 3:0.224033 4:0.0280735 5:0.345082 6:0.478033 7:0.43783 
1 1:0.711214 2:0.187336 3:0.147524 4:0.0407859 5:0.436826 6:0.284822 7:0.707369 
1 1:0.832292 2:0.0558633 3:0.148593 4:0.0230269 5:0.300678 6:0.453514 7:0.361817 
1 1:0.669767 2:0.193658 3:0.185741 4:0.0165852 5:0.23527 6:0.481098 7:0.446238 
1 1:0.613602 2:0.238153 3:0.201696 4:0.00724821 5:0.117533 6:0.430443 7:0.674107 
1 1:0.692874 2:0.202206 3:0.152392 4:0.0128197 5:0.191523 6:0.511797 7:0.404739 
1 1:0.584396 2:0.274102 3:0.197214 4:0.00609514 5:0.100614 6:0.389765 7:0.674107 
1 1:0.797406 2:0.0559387 3:0.185993 4:0.0141085 5:0.20701 6:0.506388 7:0.560548 
1 1:0.719497 2:0.149172 3:0.176694 4:0.00814301 5:0.130256 6:0.479534 7:0.45817 
1 1:0.501443 2:0.165468 3:0.394687 4:0.0336331 5:0.388338 6:0.453707 7:0.879855 
1 1:0.693185 2:0.144264 3:0.209855 4:0.0194942 5:0.266154 6:0.59654 7:0.852268 
1 1:0.70528 2:0.277317 3:0.0641435 4:0.0160128 5:0.228906 6:0.586894 7:0.817335 
1 1:0.911525 2:0.112031 3:0.00745043 4:0.0172851 5:0.242918 6:0.16911 7:0.58341 
1 1:0.838709 2:0.186718 3:0.0111743 4:0.0131846 5:0.195966 6:0.202914 7:0.639564 
1 1:0.520844 2:0.258212 3:0.281335 4:0.00290214 5:0.0504185 6:0.458418 7:0.359515 
0.7243314448413275 1:0.542975 2:0.0516421 3:0.463608 4:0.013194 5:0.196079 6:0.406111 7:0.315123 
1 1:0.51435 2:0.057105 3:0.488911 4:0.0471851 5:0.474618 6:0.334155 7:0.580007 
1 1:0.492258 2:0.518699 3:0.0522132 4:0.0110453 5:0.169255 6:0.38115 7:0.404498 
1 1:0.571051 2:0.0765648 3:0.408589 4:0.0289153 5:0.351987 6:0.376533 7:0.636651 
1 1:0.563942 2:0.0612522 3:0.431499 4:0.0433566 5:0.452582 6:0.341878 7:0.636651 
1 1:0.479424 2:0.0523767 3:0.531148 4:0.0115555 5:0.175774 6:0.419938 7:0.702725 
1 1:0.47132 2:0.0436466 3:0.548562 4:0.0174311 5:0.244495 6:0.326547 7:0.578986 
1 1:0.705433 2:0.271295 3:0.0699862 4:0.0188394 5:0.259406 6:0.535271 7:0.417811 
1 1:0.717421 2:0.25658 3:0.0717853 4:0.0145573 5:0.212274 6:0.335174 7:0.427811 
1 1:0.720326 2:0.253451 3:0.0717853 4:0.0157318 5:0.225746 6:0.317149 7:0.427811 
1 1:0.732583 2:0.186519 3:0.125381 4:0.0132459 5:0.196706 6:0.519236 7:0.304823 
1 1:0.575516 2:0.328468 3:0.152522 4:0.0201316 5:0.272614 6:0.558479 7:0.800709 
1 1:0.858111 2:0.102788 3:0.0740491 4:0.016985 5:0.239656 6:0.413262 7:0.320047 
1 1:0.746765 2:0.234128 3:0.0626561 4:0.0132463 5:0.196711 6:0.60124 7:0.786905 
1 1:0.651325 2:0.342627 3:0.056961 4:0.0178448 5:0.248932 6:0.450858 7:0.320047 
1 1:0.720639 2:0.214257 3:0.110544 4:0.0112339 5:0.171675 6:0.494951 7:0.275144 
1 1:0.72407 2:0.210564 3:0.110544 4:0.0119646 5:0.180933 6:0.476711 7:0.348344 
1 1:0.266446 2:0.745719 3:0.0683526 4:0.0106952 5:0.164725 6:0.257075 7:0.798416 
1 1:0.318845 2:0.644945 3:0.112581 4:0.015142 5:0.219035 6:0.273662 7:0.741812 
1 1:0.861039 2:0.0920489 3:0.0816144 4:0.00836852 5:0.133409 6:0.540428 7:0.599536 
1 1:0.79681 2:0.121523 3:0.121217 4:0.00468424 5:0.0790647 6:0.583114 7:0.470852 
1 1:0.702779 2:0.189036 3:0.154887 4:0.00757311 5:0.122194 6:0.599782 7:0.794363 
1 1:0.790541 2:0.0810149 3:0.168357 4:0.0043553 5:0.0738999 6:0.627561 7:0.494505 
1 1:0.596743 2:0.131004 3:0.326686 4:0.00200452 5:0.0353451 6:0.369862 7:0.572279 
1 1:0.489139 2:0.246893 3:0.326686 4:0.00565008 5:0.093919 6:0.415474 7:0.572279 
1 1:0.447033 2:0.317435 3:0.301555 4:0.00836467 5:0.133355 6:0.498406 7:0.768167 
1 1:0.911825 2:0.0350508 3:0.083911 4:0.00619023 5:0.102032 6:0.241498 7:0.637732 
1 1:0.921589 2:0.0701029 3:0.0384593 4:0.00665862 5:0.108958 6:0.296306 7:0.637502 
1 1:0.908571 2:0.0665971 3:0.0559411 4:0.00404002 5:0.0688987 6:0.720337 7:0.637732 
1 1:0.774058 2:0.0600626 3:0.206963 4:0.00920682 5:0.144942 6:0.464357 7:0.428111 
1 1:0.642241 2:0.202027 3:0.206963 4:0.0077983 5:0.125396 6:0.473345 7:0.448991 
1 1:0.869219 2:0.0800295 3:0.0848174 4:0.00928479 5:0.146001 6:0.272039 7:0.597153 
1 1:0.845998 2:0.0750285 3:0.114753 4:0.0048648 5:0.0818763 6:0.123853 7:0.833981 
1 1:0.315908 2:0.74583 3:0.0151059 4:0.00781913 5:0.125692 6:0.318729 7:0.347534 
1 1:0.298331 2:0.719328 3:0.0604223 4:0.00940278 5:0.147597 6:0.287572 7:0.319977 
1 1:0.333485 2:0.681469 3:0.0604223 4:0.0129534 5:0.193156 6:0.315613 7:0.710142 
1 1:0.337 2:0.677682 3:0.0604223 4:0.014019 5:0.205953 6:0.271994 7:0.34337 
1 1:0.264651 2:0.771607 3:0.0444565 4:0.00560507 5:0.0932376 6:0.330621 7:0.345542 
1 1:0.212922 2:0.824534 3:0.0472358 4:0.00736728 5:0.119246 6:0.197662 7:0.696509 
1 1:0.231027 2:0.805034 3:0.0472358 4:0.0146429 5:0.213271 6:0.216001 7:0.51052 
1 1:0.665278 2:0.192352 3:0.191867 4:0.0154383 5:0.222421 6:0.502552 7:0.584421 
1 1:0.670859 2:0.198363 3:0.179875 4:0.00954679 5:0.149538 6:0.270054 7:0.995806 
1 1:0.827135 2:0.0781437 3:0.131908 4:0.00641856 5:0.105421 6:0.561914 7:0.483484 
1 1:0.787483 2:0.195787 3:0.0571592 4:0.00918855 5:0.144694 6:0.579183 7:0.421214 
1 1:0.796351 2:0.100282 3:0.142898 4:0.011018 5:0.168903 6:0.594904 7:0.728499 
1 1:0.793608 2:0.0788783 3:0.167193 4:0.0103426 5:0.160117 6:0.384896 7:0.581929 
1 1:0.830228 2:0.0985971 3:0.108184 4:0.0110805 5:0.169708 6:0.490381 7:0.563841 
1 1:0.793608 2:0.0887377 3:0.157359 4:0.00707329 5:0.115006 6:0.425468 7:0.608534 
1 1:0.793608 2:0.128177 3:0.118019 4:0.00949306 5:0.148815 6:0.547179 7:0.701964 
1 1:0.80861 2:0.0633422 3:0.166574 4:0.00720627 5:0.116929 6:0.701587 7:0.813901 
1 1:0.787222 2:0.143961 3:0.109135 4:0.0136294 5:0.201318 6:0.635242 7:0.898422 
1 1:0.803263 2:0.0691011 3:0.166574 4:0.00854382 5:0.135844 6:0.583114 7:0.647792 
1 1:0.698564 2:0.145358 3:0.202987 4:0.00509467 5:0.0854325 6:0.505969 7:0.396431 
1 1:0.640721 2:0.240878 3:0.169845 4:0.00290926 5:0.0505362 6:0.437614 7:0.557355 
1 1:0.615499 2:0.154337 3:0.283263 4:0.012388 5:0.186209 6:0.446666 7:0.498989 
1 1:0.586839 2:0.382754 3:0.0862104 4:0.00702225 5:0.114265 6:0.48223 7:0.818205 
1 1:0.72441 2:0.234591 3:0.0862104 4:0.00871182 5:0.138167 6:0.558438 7:0.644819 
1 1:0.388273 2:0.612072 3:0.070786 4:0.00624774 5:0.102888 6:0.347425 7:0.999419 
1 1:0.417101 2:0.581024 3:0.070786 4:0.00666632 5:0.109071 6:0.332825 7:0.999419 
1 1:0.425337 2:0.164106 3:0.477805 4:0.00458588 5:0.0775259 6:0.402175 7:0.468189 
1 1:0.46652 2:0.119754 3:0.477805 4:0.00808254 5:0.129408 6:0.372975 7:0.69802 
1 1:0.606367 2:0.213654 3:0.233907 4:0.00471181 5:0.0794944 6:0.470388 7:0.826724 
1 1:0.567659 2:0.255342 3:0.233907 4:0.00483101 5:0.0813509 6:0.436081 7:0.471683 
1 1:0.519563 2:0.320059 3:0.221021 4:0.0050973 5:0.0854727 6:0.451899 7:0.316214 
1 1:0.504323 2:0.336472 3:0.221021 4:0.00552722 5:0.0920548 6:0.465407 7:0.392737 
1 1:0.562411 2:0.0702824 3:0.424136 4:0.0194392 5:0.265592 6:0.395549 7:0.373408 
1 1:0.764351 2:0.190213 3:0.0875693 4:0.00322755 5:0.0557737 6:0.275774 7:0.837234 
1 1:0.764351 2:0.195091 3:0.0827039 4:0.00838121 5:0.133586 6:0.560751 7:0.837234 
1 1:0.76888 2:0.199967 3:0.0729746 4:0.00543778 5:0.090693 6:0.291829 7:0.875541 
1 1:0.777937 2:0.199967 3:0.0632439 4:0.00623261 5:0.102663 6:0.576806 7:0.994485 
1 1:0.506966 2:0.19007 3:0.364214 4:0.00405054 5:0.0690662 6:0.354365 7:0.826183 
1 1:0.548763 2:0.0850319 3:0.424086 4:0.018962 5:0.260678 6:0.284388 7:0.463955 
1 1:0.539475 2:0.475176 3:0.0449036 4:0.00432055 5:0.0733506 6:0.465505 7:0.525024 
1 1:0.562696 2:0.0700261 3:0.424086 4:0.0288222 5:0.35123 6:0.379063 7:0.598014 
1 1:0.365069 2:0.153198 3:0.553429 4:0.00286835 5:0.0498587 6:0.306624 7:0.411355 
1 1:0.299712 2:0.753573 3:0.0247806 4:0.00810742 5:0.129757 6:0.333883 7:0.474125 
1 1:0.415048 2:0.111794 3:0.541038 4:0.00852651 5:0.135604 6:0.33729 7:0.39635 
1 1:0.369712 2:0.205379 3:0.496393 4:0.028342 5:0.347299 6:0.266902 7:0.387672 
1 1:0.421053 2:0.537145 3:0.11031 4:0.00307245 5:0.0532282 6:0.305906 7:0.461073 
1 1:0.377045 2:0.197479 3:0.496393 4:0.0336063 5:0.388141 6:0.305906 7:0.347063 
1 1:0.483396 2:0.533195 3:0.0472754 4:0.00342062 5:0.0589241 6:0.318908 7:0.445267 
1 1:0.590519 2:0.414924 3:0.0501667 4:0.0140187 5:0.205949 6:0.368036 7:0.3126 
1 1:0.689754 2:0.257756 3:0.100333 4:0.00594324 5:0.0983393 6:0.533594 7:0.998218 
1 1:0.805218 2:0.119382 3:0.114318 4:0.0074028 5:0.119756 6:0.449499 7:0.553321 
1 1:0.849557 2:0.0907304 3:0.0952644 4:0.00520136 5:0.0870746 6:0.42199 7:0.553321 
1 1:0.774181 2:0.0573037 3:0.209583 4:0.0196924 5:0.268174 6:0.496658 7:0.995015 
1 1:0.577094 2:0.394021 3:0.0854408 4:0.00373795 5:0.0640593 6:0.439109 7:0.327074 
1 1:0.593001 2:0.37689 3:0.0854408 4:0.00324705 5:0.0560924 6:0.343946 7:0.598785 
1 1:0.541304 2:0.162748 3:0.354579 4:0.0158246 5:0.226793 6:0.365093 7:0.608354 
1 1:0.585047 2:0.124202 3:0.346035 4:0.0140543 5:0.20637 6:0.439109 7:0.99999 
1 1:0.837823 2:0.0907907 3:0.107811 4:0.0225629 5:0.296316 6:0.418941 7:0.24984 
1 1:0.530275 2:0.409429 3:0.120369 4:0.00882646 5:0.139746 6:0.44935 7:0.29152 
1 1:0.590299 2:0.344782 3:0.120369 4:0.00664272 5:0.108724 6:0.445804 7:0.70843 
1 1:0.296346 2:0.240032 3:0.540642 4:0.0425087 5:0.447474 6:0.266783 7:0.570738 
1 1:0.289156 2:0.20906 3:0.57926 4:0.0107271 5:0.16514 6:0.352807 7:0.580938 
1 1:0.296346 2:0.677511 3:0.104266 4:0.012426 5:0.18668 6:0.355993 7:0.580938 
1 1:0.666562 2:0.0630119 3:0.319502 4:0.00364023 5:0.0624831 6:0.504713 7:0.318856 
1 1:0.720974 2:0.23399 3:0.0905016 4:0.018998 5:0.261051 6:0.520236 7:0.623609 
1 1:0.790299 2:0.177926 3:0.0719507 4:0.00832536 5:0.132808 6:0.62721 7:0.439452 
1 1:0.85281 2:0.110603 3:0.0719507 4:0.00727931 5:0.117981 6:0.694486 7:0.998018 
1 1:0.635473 2:0.240193 3:0.176167 4:0.00618215 5:0.101912 6:0.490925 7:0.434597 
1 1:0.714186 2:0.155418 3:0.176167 4:0.00441089 5:0.0747765 6:0.432787 7:0.558476 
1 1:0.615794 2:0.261386 3:0.176167 4:0.00613887 5:0.101267 6:0.450228 7:0.591648 
1 1:0.66827 2:0.204871 3:0.176167 4:0.00640182 5:0.105173 6:0.380464 7:0.982914 
1 1:0.558976 2:0.399354 3:0.099587 4:0.0103855 5:0.16068 6:0.476409 7:0.956598 
1 1:0.41571 2:0.503731 3:0.149381 4:0.00802765 5:0.128635 6:0.394247 7:0.464986 
1 1:0.537906 2:0.422044 3:0.099587 4:0.0131312 5:0.195319 6:0.327023 7:0.61486 
1 1:0.436207 2:0.0587359 3:0.571232 4:0.00139256 5:0.0248078 6:0.289063 7:0.492293 
1 1:0.37258 2:0.0978941 3:0.600527 4:0.00739536 5:0.11965 6:0.285035 7:0.866562 
1 1:0.418027 2:0.117472 3:0.532174 4:0.001996 5:0.0351996 6:0.276979 7:0.998178 
1 1:0.37258 2:0.631413 3:0.0683526 4:0.00377059 5:0.0645847 6:0.264895 7:0.601307 
1 1:0.616646 2:0.170387 3:0.266022 4:0.0161033 5:0.229919 6:0.359282 7:0.537056 
1 1:0.554738 2:0.237061 3:0.266022 4:0.0161569 5:0.230517 6:0.420248 7:0.522862 
1 1:0.720414 2:0.207653 3:0.117374 4:0.0103482 5:0.16019 6:0.394322 7:0.574251 
1 1:0.630437 2:0.380697 3:0.0414258 4:0.00919034 5:0.144718 6:0.434196 7:0.513103 
1 1:0.534034 2:0.436071 3:0.0897565 4:0.0134645 5:0.199341 6:0.456982 7:0.400354 
1 1:0.37816 2:0.508881 3:0.184581 4:0.00684996 5:0.111758 6:0.395476 7:0.565603 
1 1:0.53924 2:0.190831 3:0.328784 4:0.0130103 5:0.19385 6:0.376441 7:0.801199 
1 1:0.630519 2:0.138786 3:0.282639 4:0.00854786 5:0.135901 6:0.443065 7:0.595682 
1 1:0.82196 2:0.14951 3:0.0662815 4:0.00589553 5:0.0976234 6:0.492298 7:0.998869 
1 1:0.883659 2:0.132898 3:0.01657 4:0.0124887 5:0.187454 6:0.64268 7:0.998869 
1 1:0.627689 2:0.375651 3:0.0494121 4:0.00390351 5:0.0667178 6:0.312309 7:0.399584 
1 1:0.57786 2:0.429316 3:0.0494121 4:0.01129 5:0.172393 6:0.458388 7:0.37525 
1 1:0.497651 2:0.49168 3:0.0733724 4:0.00517905 5:0.086732 6:0.279528 7:0.49991 
1 1:0.494056 2:0.224547 3:0.343693 4:0.00522502 5:0.0874383 6:0.454761 7:0.888493 
1 1:0.501245 2:0.487808 3:0.0733724 4:0.00613265 5:0.101174 6:0.250853 7:0.498889 
1 1:0.52819 2:0.113266 3:0.418024 4:0.00728623 5:0.118081 6:0.364287 7:0.92693 
1 1:0.591292 2:0.0377548 3:0.425556 4:0.00425251 5:0.072275 6:0.401572 7:0.449782 
1 1:0.517674 2:0.128367 3:0.414258 4:0.0248462 5:0.31731 6:0.382929 7:0.661805 
1 1:0.577269 2:0.0528564 3:0.425556 4:0.0103855 5:0.160679 6:0.376716 7:0.335402 
1 1:0.602304 2:0.219798 3:0.23214 4:0.0093139 5:0.146394 6:0.507872 7:0.467869 
1 1:0.674335 2:0.0969704 3:0.277279 4:0.00906557 5:0.143019 6:0.502552 7:0.534663 
1 1:0.578294 2:0.213333 3:0.264382 4:0.00727873 5:0.117973 6:0.470631 7:0.413207 
1 1:0.668332 2:0.084041 3:0.296624 4:0.00481055 5:0.0810332 6:0.44403 7:0.726197 
1 1:0.843093 2:0.138863 3:0.0542009 4:0.00893168 5:0.141189 6:0.500067 7:0.780129 
1 1:0.803852 2:0.181125 3:0.0542009 4:0.0132846 5:0.197174 6:0.534847 7:0.501101 
1 1:0.624814 2:0.276005 3:0.151895 4:0.0191198 5:0.262309 6:0.561294 7:0.872758 
1 1:0.60714 2:0.299799 3:0.147148 4:0.0208084 5:0.279359 6:0.459474 7:0.847193 
1 1:0.779462 2:0.114209 3:0.147148 4:0.00641849 5:0.10542 6:0.620038 7:0.872758 
1 1:0.766206 2:0.2189 3:0.056961 4:0.00614098 5:0.101298 6:0.62787 7:0.847193 
1 1:0.542352 2:0.0756726 3:0.440308 4:0.0356518 5:0.402772 6:0.329567 7:0.527687 
1 1:0.53845 2:0.218608 3:0.301926 4:0.00592887 5:0.098123 6:0.506011 7:0.754234 
1 1:0.620422 2:0.0546518 3:0.377408 4:0.0058536 5:0.0969918 6:0.294969 7:0.982513 
1 1:0.534227 2:0.107653 3:0.417137 4:0.00178479 5:0.0315861 6:0.248696 7:0.590847 
1 1:0.541916 2:0.314678 3:0.202373 4:0.00850945 5:0.135369 6:0.408847 7:0.557866 
1 1:0.58805 2:0.0496864 3:0.417137 4:0.00243464 5:0.0426239 6:0.279364 7:0.465197 
1 1:0.576517 2:0.277414 3:0.202373 4:0.00575761 5:0.0955458 6:0.39181 7:0.467859 
1 1:0.808061 2:0.230928 4:0.00574286 5:0.0953229 6:0.426121 7:0.436839 
1 1:0.616948 2:0.336352 3:0.10015 4:0.00989567 5:0.154206 6:0.326968 7:0.499329 
1 1:0.808061 2:0.130525 3:0.10015 4:0.00694351 5:0.113121 6:0.628559 7:0.813281 
1 1:0.649577 2:0.28113 3:0.12018 4:0.0076119 5:0.122747 6:0.496354 7:0.32338 
1 1:0.433934 2:0.312647 3:0.320403 4:0.0097371 5:0.15209 6:0.428536 7:0.957249 
1 1:0.589024 2:0.201293 3:0.264866 4:0.00792096 5:0.127132 6:0.428536 7:0.571489 
1 1:0.394167 2:0.334062 3:0.341763 4:0.014924 5:0.216527 6:0.375667 7:0.519339 
1 1:0.664581 2:0.165196 3:0.219704 4:0.00683002 5:0.111466 6:0.366603 7:0.806634 
1 1:0.681624 2:0.14684 3:0.219704 4:0.00651961 5:0.106913 6:0.462271 7:0.806634 
1 1:0.268522 2:0.419866 3:0.391151 4:0.00532557 5:0.088979 6:0.326527 7:0.996116 
1 1:0.393569 2:0.217856 3:0.458318 4:0.00691575 5:0.112717 6:0.339565 7:0.550388 
1 1:0.793856 2:0.171895 3:0.0741448 4:0.0125778 5:0.188553 6:0.71092 7:0.993914 
1 1:0.793856 2:0.120791 3:0.125119 4:0.00707098 5:0.114972 6:0.714744 7:0.694126 
1 1:0.671167 2:0.277465 3:0.100642 4:0.00664356 5:0.108736 6:0.537149 7:0.99958 
1 1:0.590145 2:0.188885 3:0.276039 4:0.0153307 5:0.221194 6:0.470017 7:0.740621 
1 1:0.581988 2:0.408517 3:0.0657238 4:0.00534102 5:0.0892154 6:0.459172 7:0.995275 
1 1:0.520808 2:0.241596 3:0.297948 4:0.0113835 5:0.173588 6:0.365183 7:0.790219 
1 1:0.500416 2:0.49637 3:0.0657238 4:0.00349173 5:0.0600792 6:0.310959 7:0.995275 
1 1:0.933088 2:0.0169902 3:0.0790853 4:0.00477913 5:0.0805442 6:0.577122 7:0.999299 
1 1:0.465089 2:0.283164 3:0.316343 4:0.00676936 5:0.110581 6:0.386037 7:0.467279 
1 1:0.659651 2:0.31148 3:0.0790853 4:0.00694287 5:0.113111 6:0.507212 7:0.784743 
1 1:0.726287 2:0.216603 3:0.102137 4:0.00893797 5:0.141275 6:0.489588 7:0.504735 
1 1:0.718974 2:0.149653 3:0.176774 4:0.00777835 5:0.125114 6:0.583576 7:0.685778 
1 1:0.708706 2:0.0788509 3:0.258429 4:0.044598 5:0.459906 6:0.442296 7:0.410744 
1 1:0.705219 2:0.214024 3:0.127342 4:0.0142595 5:0.208788 6:0.383586 7:0.826213 
1 1:0.513467 2:0.213706 3:0.333654 4:0.00812351 5:0.129983 6:0.450937 7:0.505916 
1 1:0.569545 2:0.148666 3:0.338288 4:0.0040817 5:0.0695629 6:0.50064 7:0.546785 
1 1:0.517781 2:0.20906 3:0.333654 4:0.00567457 5:0.0942903 6:0.443292 7:0.446969 
1 1:0.879645 2:0.0978941 3:0.0557976 4:0.00247677 5:0.0433311 6:0.448844 7:0.995756 
1 1:0.472781 2:0.536083 3:0.0557976 4:0.0151199 5:0.218781 6:0.264703 7:0.375741 
1 1:0.438154 2:0.111879 3:0.516132 4:0.00339183 5:0.0584552 6:0.218667 7:0.632787 
1 1:0.656692 2:0.12207 3:0.271197 4:0.0101922 5:0.158136 6:0.427208 7:0.376992 
1 1:0.584564 2:0.19975 3:0.271197 4:0.0102357 5:0.15871 6:0.550497 7:0.999399 
1 1:0.52274 2:0.24414 3:0.293335 4:0.0221156 5:0.292064 6:0.395244 7:0.390505 
1 1:0.727464 2:0.279792 3:0.0378427 4:0.00899619 5:0.142071 6:0.461574 7:0.951584 
1 1:0.819931 2:0.147009 3:0.0709541 4:0.00696473 5:0.11343 6:0.578653 7:0.556054 
1 1:0.80232 2:0.218144 3:0.0189214 4:0.00644177 5:0.105764 6:0.457672 7:0.466268 
1 1:0.51983 2:0.315217 3:0.225564 4:0.013892 5:0.204448 6:0.361569 7:0.767227 
1 1:0.583457 2:0.205576 3:0.266575 4:0.0259186 5:0.326775 6:0.542027 7:0.987298 
1 1:0.383595 2:0.406076 3:0.281286 4:0.00729066 5:0.118145 6:0.416685 7:0.585432 
1 1:0.61925 2:0.0958794 3:0.337544 4:0.00373635 5:0.0640334 6:0.347064 7:0.547786 
1 1:0.614013 2:0.107159 3:0.331918 4:0.00489455 5:0.0823376 6:0.263519 7:0.615291 
1 1:0.606159 2:0.160739 3:0.286913 4:0.00900408 5:0.142179 6:0.422487 7:0.330017 
1 1:0.582593 2:0.397616 3:0.0759479 4:0.00524067 5:0.0876785 6:0.321536 7:0.491602 
1 1:0.805571 2:0.155739 3:0.0776732 4:0.0192533 5:0.263684 6:0.528185 7:0.348845 
1 1:0.783881 2:0.225823 3:0.031069 4:0.00964355 5:0.150837 6:0.50896 7:0.538697 
1 1:0.870644 2:0.093444 3:0.0699056 4:0.00660245 5:0.108132 6:0.649943 7:0.532681 
1 1:0.654519 2:0.231171 3:0.164705 4:0.0155484 5:0.223671 6:0.325898 7:0.574842 
1 1:0.639187 2:0.355011 3:0.0576472 4:0.0086636 5:0.137502 6:0.387047 7:0.626832 
1 1:0.631521 2:0.255938 3:0.164705 4:0.0123081 5:0.185218 6:0.488963 7:0.604 
1 1:0.669851 2:0.305475 3:0.0741175 4:0.00568926 5:0.0945123 6:0.522935 7:0.518808 
1 1:0.341879 2:0.0671056 3:0.664218 4:0.0313578 5:0.371285 6:0.293334 7:0.4691 
1 1:0.272381 2:0.116145 3:0.689962 4:0.0313885 5:0.371522 6:0.265722 7:0.460322 
